
#ifndef ORIGINAL_H
#define ORIGINAL_H
// This file is computer-generated by onnx2c 
// (TODO: add creating command line here)
// (TODO: print creation date here )

// ONNX model:
// produced by pytorch, version 1.11.0
// ONNX IR version: 9
// Model documentation: 
/*

*/

#include <float.h>
#include <math.h>
#include <stdbool.h>
#include <stdint.h>
#include <string.h>
#define MAX(X,Y) ( X > Y ? X : Y)
#define MIN(X,Y) ( X < Y ? X : Y)
#define CLIP(X,L) ( MAX(MIN(X,L), -L) )

static const float tensor_Gemm_0_weight[25][64] = 
{
  {0.061346236616373062134f, 0.061345349997282028198f, -0.028303811326622962952f, 0.20198592543601989746f, 0.24056541919708251953f, 0.094306550920009613037f, -0.082149170339107513428f, -0.12425997108221054077f, 0.078606337308883666992f, -0.0070222523063421249390f, 0.081992082297801971436f, 0.56638950109481811523f, 0.60379284620285034180f, 0.22468706965446472168f, -0.066498160362243652344f, -0.12487466633319854736f, -0.11418533325195312500f, -0.051947087049484252930f, -0.017147881910204887390f, -0.039094328880310058594f, -0.10843757539987564087f, -0.33024498820304870605f, -0.14651332795619964600f, 0.052731193602085113525f, -0.058968406170606613159f, -0.15835766494274139404f, -0.38871505856513977051f, -0.066239930689334869385f, 0.059496723115444183350f, -0.16483648121356964111f, 0.14433176815509796143f, 0.0051794801838696002960f, -0.095098927617073059082f, -0.16768711805343627930f, -0.019388312473893165588f, 0.51201200485229492188f, 0.060401521623134613037f, -0.24199035763740539551f, 0.35666379332542419434f, 0.024625757709145545959f, 0.025440189987421035767f, 0.25231507420539855957f, 0.60203301906585693359f, 0.97047382593154907227f, 0.33895576000213623047f, 0.49571707844734191895f, 0.29898771643638610840f, 0.18094947934150695801f, 0.025747040286660194397f, -0.011577337048947811127f, 0.28076878190040588379f, 0.046616949141025543213f, 0.29746598005294799805f, 0.10057568550109863281f, 0.088895387947559356689f, -0.084468387067317962646f, -0.017174039036035537720f, 0.049943279474973678589f, -0.27043601870536804199f, -0.27996417880058288574f, -0.19995692372322082520f, -0.14718241989612579346f, 0.010393321514129638672f, -0.078270599246025085449f},
  {-0.010549384169280529022f, -0.069550976157188415527f, -0.051376376301050186157f, -0.022442081943154335022f, 0.037253666669130325317f, -0.050332542508840560913f, 0.0046459012664854526520f, 0.028279315680265426636f, -0.010113435797393321991f, 0.0057401778176426887512f, 0.021778110414743423462f, -0.12026432156562805176f, 0.11214167624711990356f, 0.0015381852863356471062f, -0.052202966064214706421f, 0.029698243364691734314f, -0.034312531352043151855f, -0.10175041109323501587f, -0.24330320954322814941f, 0.10777719318866729736f, -0.25197911262512207031f, -0.048116728663444519043f, 0.086498126387596130371f, -0.095379307866096496582f, -0.047934055328369140625f, 0.067890807986259460449f, 0.26488816738128662109f, 0.36477217078208923340f, -0.41851347684860229492f, -0.16495771706104278564f, 0.13498079776763916016f, -0.098312832415103912354f, -0.012506574392318725586f, 0.16104614734649658203f, 0.57647383213043212891f, 0.11041172593832015991f, -0.14848923683166503906f, 0.20868052542209625244f, 0.22220787405967712402f, 0.13253256678581237793f, 0.071614161133766174316f, 0.025365306064486503601f, 0.15258465707302093506f, 0.25226125121116638184f, 0.17190876603126525879f, 0.25384157896041870117f, 0.090603575110435485840f, -0.073980025947093963623f, -0.059468448162078857422f, -0.12058205902576446533f, -0.20101493597030639648f, 0.064465187489986419678f, 0.11057573556900024414f, -0.052363272756338119507f, 0.028027566149830818176f, -0.092255994677543640137f, -0.085671916604042053223f, 0.023755213245749473572f, -0.021842664107680320740f, -0.020771557465195655823f, -0.060446251183748245239f, 0.062668271362781524658f, -0.11529812961816787720f, 0.088527873158454895020f},
  {0.12052449584007263184f, 0.025699481368064880371f, -0.082607835531234741211f, -0.090842008590698242188f, 0.030728597193956375122f, 0.016478579491376876831f, 0.059930514544248580933f, 0.12285201251506805420f, 0.12353143841028213501f, -0.089225433766841888428f, -0.044369082897901535034f, -0.11341708898544311523f, 0.063567213714122772217f, 0.058318518102169036865f, 0.031195525079965591431f, 0.033045262098312377930f, -0.011192671954631805420f, -0.053392287343740463257f, -0.020841723307967185974f, 0.090460598468780517578f, -0.10911392420530319214f, 0.028064545243978500366f, 0.10409139096736907959f, -0.11906775832176208496f, 0.036731824278831481934f, 0.064496688544750213623f, -0.12480733543634414673f, 0.087148047983646392822f, -0.058211788535118103027f, -0.019758215174078941345f, -0.017285810783505439758f, 0.085066258907318115234f, 0.078794032335281372070f, -0.084523841738700866699f, -0.091640859842300415039f, 0.082991495728492736816f, -0.11910367012023925781f, -0.017432179301977157593f, 0.10498233139514923096f, 0.079038336873054504395f, 0.068093463778495788574f, -0.10165698826313018799f, -0.047328162938356399536f, -0.034202687442302703857f, -0.078640811145305633545f, 0.058414082974195480347f, -0.062892541289329528809f, 0.035463407635688781738f, -0.0046541183255612850189f, 0.11049717664718627930f, 0.026510190218687057495f, -0.12412373721599578857f, 0.029217571020126342773f, 0.11665241420269012451f, -0.024018043652176856995f, -0.022077530622482299805f, 0.081822812557220458984f, -0.016605084761977195740f, 0.054040662944316864014f, 0.094049483537673950195f, 0.059825055301189422607f, -0.022923551499843597412f, -0.067255213856697082520f, -0.084822937846183776855f},
  {0.0098364669829607009888f, 0.033090308308601379395f, 0.082888066768646240234f, 0.098630778491497039795f, 0.13034647703170776367f, 0.00093238253612071275711f, -0.070286110043525695801f, -0.076406195759773254395f, -0.11516229063272476196f, 0.10810933262109756470f, 0.081238172948360443115f, 0.050885882228612899780f, 0.13420002162456512451f, 0.038255952298641204834f, 0.098463200032711029053f, -0.0014910050667822360992f, -0.041831437498331069946f, -0.067561835050582885742f, -0.14402242004871368408f, -0.10680194199085235596f, -0.13036090135574340820f, -0.23955680429935455322f, -0.014984163455665111542f, -0.046028036624193191528f, -0.11032949388027191162f, -0.095933884382247924805f, 0.19761547446250915527f, 0.20433789491653442383f, 0.023426538333296775818f, -0.12228053063154220581f, 0.062254458665847778320f, -0.11074611544609069824f, 0.052313141524791717529f, 0.099043853580951690674f, 0.22960028052330017090f, 0.11468988656997680664f, 0.18184150755405426025f, -0.034305278211832046509f, 0.17254872620105743408f, 0.094958268105983734131f, 0.018381649628281593323f, -0.059501569718122482300f, 0.11917703598737716675f, 0.065277852118015289307f, 0.13335375487804412842f, 0.015816651284694671631f, 0.10686901211738586426f, 0.0085540758445858955383f, -0.041000396013259887695f, -0.11140053719282150269f, -0.033494748175144195557f, -0.015997022390365600586f, 0.13148398697376251221f, -0.058503501117229461670f, -0.049802713096141815186f, -0.032257199287414550781f, -0.045569151639938354492f, 0.021201556548476219177f, 0.00094974483363330364227f, 0.027203785255551338196f, -0.021607160568237304688f, -0.075053028762340545654f, -0.088884741067886352539f, -0.11641266196966171265f},
  {-0.11528604477643966675f, -0.099094517529010772705f, -0.0092793824151158332825f, -0.10563623160123825073f, 0.037193357944488525391f, -0.015278214588761329651f, -0.090515285730361938477f, 0.10846999287605285645f, -0.12274783104658126831f, 0.00060808326816186308861f, 0.074773408472537994385f, 0.031415719538927078247f, 0.0047336234711110591888f, -0.046874113380908966064f, -0.092143684625625610352f, -0.052180908620357513428f, -0.10376493632793426514f, 0.11216501891613006592f, -0.082649812102317810059f, -0.064604155719280242920f, 0.12006024271249771118f, 0.00042883513378910720348f, -0.031236978247761726379f, -0.083488710224628448486f, -0.0023196144029498100281f, 0.094792000949382781982f, 0.081956677138805389404f, -0.10553835332393646240f, -0.10774466395378112793f, 0.0027102052699774503708f, -0.030779181048274040222f, -0.045779366046190261841f, 0.017380291596055030823f, -0.050021056085824966431f, 0.061881661415100097656f, -0.10579182207584381104f, -0.029311925172805786133f, -0.11396695673465728760f, 0.015853600576519966125f, -0.038079552352428436279f, 0.074564829468727111816f, 0.049941968172788619995f, -0.00072821177309378981590f, -0.076730065047740936279f, 0.0021067392081022262573f, 0.078057371079921722412f, 0.10445209592580795288f, -0.089680053293704986572f, 0.030110411345958709717f, -0.098015733063220977783f, 0.0030816027428954839706f, -0.11003262549638748169f, -0.058935783803462982178f, -0.084738798439502716064f, 0.066561050713062286377f, 0.047755703330039978027f, -0.073679983615875244141f, -0.059805512428283691406f, 0.081363618373870849609f, 0.12493982911109924316f, -0.040584579110145568848f, -0.092720665037631988525f, 0.055750485509634017944f, -0.11674664169549942017f},
  {0.033742785453796386719f, -0.11902424693107604980f, -0.0061457720585167407990f, -0.012494283728301525116f, -0.038414519280195236206f, 0.018001453951001167297f, -0.062854096293449401855f, -0.11419873684644699097f, 0.031755059957504272461f, -0.066392742097377777100f, 0.061066314578056335449f, -0.11686920374631881714f, -0.11223462969064712524f, 0.066015787422657012939f, 0.059716906398534774780f, 0.044164303690195083618f, -0.10565279424190521240f, 0.041003964841365814209f, -0.066054284572601318359f, -0.060471516102552413940f, 0.11776540428400039673f, 0.096496142446994781494f, -0.040080673992633819580f, 0.10811891406774520874f, -0.10761359333992004395f, -0.0094795748591423034668f, 0.076924994587898254395f, -0.047014307230710983276f, 0.085139751434326171875f, -0.018239054828882217407f, 0.065968513488769531250f, -0.048406779766082763672f, -0.031801044940948486328f, -0.026632247492671012878f, -0.11009460687637329102f, 0.058858018368482589722f, -0.11937623471021652222f, -0.10690470039844512939f, 0.093204051256179809570f, -0.11355710774660110474f, 0.055072065442800521851f, -0.11565999686717987061f, -0.095211572945117950439f, -0.089089542627334594727f, -0.11561885476112365723f, 0.11967279762029647827f, -0.040422685444355010986f, -0.10019977390766143799f, 0.11238668113946914673f, 0.034336455166339874268f, 0.083937369287014007568f, 0.070571437478065490723f, 0.092351213097572326660f, 0.070996291935443878174f, -0.0044728536158800125122f, 0.080385468900203704834f, 0.086345322430133819580f, 0.026950711384415626526f, -0.12121456861495971680f, -0.058696221560239791870f, 0.049560397863388061523f, 0.060589119791984558105f, 0.010349215008318424225f, -0.078215107321739196777f},
  {-0.085827678442001342773f, -0.10042712837457656860f, -0.086189672350883483887f, -0.0021769562736153602600f, -0.099227048456668853760f, -0.072528965771198272705f, 0.0074093253351747989655f, -0.0054382248781621456146f, -0.039947599172592163086f, 0.037118259817361831665f, 0.035664387047290802002f, 0.095464617013931274414f, 0.13313193619251251221f, -0.028207879513502120972f, 0.0094615500420331954956f, 0.016710728406906127930f, -0.059576753526926040649f, -0.054728455841541290283f, 0.044379189610481262207f, 0.039627443999052047729f, -0.079420037567615509033f, 0.19413198530673980713f, 0.12896150350570678711f, -0.053577609360218048096f, 0.0070806033909320831299f, 0.014593045227229595184f, 0.094156153500080108643f, -0.14090017974376678467f, 0.29287040233612060547f, 0.041403766721487045288f, -0.047949325293302536011f, -0.035155691206455230713f, -0.096939019858837127686f, -0.0050432947464287281036f, -0.23139645159244537354f, 0.32783317565917968750f, 0.35427886247634887695f, -0.28054264187812805176f, -0.13898742198944091797f, 0.035725943744182586670f, -0.016714712604880332947f, -0.035182427614927291870f, 0.13640767335891723633f, 0.14737266302108764648f, -0.070986531674861907959f, -0.19076505303382873535f, -0.072704322636127471924f, 0.11075570434331893921f, -0.080873526632785797119f, 0.059154413640499114990f, 0.073074400424957275391f, 4.4341548345983028412e-05f, 0.088863946497440338135f, 0.17145483195781707764f, 0.012757903896272182465f, 0.037391658872365951538f, -0.0065338858403265476227f, -0.11535312235355377197f, -0.0029076652135699987411f, 0.094174534082412719727f, -0.019860291853547096252f, 0.10967288911342620850f, 0.10096184909343719482f, -0.055064447224140167236f},
  {-0.021777639165520668030f, 0.038505304604768753052f, 0.059023711830377578735f, 0.018495202064514160156f, -0.20037171244621276855f, -0.19532914459705352783f, -0.049237422645092010498f, 0.10404671728610992432f, 0.013453415594995021820f, 0.088364966213703155518f, -0.13327603042125701904f, -0.13567884266376495361f, -0.19304017722606658936f, -0.0060779815539717674255f, 0.019757835194468498230f, 0.0042171380482614040375f, 0.10230432450771331787f, 0.046657979488372802734f, 0.41427752375602722168f, 0.51123398542404174805f, 0.44528689980506896973f, 0.46830528974533081055f, 0.34419584274291992188f, 0.17287471890449523926f, -0.10160616785287857056f, 0.041173283010721206665f, 0.41591972112655639648f, 0.31100779771804809570f, 0.16575096547603607178f, 0.34423890709877014160f, 0.094114646315574645996f, -0.084567770361900329590f, -0.021023467183113098145f, -0.11873883008956909180f, -0.15838985145092010498f, -0.34806552529335021973f, 0.061716485768556594849f, 0.19973298907279968262f, -0.12709783017635345459f, -0.10491330921649932861f, 0.077796764671802520752f, -0.11428632587194442749f, -0.31158232688903808594f, -0.28748309612274169922f, -0.028091516345739364624f, -0.28812113404273986816f, -0.27582171559333801270f, 0.053420692682266235352f, -0.043112758547067642212f, -0.10669331252574920654f, 0.15553519129753112793f, 0.22372806072235107422f, 0.22270305454730987549f, 0.057747039943933486938f, -0.12793503701686859131f, 0.023535316810011863708f, -0.045188430696725845337f, -0.096660822629928588867f, 0.17091682553291320801f, 0.41893354058265686035f, 0.23840270936489105225f, 0.15167862176895141602f, 0.010240031406283378601f, -0.023155964910984039307f},
  {-0.030545564368367195129f, 0.018250390887260437012f, -0.022684901952743530273f, -0.024078091606497764587f, 0.097567662596702575684f, 0.12275905907154083252f, -0.062265709042549133301f, 0.065024480223655700684f, 0.027591964229941368103f, -0.12437199801206588745f, -0.10275984555482864380f, -0.020666580647230148315f, -0.071403786540031433105f, -0.089037247002124786377f, 0.064742386341094970703f, 0.0032178396359086036682f, 0.022494528442621231079f, 0.015783254057168960571f, 0.084507972002029418945f, 0.091117694973945617676f, -0.11035772413015365601f, -0.054240316152572631836f, 0.019465487450361251831f, 0.0015397387323901057243f, -0.0010586952557787299156f, -0.10760254412889480591f, 0.0016256971284747123718f, 0.064182244241237640381f, -0.098137013614177703857f, 0.098506249487400054932f, -0.017957184463739395142f, 0.029291866347193717957f, -0.030421888455748558044f, -0.040916875004768371582f, -0.065505124628543853760f, 0.12106092274188995361f, -0.092073634266853332520f, 0.084356375038623809814f, -0.018258854746818542480f, -0.12145016342401504517f, 0.076966874301433563232f, 0.022854560986161231995f, 0.032980084419250488281f, -0.042421746999025344849f, 0.018281958997249603271f, -0.11231532692909240723f, 0.042515773326158523560f, 0.082243829965591430664f, -0.0085875289514660835266f, -0.056961003690958023071f, -0.037675768136978149414f, -0.096124634146690368652f, 0.11265565454959869385f, 0.047042321413755416870f, 0.044846117496490478516f, -0.044123101979494094849f, -0.017882347106933593750f, -0.087682940065860748291f, -0.049736354500055313110f, -0.041233122348785400391f, -0.086508728563785552979f, 0.0040956847369670867920f, 0.093979999423027038574f, 0.057759478688240051270f},
  {-0.11027630418539047241f, 0.12369702756404876709f, -0.098956532776355743408f, 0.0067875888198614120483f, 0.15530580282211303711f, 0.086876049637794494629f, 0.023205215111374855042f, -0.063537642359733581543f, -0.11035519093275070190f, -0.092646777629852294922f, 0.20484593510627746582f, 0.33283483982086181641f, 0.48096710443496704102f, 0.23005776107311248779f, 0.0046605709940195083618f, 0.057119216769933700562f, -0.077487736940383911133f, -0.0069175641983747482300f, -0.023265251889824867249f, -0.015745662152767181396f, 0.012006574310362339020f, 0.18665333092212677002f, 0.037763606756925582886f, 0.063784442842006683350f, -0.031617484986782073975f, -0.18723453581333160400f, -0.24463784694671630859f, -0.058714374899864196777f, -0.11038327217102050781f, -0.12300014495849609375f, 0.090614877641201019287f, 0.038771644234657287598f, -0.11562293767929077148f, -0.019949417561292648315f, 0.0043569980189204216003f, 0.14620165526866912842f, -0.15209600329399108887f, -0.12145583331584930420f, 0.19556196033954620361f, 0.023509573191404342651f, 0.12610727548599243164f, 0.15293511748313903809f, 0.62260454893112182617f, 0.28200137615203857422f, 0.088218778371810913086f, 0.35567489266395568848f, 0.38643333315849304199f, 0.17086406052112579346f, -0.10538977384567260742f, 0.10805284231901168823f, 0.40625962615013122559f, 0.17052546143531799316f, 0.28142568469047546387f, 0.26799365878105163574f, 0.030733371153473854065f, 0.019535912200808525085f, 0.095803461968898773193f, -0.056433092802762985229f, -0.19119729101657867432f, 0.0021908143535256385803f, 0.0043557663448154926300f, 0.0055438126437366008759f, -0.11999709904193878174f, 0.068379677832126617432f},
  {0.037571009248495101929f, 0.090942323207855224609f, 0.097534887492656707764f, -0.10051774233579635620f, 0.011280581355094909668f, -0.032664977014064788818f, -0.013738706707954406738f, -0.12174508720636367798f, -0.081220865249633789062f, 0.032038815319538116455f, 0.12145847082138061523f, 0.076062947511672973633f, 0.020084105432033538818f, 0.048570934683084487915f, -0.013151160441339015961f, -0.032958120107650756836f, 0.065507836639881134033f, 0.094345867633819580078f, 0.014490325935184955597f, 0.079990439116954803467f, 0.070767216384410858154f, 0.12862671911716461182f, -0.079622156918048858643f, -0.10103883594274520874f, 0.11550513654947280884f, 0.053467076271772384644f, -0.15132327377796173096f, -0.013452799990773200989f, -0.085937649011611938477f, 0.12432401627302169800f, 0.11176311969757080078f, 0.054821580648422241211f, 0.0055575682781636714935f, -0.040539436042308807373f, 0.066349722445011138916f, 0.11442266404628753662f, 0.015033430419862270355f, 0.10046105086803436279f, 0.078441992402076721191f, 0.043768145143985748291f, 0.011232051067054271698f, 0.11803393065929412842f, -0.074136801064014434814f, -0.054052874445915222168f, 0.023218737915158271790f, 0.014282335527241230011f, 0.0039943349547684192657f, 0.013678674586117267609f, -0.11174155771732330322f, -0.076492056250572204590f, 0.075283050537109375000f, -0.12363320589065551758f, -0.077318824827671051025f, -0.023695580661296844482f, 0.0021888823248445987701f, 0.094202600419521331787f, -0.12209533154964447021f, -0.042066812515258789062f, 0.043162405490875244141f, -0.016391918063163757324f, -0.089769788086414337158f, -0.052605390548706054688f, -0.037219081073999404907f, -0.024019703269004821777f},
  {-0.041959926486015319824f, -0.049771521240472793579f, -0.0086445752531290054321f, 0.036190643906593322754f, -0.023907717317342758179f, -0.086219742894172668457f, -0.043501693755388259888f, 0.076586402952671051025f, -0.024028854444622993469f, 0.11453840881586074829f, 0.12976625561714172363f, 0.20621286332607269287f, 0.32822826504707336426f, 0.050230056047439575195f, 0.084925025701522827148f, -0.033844191581010818481f, 0.010636339895427227020f, -0.015669586136937141418f, 0.24587586522102355957f, 0.53960341215133666992f, 0.31074169278144836426f, 0.45976015925407409668f, 0.30728989839553833008f, 0.058879416435956954956f, -0.0095298327505588531494f, 0.087765485048294067383f, 0.63186442852020263672f, 0.65806388854980468750f, -0.44666811823844909668f, 0.16776889562606811523f, 0.34191769361495971680f, 0.066783837974071502686f, -0.094050154089927673340f, 0.16102388501167297363f, 0.53411716222763061523f, 0.070406876504421234131f, -0.18222710490226745605f, 0.29793378710746765137f, 0.18501700460910797119f, -0.0075606000609695911407f, 0.11829180270433425903f, 0.15485377609729766846f, 0.30416706204414367676f, -0.38819417357444763184f, -0.019612722098827362061f, 0.38943737745285034180f, -0.077398478984832763672f, -0.0080190747976303100586f, -0.0085049616172909736633f, -0.026887839660048484802f, 0.31800377368927001953f, 0.45505255460739135742f, 0.23360134661197662354f, 0.10552383959293365479f, -0.11241658031940460205f, -0.12131306529045104980f, -0.047350805252790451050f, -0.061389788985252380371f, 0.088832676410675048828f, 0.088024340569972991943f, 0.015671277418732643127f, 0.11035145819187164307f, 0.012287922203540802002f, -0.023882796987891197205f},
  {0.062729544937610626221f, 0.023142216727137565613f, -0.00077383720781654119492f, 0.10535690933465957642f, -0.065380528569221496582f, 0.013554709032177925110f, -0.12291480600833892822f, 0.022339988499879837036f, 0.10768580436706542969f, 0.10580400377511978149f, 0.19082345068454742432f, 0.44031855463981628418f, 0.33237776160240173340f, -0.0050958991050720214844f, -0.035366907715797424316f, 0.017284845933318138123f, -0.049383610486984252930f, 0.21874259412288665771f, 0.20552159845829010010f, 0.31671166419982910156f, 0.62531054019927978516f, 0.52969521284103393555f, 0.23470087349414825439f, 0.081542648375034332275f, -0.072055734694004058838f, -0.012230888940393924713f, -0.35955914855003356934f, -0.081015922129154205322f, 0.30893245339393615723f, -0.044160339981317520142f, 0.071637585759162902832f, 0.015848621726036071777f, -0.039545755833387374878f, -0.081504032015800476074f, -0.42730942368507385254f, -0.27846562862396240234f, -0.17447248101234436035f, -0.050142791122198104858f, 0.040497966110706329346f, 0.10509516298770904541f, -0.0087737916037440299988f, 0.21323119103908538818f, 0.12722073495388031006f, -0.16583435237407684326f, -0.059410229325294494629f, 0.15887740254402160645f, 0.12622709572315216064f, 0.038031019270420074463f, 0.014449969865381717682f, 0.16826803982257843018f, 0.43495282530784606934f, 0.31392708420753479004f, 0.13838532567024230957f, 0.11172109842300415039f, -0.012367187999188899994f, -0.073471508920192718506f, 0.077009037137031555176f, -0.038842171430587768555f, 0.12736347317695617676f, 0.092726975679397583008f, 0.098514415323734283447f, -0.085814096033573150635f, -0.11018973588943481445f, 0.12460516393184661865f},
  {0.0093242265284061431885f, -0.026102498173713684082f, -0.11266122758388519287f, 0.013326222077012062073f, 0.13520081341266632080f, 0.18422031402587890625f, -0.044652543962001800537f, -0.036668721586465835571f, 0.052146203815937042236f, -0.073044322431087493896f, -0.023133903741836547852f, -0.086736217141151428223f, -0.019669750705361366272f, 0.15971148014068603516f, -0.060246054083108901978f, -0.029422650113701820374f, 0.039428066462278366089f, -0.21843716502189636230f, -0.099414475262165069580f, 0.11727622151374816895f, -0.36438494920730590820f, -0.18915726244449615479f, -0.23932439088821411133f, 0.027642028406262397766f, 0.087324865162372589111f, 0.071743831038475036621f, 0.67208433151245117188f, 0.21360577642917633057f, -0.21880957484245300293f, 0.30950865149497985840f, 0.043070122599601745605f, -0.062608554959297180176f, 0.081676624715328216553f, 0.050445284694433212280f, 0.71584051847457885742f, 0.48192089796066284180f, 0.28760868310928344727f, 0.54893213510513305664f, 0.10083729028701782227f, 0.0061564347706735134125f, 0.086909577250480651855f, 0.0041899899952113628387f, 0.045785989612340927124f, 0.22326739132404327393f, 0.29222753643989562988f, 0.19347633421421051025f, 0.056213352829217910767f, -0.023895064368844032288f, 0.0071270815096795558929f, -0.038896482437849044800f, -0.26048180460929870605f, -0.078186310827732086182f, 0.0023949984461069107056f, -0.021290432661771774292f, -0.12212740629911422729f, -0.018669426441192626953f, -0.094024024903774261475f, 0.080538146197795867920f, -0.11893432587385177612f, -0.042169004678726196289f, 0.040071003139019012451f, -0.029632629826664924622f, 0.087970413267612457275f, 0.013052820228040218353f},
  {0.068826593458652496338f, -0.094006516039371490479f, 0.11444409936666488647f, 0.036779899150133132935f, 0.11429960280656814575f, -0.043740019202232360840f, -0.038707476109266281128f, -0.0074536753818392753601f, -0.096214890480041503906f, 0.040478166192770004272f, 0.065638221800327301025f, 0.10032390803098678589f, 0.099973998963832855225f, -0.040183600038290023804f, 0.00089838198618963360786f, -0.077961698174476623535f, -0.10370957106351852417f, 0.039380032569169998169f, -0.056369505822658538818f, -0.068545661866664886475f, -0.095150999724864959717f, 0.024156669154763221741f, -0.11443806439638137817f, 0.073730841279029846191f, -0.094213403761386871338f, -0.10406546294689178467f, 0.058303669095039367676f, -0.12073011696338653564f, -0.12102013081312179565f, -0.11215917766094207764f, -0.016796629875898361206f, -0.016457097604870796204f, 0.033211626112461090088f, 0.11140532791614532471f, -0.016667662188410758972f, -0.067178979516029357910f, -0.082409888505935668945f, 0.11352983117103576660f, 0.090019889175891876221f, 0.080050036311149597168f, -0.094627022743225097656f, 0.010555783286690711975f, 0.049190759658813476562f, -0.0086333490908145904541f, -0.10244918614625930786f, -0.10176977515220642090f, 0.11297279596328735352f, -0.057465583086013793945f, -0.070420034229755401611f, -0.043180327862501144409f, -0.092196866869926452637f, 0.044147826731204986572f, -0.035609446465969085693f, -0.075356297194957733154f, -0.067620426416397094727f, -0.096884816884994506836f, 0.0046832212246954441071f, 0.060222029685974121094f, -0.010839715600013732910f, -0.078433744609355926514f, -0.025307742878794670105f, 0.028635289520025253296f, -0.065554276108741760254f, -0.043003167957067489624f},
  {0.065378561615943908691f, 0.10859957337379455566f, -0.059935882687568664551f, -0.0098498631268739700317f, 0.045711364597082138062f, 0.095550298690795898438f, -0.053291603922843933105f, 0.063970819115638732910f, 0.11137947440147399902f, 0.0021048656199127435684f, -0.036229386925697326660f, -0.064012646675109863281f, 0.068103559315204620361f, 0.062962025403976440430f, -0.011712345294654369354f, -0.094357490539550781250f, -0.040084853768348693848f, 0.064391717314720153809f, -0.034890688955783843994f, -0.068769656121730804443f, 0.062849871814250946045f, -0.10662398487329483032f, 0.083088286221027374268f, 0.044760484248399734497f, -0.078911036252975463867f, 0.029618423432111740112f, -0.047704793512821197510f, 0.11402158439159393311f, -0.096710011363029479980f, -0.12237913161516189575f, 0.069888576865196228027f, 0.020439339801669120789f, 0.043069615960121154785f, -0.042837735265493392944f, 0.036104246973991394043f, -0.056458193808794021606f, 0.0045613120310008525848f, -0.092799782752990722656f, -0.11822789162397384644f, 0.016042534261941909790f, -0.10775059461593627930f, -0.019503733143210411072f, 0.049106590449810028076f, -0.014645228162407875061f, -0.052413243800401687622f, 0.10502120107412338257f, -0.083714447915554046631f, 0.082781806588172912598f, 0.020722657442092895508f, -0.093633145093917846680f, 0.080719769001007080078f, -0.085729442536830902100f, -0.019473535940051078796f, 0.038168042898178100586f, -0.083403363823890686035f, 0.094702467322349548340f, 0.091145306825637817383f, -0.11111944913864135742f, 0.060884185135364532471f, 0.043785814195871353149f, 0.10326909273862838745f, 0.086682051420211791992f, 0.071991667151451110840f, -0.071201995015144348145f},
  {0.089871808886528015137f, 0.0074330559000372886658f, -0.068217292428016662598f, -0.013513877056539058685f, 0.018678864464163780212f, -0.10162072628736495972f, -0.062490884214639663696f, -0.061817210167646408081f, -0.065499827265739440918f, 0.055451158434152603149f, -0.086596116423606872559f, 0.047515455633401870728f, 0.22119028866291046143f, 0.0055955592542886734009f, 0.060691088438034057617f, 0.089575588703155517578f, 0.054677899926900863647f, -0.028095308691263198853f, 0.068064890801906585693f, -0.00049339310498908162117f, 0.077664546668529510498f, -0.067883223295211791992f, -0.0034693132620304822922f, -0.020630929619073867798f, -0.0040693315677344799042f, -0.042142923921346664429f, -0.15620051324367523193f, -0.053199011832475662231f, 0.21348695456981658936f, -0.11567620933055877686f, -0.12484202533960342407f, 0.015112628228962421417f, 0.072577707469463348389f, 0.019493963569402694702f, -0.28604775667190551758f, 0.21700121462345123291f, 0.21756826341152191162f, -0.30168607831001281738f, -0.17039103806018829346f, -0.086233489215373992920f, -0.021667325869202613831f, -0.024065427482128143311f, 0.15079906582832336426f, 0.25395745038986206055f, 0.015935052186250686646f, -0.056356903165578842163f, 0.021027360111474990845f, 0.10810241103172302246f, -0.019435001537203788757f, -0.011511168442666530609f, 0.087691336870193481445f, 0.14792457222938537598f, 0.051702752709388732910f, 0.21609708666801452637f, 0.14908760786056518555f, -0.055476289242506027222f, -0.10660090297460556030f, -0.051492162048816680908f, 0.058357056230306625366f, 0.034348044544458389282f, 0.073262318968772888184f, 0.025608753785490989685f, -0.11883230507373809814f, 0.099916741251945495605f},
  {-0.028631925582885742188f, -0.087678879499435424805f, 0.031798847019672393799f, 0.037121370434761047363f, 0.038352850824594497681f, -0.061344113200902938843f, 0.035060293972492218018f, 0.10648364573717117310f, -0.10400339961051940918f, -0.088764958083629608154f, -0.10782910138368606567f, 0.00066499895183369517326f, -0.13904978334903717041f, -0.14799837768077850342f, -0.052865620702505111694f, 0.10327240824699401855f, 0.070792816579341888428f, 0.059324216097593307495f, 0.045562542974948883057f, -0.038337364792823791504f, 0.18363660573959350586f, -0.0062229176983237266541f, -0.12059582769870758057f, -0.0053361896425485610962f, -0.057605095207691192627f, -0.0070288972929120063782f, -0.0097530288621783256531f, -0.023165537044405937195f, 0.22898431122303009033f, 0.11784450709819793701f, 0.034473743289709091187f, -0.085619941353797912598f, 0.10546202212572097778f, 0.067555695772171020508f, -0.059673734009265899658f, -0.22456723451614379883f, 0.16607975959777832031f, 0.21176943182945251465f, 0.070003978908061981201f, -0.094662666320800781250f, -0.015367634594440460205f, 0.048112396150827407837f, -0.15219549834728240967f, -0.040140226483345031738f, 0.026522239670157432556f, -0.024453708902001380920f, -0.024931827560067176819f, -0.10570611804723739624f, -0.035640504211187362671f, 0.12505641579627990723f, -0.020213508978486061096f, -0.091558374464511871338f, -0.16442996263504028320f, -0.16960684955120086670f, 0.084542341530323028564f, -0.026211820542812347412f, -0.068898640573024749756f, -0.012351071462035179138f, 0.056728683412075042725f, 0.068939983844757080078f, 0.095871903002262115479f, 0.038577992469072341919f, -0.095003165304660797119f, -0.040395025163888931274f},
  {0.10542655736207962036f, 0.11859520524740219116f, 0.10806240886449813843f, 0.023993289098143577576f, 0.054272502660751342773f, 0.032017275691032409668f, 0.024630127474665641785f, -0.10369336605072021484f, -0.087670400738716125488f, 0.0018684727838262915611f, 0.12844286859035491943f, 0.090934507548809051514f, 0.038496527820825576782f, 0.14603094756603240967f, -0.056350827217102050781f, 0.078605674207210540771f, 0.032013438642024993896f, 0.0046967826783657073975f, 0.039973933249711990356f, 0.011919620446860790253f, -0.062105901539325714111f, -0.11061671376228332520f, -0.17389641702175140381f, 0.047446940094232559204f, -0.079333178699016571045f, 0.049837019294500350952f, -0.033192623406648635864f, -0.10221890360116958618f, 0.46485140919685363770f, 0.059584856033325195312f, -0.16586056351661682129f, 0.042673949152231216431f, 0.057107411324977874756f, 0.019796589389443397522f, -0.099470004439353942871f, 0.31868594884872436523f, 0.43185371160507202148f, -0.096586860716342926025f, 0.073191799223423004150f, -0.016401881352066993713f, -0.050502382218837738037f, -0.18254186213016510010f, -0.13421671092510223389f, 0.32380741834640502930f, 0.19125574827194213867f, 0.020070256665349006653f, 0.066207617521286010742f, 0.092328645288944244385f, 0.11919438838958740234f, -0.016108056530356407166f, -0.13912717998027801514f, -0.081556044518947601318f, -0.046448223292827606201f, 0.16246311366558074951f, 0.015297703444957733154f, -0.041089270263910293579f, 0.042438909411430358887f, 0.030489610508084297180f, -0.12049946188926696777f, -0.024367136880755424500f, -0.078868128359317779541f, 0.085560649633407592773f, 0.12085847556591033936f, -0.029976507648825645447f},
  {0.086792699992656707764f, 0.12355650216341018677f, -0.11900857836008071899f, 0.066201083362102508545f, 0.042781423777341842651f, -0.069020718336105346680f, -0.079716831445693969727f, -0.095357686281204223633f, -0.013975788839161396027f, -0.12511344254016876221f, -0.27646470069885253906f, -0.31593200564384460449f, -0.16071239113807678223f, 0.15925008058547973633f, -0.041311930865049362183f, -0.017270296812057495117f, -0.11019310355186462402f, 0.14159806072711944580f, 0.088342197239398956299f, 0.21873712539672851562f, -0.015751847997307777405f, -0.10192381590604782104f, -0.11009835451841354370f, 0.0079972790554165840149f, 0.13702213764190673828f, 0.15477977693080902100f, 0.42048171162605285645f, 0.032257955521345138550f, 0.57712113857269287109f, 0.39894193410873413086f, -0.16666014492511749268f, -0.0025616793427616357803f, -0.088035263121128082275f, -0.061701420694589614868f, -0.017363460734486579895f, 0.39442124962806701660f, 0.81992471218109130859f, 0.013482688926160335541f, -0.014076469466090202332f, -0.14258809387683868408f, -0.073366932570934295654f, -0.41402468085289001465f, -0.31280460953712463379f, 0.32813259959220886230f, 0.13039894402027130127f, -0.37238141894340515137f, -0.25367054343223571777f, -0.15320393443107604980f, -0.094651497900485992432f, -0.20812608301639556885f, -0.27768349647521972656f, -0.050961315631866455078f, 0.048297975212335586548f, 0.10775550454854965210f, -0.067706845700740814209f, 0.012367251329123973846f, 0.11596848815679550171f, 0.083574771881103515625f, -0.030156794935464859009f, 0.13413909077644348145f, 0.016085814684629440308f, 0.18374238908290863037f, 0.13814152777194976807f, 0.097921945154666900635f},
  {-0.058564309030771255493f, 0.090089693665504455566f, -0.011875861324369907379f, 0.052451387047767639160f, 0.095000319182872772217f, 0.011145630851387977600f, 0.015824783593416213989f, 0.043142817914485931396f, -0.058173652738332748413f, -0.079583324491977691650f, -0.029205897822976112366f, -0.095089614391326904297f, 0.035695355385541915894f, -0.0081899994984269142151f, 0.013022465631365776062f, 0.037276327610015869141f, -0.073357239365577697754f, 0.0040691057220101356506f, -0.11031047254800796509f, -0.039267163723707199097f, -0.11364863812923431396f, 0.048549305647611618042f, -0.026176229119300842285f, -0.010358072817325592041f, 0.011294712312519550323f, 0.11426028609275817871f, 0.023961314931511878967f, 0.022639676928520202637f, -0.019357332959771156311f, -0.11650674790143966675f, 0.014845253899693489075f, 0.12229653447866439819f, -0.012109019793570041656f, -0.12204446643590927124f, 0.052531264722347259521f, -0.018547728657722473145f, 0.042160306125879287720f, -0.074928052723407745361f, -0.094011120498180389404f, -0.10171335935592651367f, 0.00040366864413954317570f, 0.070387028157711029053f, 0.043926890939474105835f, 0.087077662348747253418f, -0.10399675369262695312f, 0.041018150746822357178f, -0.031908493489027023315f, 0.053379837423563003540f, -0.080850966274738311768f, -0.097363308072090148926f, -0.015290798619389533997f, 0.067513033747673034668f, 0.037267327308654785156f, 0.080356679856777191162f, -0.10206322371959686279f, -0.046829309314489364624f, 0.046273738145828247070f, -0.013029688037931919098f, -0.079229518771171569824f, -0.10097198188304901123f, 0.10426238924264907837f, -0.057986073195934295654f, -0.044700700789690017700f, -0.057852759957313537598f},
  {-0.084198310971260070801f, 0.084643781185150146484f, 0.026370480656623840332f, 0.0013000220060348510742f, 0.0066614449024200439453f, 0.078355699777603149414f, -0.028955370187759399414f, 0.024923011660575866699f, -0.099135830998420715332f, -0.046494245529174804688f, 0.0098849385976791381836f, -0.022107332944869995117f, -0.069433867931365966797f, -0.11297065019607543945f, 0.11602485179901123047f, 0.050154775381088256836f, -0.11472637951374053955f, -0.072850927710533142090f, -0.019066676497459411621f, -0.10291391611099243164f, 0.015805572271347045898f, -0.054692864418029785156f, 0.010630726814270019531f, -0.099322989583015441895f, 0.021095216274261474609f, 0.027848884463310241699f, -0.029381826519966125488f, 0.12280978262424468994f, -0.091692388057708740234f, -0.0063908994197845458984f, -0.094822406768798828125f, 0.0047661811113357543945f, 0.022790715098381042480f, 0.028391852974891662598f, 0.059956982731819152832f, 0.10615980625152587891f, -0.077501341700553894043f, -0.022924780845642089844f, 0.014242798089981079102f, -0.081322491168975830078f, 0.075391218066215515137f, -0.046328380703926086426f, -0.11075775325298309326f, 0.0091856867074966430664f, -0.083116725087165832520f, 0.071206390857696533203f, 0.0047532320022583007812f, 0.076298877596855163574f, -0.0072417855262756347656f, 0.054758563637733459473f, -0.098544955253601074219f, 0.074435427784919738770f, -0.10837084054946899414f, 0.093581274151802062988f, 0.029276117682456970215f, 0.11153657734394073486f, 0.11698603630065917969f, 0.075016200542449951172f, -0.065383031964302062988f, -0.10137519240379333496f, -0.091427937150001525879f, 0.095786556601524353027f, -0.053899809718132019043f, 0.021817788481712341309f},
  {0.046579331159591674805f, 0.076169140636920928955f, -0.11247539520263671875f, 0.067529015243053436279f, -0.056829798966646194458f, -0.15604062378406524658f, 0.022596294060349464417f, -0.092604696750640869141f, -0.049151021987199783325f, 0.16105200350284576416f, 0.27532753348350524902f, 0.24899661540985107422f, 0.10793149471282958984f, -0.033397380262613296509f, 0.023710282519459724426f, 0.11589137464761734009f, -0.051780465990304946899f, 0.18779926002025604248f, -0.042827155441045761108f, -0.099315896630287170410f, 0.55148971080780029297f, 0.10147356241941452026f, -0.18505610525608062744f, -0.074069485068321228027f, 0.020068466663360595703f, -0.016614196822047233582f, -0.38572534918785095215f, -0.16569578647613525391f, 0.47286453843116760254f, 0.078474789857864379883f, -0.25032719969749450684f, -0.0010099774226546287537f, -0.055741481482982635498f, 0.058681216090917587280f, -0.15381172299385070801f, -0.34682017564773559570f, 0.093799322843551635742f, 0.44319853186607360840f, 0.13412100076675415039f, 0.026877515017986297607f, -0.038601167500019073486f, 0.19880074262619018555f, -0.24569399654865264893f, -0.59972447156906127930f, -0.055854439735412597656f, 0.43009412288665771484f, 0.17378044128417968750f, -0.048196960240602493286f, -0.0039247232489287853241f, 0.16366527974605560303f, 0.26389271020889282227f, 0.13248361647129058838f, 0.058102037757635116577f, 0.045561537146568298340f, -0.038768179714679718018f, 0.10911361873149871826f, -0.092853665351867675781f, -0.036672785878181457520f, 0.063277378678321838379f, 0.14714324474334716797f, 0.11920079588890075684f, -0.082684457302093505859f, 0.11751740425825119019f, -0.065465956926345825195f},
  {-0.0037874670233577489853f, 0.0032863048836588859558f, 0.11738509684801101685f, 0.060755498707294464111f, 0.028852762654423713684f, -0.10887241363525390625f, -0.077215701341629028320f, 0.066858455538749694824f, 0.088577628135681152344f, -0.022928573191165924072f, 0.12040142714977264404f, 0.17591911554336547852f, 0.014756354503333568573f, -0.081001125276088714600f, 0.047303725033998489380f, 0.098144054412841796875f, 0.019582051783800125122f, 0.079757250845432281494f, 0.079925023019313812256f, -0.10939063876867294312f, 0.070977859199047088623f, 0.082279950380325317383f, 0.086002461612224578857f, -0.070630520582199096680f, 0.0038730986416339874268f, -0.092798799276351928711f, -0.16377520561218261719f, -0.11692041903734207153f, 0.15940527617931365967f, 0.035710919648408889771f, -0.11356735229492187500f, 0.082466661930084228516f, -0.095971584320068359375f, -0.059435613453388214111f, -0.096534751355648040771f, 0.098959580063819885254f, 0.094961404800415039062f, 0.027882780879735946655f, -0.099798329174518585205f, -0.039330806583166122437f, 0.093751244246959686279f, 0.12029882520437240601f, -0.11141755431890487671f, -0.073012709617614746094f, -0.057940524071455001831f, 0.16832979023456573486f, 0.021141028031706809998f, 0.034905795007944107056f, -0.059132955968379974365f, 0.11371473968029022217f, 0.093427367508411407471f, -0.0092504015192389488220f, 0.17177692055702209473f, 0.026781097054481506348f, -0.060872737318277359009f, -0.031571313738822937012f, 0.080367363989353179932f, -0.056490890681743621826f, -0.088086806237697601318f, 0.043267041444778442383f, 0.14817941188812255859f, 0.051390491425991058350f, -0.064805261790752410889f, -0.091760016977787017822f},
  {0.033861745148897171021f, 0.091853551566600799561f, 0.11492936313152313232f, 0.053074453026056289673f, 0.013807927258312702179f, 0.022545255720615386963f, -0.059350252151489257812f, 0.018891271203756332397f, -0.065566807985305786133f, 0.030768489465117454529f, 0.031845472753047943115f, 0.11607147008180618286f, -0.056587871164083480835f, 0.18567261099815368652f, 0.11975609511137008667f, 0.066600404679775238037f, -0.10207815468311309814f, 0.13421483337879180908f, 0.15665085613727569580f, 0.21306648850440979004f, 0.063316561281681060791f, 0.22527006268501281738f, 0.36303371191024780273f, 0.081765972077846527100f, -0.014043438248336315155f, -0.087573438882827758789f, 0.045821499079465866089f, 0.33612346649169921875f, -0.32414510846138000488f, -0.14879989624023437500f, 0.082958668470382690430f, -0.032691877335309982300f, -0.022119339555501937866f, 0.071368500590324401855f, 0.22548320889472961426f, -0.30093580484390258789f, -0.28833574056625366211f, 0.075169615447521209717f, 0.17422987520694732666f, -0.060042567551136016846f, 0.053455237299203872681f, 0.16817539930343627930f, 0.30411347746849060059f, 0.045272845774888992310f, 0.0079915560781955718994f, 0.16130869090557098389f, -0.028463572263717651367f, 0.072863906621932983398f, -0.0020728248637169599533f, 0.15130686759948730469f, 0.098272055387496948242f, 0.37965238094329833984f, 0.19872884452342987061f, -0.0019898582249879837036f, 0.061871040612459182739f, 0.011746663600206375122f, 0.020172862336039543152f, 0.021095760166645050049f, -0.11756289005279541016f, 0.13797734677791595459f, 0.093196883797645568848f, -0.0040979795157909393311f, 0.030692834407091140747f, 0.071126356720924377441f}
};
static const float tensor_Gemm_0_bias[25] = 
{0.25923174619674682617f, 0.28469556570053100586f, -0.11164113879203796387f, 0.14044274389743804932f, -0.039396077394485473633f, -0.10859628021717071533f, -0.041994724422693252563f, 0.21389655768871307373f, -0.056548263877630233765f, -0.046593271195888519287f, -0.051155902445316314697f, 0.060224544256925582886f, 0.22083075344562530518f, 0.041952982544898986816f, 0.038214426487684249878f, -0.094931744039058685303f, 0.13624966144561767578f, 0.27150219678878784180f, 0.37409642338752746582f, 0.47865954041481018066f, -0.052909433841705322266f, -0.11373572051525115967f, 0.26221680641174316406f, 0.14604592323303222656f, 0.23538443446159362793f};
static const float tensor_Gemm_1_weight[25][25] = 
{
  {-0.50670683383941650391f, 0.065595515072345733643f, 0.035805799067020416260f, -0.26446875929832458496f, 0.064070485532283782959f, 0.11817870289087295532f, -0.026366127654910087585f, 0.73931813240051269531f, 0.17074009776115417480f, 0.047493495047092437744f, -0.19079664349555969238f, 1.0250580310821533203f, 0.65268063545227050781f, -0.20681977272033691406f, -0.16319765150547027588f, -0.079260587692260742188f, 0.040408149361610412598f, 0.041528768837451934814f, -0.27716776728630065918f, -0.19928412139415740967f, -0.10720748454332351685f, -0.072198152542114257812f, 0.67324668169021606445f, 0.073169745504856109619f, 0.48993578553199768066f},
  {-0.084931932389736175537f, 0.038701910525560379028f, 0.087666176259517669678f, -0.16820961236953735352f, 0.096272163093090057373f, 0.087435550987720489502f, -0.097985439002513885498f, 0.13867607712745666504f, -0.015796281397342681885f, 0.17023360729217529297f, 0.098376631736755371094f, -0.17633883655071258545f, -0.20099337399005889893f, -0.10129161179065704346f, -0.082714460790157318115f, -0.19450965523719787598f, 0.020940028131008148193f, -0.087969213724136352539f, 0.16448420286178588867f, 0.093878500163555145264f, 0.020643062889575958252f, -0.15541262924671173096f, 0.17713962495326995850f, -0.10494787991046905518f, 0.17164552211761474609f},
  {0.47209599614143371582f, -0.063741892576217651367f, -0.042263109236955642700f, -0.11965873837471008301f, 0.16397017240524291992f, -0.057925466448068618774f, 0.43915870785713195801f, 0.16368868947029113770f, -0.079708397388458251953f, 0.0055410503409802913666f, -0.025968730449676513672f, -0.34249827265739440918f, 0.095219239592552185059f, -0.061669219285249710083f, -0.16838055849075317383f, 0.13425193727016448975f, 0.20555227994918823242f, 0.10729856044054031372f, 0.50754719972610473633f, 0.82276904582977294922f, 0.021515708416700363159f, 0.11902437359094619751f, -0.057214803993701934814f, -0.047083199024200439453f, -0.25928798317909240723f},
  {-0.0092822527512907981873f, -0.18120168149471282959f, -0.11361880600452423096f, -0.028491998091340065002f, -0.18270535767078399658f, -0.18907980620861053467f, -0.17941677570343017578f, -0.068712756037712097168f, 0.049437619745731353760f, 0.047894742339849472046f, -0.15740829706192016602f, -0.19938185811042785645f, -0.035305399447679519653f, 0.10145919770002365112f, -0.072979070246219635010f, -0.17325608432292938232f, -0.15514260530471801758f, -0.0050229309126734733582f, 0.067027553915977478027f, -0.031586576253175735474f, 0.077936485409736633301f, 0.16938512027263641357f, 0.12757708132266998291f, 0.19373053312301635742f, 0.17707020044326782227f},
  {-0.17187114059925079346f, 0.037727668881416320801f, -0.024155689403414726257f, 0.10471186786890029907f, 0.033942509442567825317f, -0.098684094846248626709f, -0.093670345842838287354f, -0.19317324459552764893f, 0.097605064511299133301f, 0.15263269841670989990f, 0.10826364159584045410f, -0.026135908439755439758f, -0.051815010607242584229f, -0.17029590904712677002f, -0.030675316229462623596f, -0.15640878677368164062f, 0.039831031113862991333f, 0.18085971474647521973f, -0.14412160217761993408f, -0.035882174968719482422f, 0.15632224082946777344f, 0.090505123138427734375f, -0.0025379965081810951233f, 0.12056744098663330078f, -0.039664465934038162231f},
  {0.18105877935886383057f, -0.22468057274818420410f, 0.061120573431253433228f, -0.041130159050226211548f, -0.020406149327754974365f, -0.010956980288028717041f, 0.25075957179069519043f, 0.27564409375190734863f, -0.042379729449748992920f, 0.48502331972122192383f, -0.17799939215183258057f, 0.55527865886688232422f, 0.56736439466476440430f, -0.19021563231945037842f, -0.019139576703310012817f, 0.14384575188159942627f, 0.10550513863563537598f, -0.30151844024658203125f, 0.013991158455610275269f, -0.25534540414810180664f, -0.13613004982471466064f, -0.051594208925962448120f, -0.20467805862426757812f, -0.031133506447076797485f, 0.16200046241283416748f},
  {-0.13754367828369140625f, -0.046294137835502624512f, 0.053311806172132492065f, -0.097637467086315155029f, 0.15275517106056213379f, -0.064975380897521972656f, -0.14074069261550903320f, -0.10564702749252319336f, 0.054646130651235580444f, 0.094813920557498931885f, 0.021127952262759208679f, -0.090962156653404235840f, 0.20107698440551757812f, 0.054974175989627838135f, -0.14414849877357482910f, 0.039604213088750839233f, 0.029103174805641174316f, 0.089984759688377380371f, 0.12414171546697616577f, 0.16970221698284149170f, 0.12950548529624938965f, 0.033451106399297714233f, 0.082540303468704223633f, 0.023397596552968025208f, -0.024631831794977188110f},
  {0.084975250065326690674f, 0.25491666793823242188f, -0.018082054331898689270f, 0.024965602904558181763f, 0.096786946058273315430f, 0.034321881830692291260f, -0.20771735906600952148f, -0.079398207366466522217f, 0.095510996878147125244f, 0.022354479879140853882f, -0.14216198027133941650f, 0.19060337543487548828f, -0.0088746389374136924744f, 0.29740455746650695801f, -0.060076173394918441772f, -0.038249183446168899536f, -0.28511190414428710938f, 0.070445127785205841064f, 0.11915788799524307251f, 0.050886977463960647583f, -0.13870613276958465576f, 0.0049509764648973941803f, 0.19036419689655303955f, -0.21459549665451049805f, -0.12510080635547637939f},
  {-0.073901966214179992676f, 0.67386746406555175781f, -0.19302819669246673584f, 0.10100878030061721802f, 0.036286853253841400146f, 0.077738016843795776367f, -0.31065881252288818359f, -0.14970226585865020752f, 0.077556490898132324219f, -0.23401661217212677002f, -0.12960377335548400879f, 0.46401509642601013184f, -0.59344816207885742188f, 0.84846603870391845703f, -0.078762330114841461182f, 0.17785811424255371094f, -0.38643932342529296875f, 0.089803129434585571289f, 0.040969125926494598389f, 0.35753551125526428223f, -0.029101967811584472656f, 0.17563903331756591797f, -0.48972988128662109375f, -0.27618646621704101562f, 0.31079816818237304688f},
  {-0.13560004532337188721f, 0.084000587463378906250f, -0.18875141441822052002f, 0.19494892656803131104f, 0.12411236017942428589f, -0.18529474735260009766f, 0.070872247219085693359f, 0.11300843954086303711f, -0.17704871296882629395f, 0.029324306175112724304f, -0.040031109005212783813f, -0.042916495352983474731f, -0.0074331751093268394470f, -0.17485125362873077393f, 0.034137483686208724976f, -0.10493089258670806885f, 0.075323469936847686768f, -0.11877402663230895996f, 0.011563743464648723602f, -0.0079539734870195388794f, -0.16323350369930267334f, 0.18524999916553497314f, 0.31616044044494628906f, 0.23293483257293701172f, 0.11035522818565368652f},
  {0.11540113389492034912f, -0.19847066700458526611f, 0.18215015530586242676f, -0.092978298664093017578f, 0.0094233294948935508728f, 0.12779824435710906982f, 0.17355236411094665527f, -0.090787768363952636719f, 0.10852670669555664062f, -0.033186119049787521362f, 0.11468765884637832642f, 0.16366343200206756592f, -0.15928395092487335205f, 0.12293613702058792114f, -0.064480282366275787354f, -0.10484128445386886597f, -0.078036308288574218750f, 0.12672090530395507812f, -0.12400012463331222534f, -0.15006399154663085938f, 0.084000945091247558594f, 0.17462685704231262207f, 0.17415846884250640869f, 0.16013459861278533936f, -0.19773437082767486572f},
  {0.93079507350921630859f, -0.33022460341453552246f, 0.068494178354740142822f, 0.015432315878570079803f, -0.14981380105018615723f, 0.054845936596393585205f, 0.25034683942794799805f, -0.57602524757385253906f, -0.080069929361343383789f, 0.48186337947845458984f, 0.13220094144344329834f, -0.60166287422180175781f, 0.36150959134101867676f, 0.10480377078056335449f, 0.14793640375137329102f, 0.14827634394168853760f, 0.30022245645523071289f, 0.017590895295143127441f, 0.40093183517456054688f, 0.17848052084445953369f, -0.18693254888057708740f, -0.015695691108703613281f, 0.45650094747543334961f, 0.23633268475532531738f, -0.21648065745830535889f},
  {0.63367998600006103516f, 0.56061625480651855469f, 0.10148448497056961060f, 0.23849584162235260010f, -0.030158922076225280762f, -0.017791651189327239990f, -0.0079718017950654029846f, -0.41350540518760681152f, 0.16212761402130126953f, 0.52637857198715209961f, 0.049532994627952575684f, 0.57313776016235351562f, -0.30193722248077392578f, 0.69985944032669067383f, -0.12081924825906753540f, 0.16327635943889617920f, -0.15204676985740661621f, -0.21316085755825042725f, 0.010962852276861667633f, -0.34798768162727355957f, 0.17002271115779876709f, 0.058648444712162017822f, -0.037243124097585678101f, 0.037742532789707183838f, 0.26011335849761962891f},
  {-0.65048331022262573242f, -0.17563845217227935791f, 0.11131988465785980225f, 0.11248002946376800537f, -0.077949874103069305420f, 0.17227686941623687744f, -0.057277470827102661133f, 0.55303251743316650391f, -0.16384758055210113525f, -0.38596397638320922852f, 0.0062129478901624679565f, 0.34027040004730224609f, 0.21909976005554199219f, 0.39133933186531066895f, -0.076830111443996429443f, -0.0046956147998571395874f, -0.19168578088283538818f, 0.19329465925693511963f, 0.33557903766632080078f, 0.49247473478317260742f, 0.042318385094404220581f, 0.17495463788509368896f, 0.68666994571685791016f, 0.23953153192996978760f, -0.31313180923461914062f},
  {0.13573870062828063965f, -0.099816650152206420898f, -0.19340594112873077393f, -0.15469594299793243408f, 0.11116015911102294922f, -0.083756566047668457031f, -0.11659208685159683228f, -0.083367004990577697754f, 0.027703166007995605469f, -0.14670011401176452637f, 0.063334546983242034912f, -0.11758448183536529541f, -0.14264985918998718262f, 0.12170530855655670166f, -0.026315936818718910217f, 0.10239028930664062500f, -0.15921083092689514160f, -0.13965357840061187744f, 0.080337584018707275391f, -0.19620731472969055176f, -0.11724968254566192627f, 0.10119231045246124268f, -0.032591138035058975220f, -0.16301749646663665771f, 0.093678176403045654297f},
  {0.27987182140350341797f, 0.46963146328926086426f, 0.041350625455379486084f, 0.079723961651325225830f, -0.096455663442611694336f, 0.010128017514944076538f, -0.19153372943401336670f, -0.042576305568218231201f, 0.17068786919116973877f, 0.16421030461788177490f, -0.13600614666938781738f, 0.27182310819625854492f, -0.059012793004512786865f, 0.42081001400947570801f, 0.020065288990736007690f, -0.062391627579927444458f, 0.035423491150140762329f, -0.19777522981166839600f, -0.13259389996528625488f, -0.16270682215690612793f, -0.0085413753986358642578f, 0.031636428087949752808f, -0.48261663317680358887f, -0.18256230652332305908f, 0.20172639191150665283f},
  {-0.19231620430946350098f, 0.12333814799785614014f, 0.059074785560369491577f, 0.17705276608467102051f, -0.12299768626689910889f, 0.10282697528600692749f, 0.10079988092184066772f, -0.058283377438783645630f, -0.13921432197093963623f, 0.093960814177989959717f, 0.036384049803018569946f, -0.012359699234366416931f, -0.066701740026473999023f, 0.10094545036554336548f, 0.012396168895065784454f, 0.10874474048614501953f, -0.0039811264723539352417f, -0.069142527878284454346f, -0.14335833489894866943f, -0.16448932886123657227f, 0.19969175755977630615f, 0.15969310700893402100f, 0.056964784860610961914f, 0.080869868397712707520f, -0.094111159443855285645f},
  {0.45153039693832397461f, 0.15651923418045043945f, -0.092364706099033355713f, 0.26553937792778015137f, -0.096630461513996124268f, 0.19766864180564880371f, 0.041050653904676437378f, -0.10090009868144989014f, -0.037204615771770477295f, -0.19115856289863586426f, -0.13918752968311309814f, -0.19121471047401428223f, -0.26209595799446105957f, 0.038667209446430206299f, -0.019250245764851570129f, 0.0039609912782907485962f, 0.40608611702919006348f, 0.14047648012638092041f, 0.57862532138824462891f, 0.68865025043487548828f, 0.039649125188589096069f, 0.12555789947509765625f, -0.077909119427204132080f, 0.21004329621791839600f, -0.10207171738147735596f},
  {-0.41021400690078735352f, -0.081859193742275238037f, 0.17403651773929595947f, -0.13036768138408660889f, 0.065978974103927612305f, 0.13353830575942993164f, -0.27405172586441040039f, 0.66455066204071044922f, 0.025866223499178886414f, -0.084690116345882415771f, 0.10615786164999008179f, 0.17574402689933776855f, 0.27072045207023620605f, 0.063910350203514099121f, -0.0025825935881584882736f, 0.17162482440471649170f, -0.27378073334693908691f, 0.35665792226791381836f, -0.18253673613071441650f, -0.052775699645280838013f, 0.00067670969292521476746f, -0.010811734013259410858f, 0.33852523565292358398f, 0.067312046885490417480f, 0.37766271829605102539f},
  {-0.23117239773273468018f, -0.064852640032768249512f, -0.056483149528503417969f, 0.12160200625658035278f, -0.13299119472503662109f, 0.17575038969516754150f, -0.025249294936656951904f, 0.14492706954479217529f, 0.19708086550235748291f, -0.19066399335861206055f, -0.096333779394626617432f, 0.027600439265370368958f, -0.079867184162139892578f, 0.20768694579601287842f, -0.12661258876323699951f, 0.063817560672760009766f, -0.22001904249191284180f, 0.15260678529739379883f, 0.074834913015365600586f, 0.21124930679798126221f, 0.015861520543694496155f, -0.056896686553955078125f, 0.022611068561673164368f, -0.051454305648803710938f, 0.11110121011734008789f},
  {0.091067709028720855713f, -0.097477868199348449707f, -0.11079484224319458008f, -0.20488426089286804199f, -0.14440694451332092285f, -0.16426721215248107910f, -0.047045778483152389526f, 0.40248498320579528809f, -0.055177617818117141724f, 0.15150678157806396484f, -0.091940484941005706787f, 0.23442338407039642334f, 0.69253945350646972656f, -0.59881913661956787109f, 0.071464881300926208496f, 0.041094202548265457153f, 0.097223147749900817871f, 0.070670455694198608398f, -0.15465372800827026367f, -0.18696649372577667236f, 0.11827746033668518066f, 0.19331470131874084473f, 0.13965620100498199463f, 0.11215727031230926514f, 0.49400663375854492188f},
  {1.1218178272247314453f, 0.25365632772445678711f, -0.17489074170589447021f, 0.30510470271110534668f, 0.18758644163608551025f, 0.11601454764604568481f, -0.33156538009643554688f, -0.49830853939056396484f, -0.18107242882251739502f, 0.83798933029174804688f, 0.045134585350751876831f, 0.47863349318504333496f, 0.53984981775283813477f, -0.10659776628017425537f, 0.045625198632478713989f, -0.11330562084913253784f, -0.068378008902072906494f, -0.075040332973003387451f, 0.011861488223075866699f, -0.82317668199539184570f, -0.17754645645618438721f, -0.024431515485048294067f, 0.33146902918815612793f, -0.028393201529979705811f, 0.38042131066322326660f},
  {-0.016252787783741950989f, 0.067378640174865722656f, 0.014106668531894683838f, 0.24973253905773162842f, -0.10758328437805175781f, -0.043204348534345626831f, 0.19281548261642456055f, 0.48336327075958251953f, -0.13408841192722320557f, 0.0020386241376399993896f, -0.21530549228191375732f, 0.37047266960144042969f, -0.24987760186195373535f, 0.53715336322784423828f, -0.059204533696174621582f, -0.12351461499929428101f, 0.079234354197978973389f, -0.24702267348766326904f, -0.057223800569772720337f, 0.60322546958923339844f, 0.066073186695575714111f, 0.19183199107646942139f, -0.53327703475952148438f, -0.21744792163372039795f, 0.21134142577648162842f},
  {-0.058415822684764862061f, -0.13275861740112304688f, -0.10219312459230422974f, 0.10488875210285186768f, -0.14931695163249969482f, 0.023545103147625923157f, -0.021635798737406730652f, -0.012927566654980182648f, 0.039137739688158035278f, -0.050950419157743453979f, 0.14109537005424499512f, -0.32684701681137084961f, 0.12116047739982604980f, -0.20270143449306488037f, 0.0053176442161202430725f, -0.19535194337368011475f, 0.24455100297927856445f, -0.042006865143775939941f, 0.24764804542064666748f, -0.025300849229097366333f, 0.046087786555290222168f, -0.16628514230251312256f, -0.032507058233022689819f, 0.078863874077796936035f, 0.091455638408660888672f},
  {0.32188943028450012207f, -0.081969708204269409180f, -0.079525619745254516602f, -0.15951634943485260010f, -0.13105210661888122559f, 0.081191942095756530762f, 0.15366560220718383789f, 0.0042995037510991096497f, -0.064418107271194458008f, 0.29600125551223754883f, -0.15481387078762054443f, 0.43469217419624328613f, 0.090502515435218811035f, 0.22254252433776855469f, -0.14968925714492797852f, 0.035543419420719146729f, 0.19210636615753173828f, -0.040079254657030105591f, 0.038474250584840774536f, 0.10999414324760437012f, 0.14340101182460784912f, -0.028844689950346946716f, -0.22878298163414001465f, 0.14782547950744628906f, -0.043644815683364868164f}
};
static const float tensor_Gemm_1_bias[25] = 
{0.26976549625396728516f, -0.18668496608734130859f, 0.49196848273277282715f, -0.096652820706367492676f, -0.095901519060134887695f, -0.18962240219116210938f, -0.16265061497688293457f, -0.11546011269092559814f, 0.37893140316009521484f, -0.12035837769508361816f, -0.12921297550201416016f, 0.36267468333244323730f, 0.19573986530303955078f, 0.46798667311668395996f, 0.00014578054833691567183f, 0.22928358614444732666f, -0.012879218906164169312f, 0.54552322626113891602f, 0.45447605848312377930f, -0.086436040699481964111f, 0.41560718417167663574f, 0.18873460590839385986f, -0.12660820782184600830f, 0.40001666545867919922f, -0.14928050339221954346f};
static const float tensor_Gemm_2_weight[10][25] = 
{
  {0.52412277460098266602f, 0.15472589433193206787f, -0.78185468912124633789f, 0.18664994835853576660f, -0.058159075677394866943f, 0.20173157751560211182f, -0.17007686197757720947f, 0.12594576179981231689f, 0.24512265622615814209f, -0.16690720617771148682f, -0.15084259212017059326f, -0.75291615724563598633f, 0.48102781176567077637f, -0.56647813320159912109f, -0.031991556286811828613f, 0.35926708579063415527f, -0.12674380838871002197f, -0.81720578670501708984f, 0.10628757625818252563f, -0.17083069682121276855f, 0.34253504872322082520f, 0.82657432556152343750f, -0.15877746045589447021f, 0.028608085587620735168f, -0.10889136046171188354f},
  {-0.81052309274673461914f, 0.054956641048192977905f, 0.94799441099166870117f, 0.17313256859779357910f, 0.15546272695064544678f, -0.34341922402381896973f, -0.16575905680656433105f, -0.36445036530494689941f, -0.60013073682785034180f, -0.078632250428199768066f, 0.14320518076419830322f, 0.94679939746856689453f, -0.65940845012664794922f, -0.29214856028556823730f, -0.081855878233909606934f, -0.39657598733901977539f, 0.14921370148658752441f, 0.80163389444351196289f, -0.41563141345977783203f, 0.11518253386020660400f, 0.15107315778732299805f, -0.28929421305656433105f, -0.34614723920822143555f, 0.49834159016609191895f, -0.26810088753700256348f},
  {-0.56203305721282958984f, -0.099201321601867675781f, 0.080048732459545135498f, 0.080797351896762847900f, -0.0023073153570294380188f, 0.24165894091129302979f, 0.045682143419981002808f, -0.11261752992868423462f, -0.18579460680484771729f, 0.082747250795364379883f, -0.092092081904411315918f, 0.76055592298507690430f, 0.53207260370254516602f, -0.68539452552795410156f, -0.093842670321464538574f, 0.16522426903247833252f, 0.088296733796596527100f, -0.073942020535469055176f, -0.37138202786445617676f, 0.12796115875244140625f, -0.073360696434974670410f, 0.81893807649612426758f, -0.49162182211875915527f, 0.032614056020975112915f, 0.25975316762924194336f},
  {0.57539093494415283203f, -0.051827605813741683960f, -0.31012862920761108398f, -0.19178020954132080078f, -0.14038282632827758789f, -0.040142070502042770386f, 0.028630310669541358948f, 0.087159179151058197021f, -0.69134509563446044922f, 0.27546235918998718262f, 0.021293830126523971558f, 0.48587325215339660645f, -0.047015111893415451050f, 0.47558107972145080566f, 0.015747625380754470825f, -0.56178814172744750977f, 0.012683282606303691864f, -0.21912209689617156982f, 0.13686761260032653809f, -0.037441220134496688843f, 0.31786257028579711914f, 0.62667918205261230469f, -0.58052670955657958984f, -0.060059927403926849365f, -0.048489082604646682739f},
  {-0.46365693211555480957f, 0.17056429386138916016f, 0.0075442395173013210297f, -0.19427400827407836914f, 0.070580683648586273193f, -0.57761496305465698242f, -0.19060729444026947021f, 0.12178570032119750977f, 1.0607086420059204102f, -0.096915818750858306885f, -0.15783610939979553223f, -0.21244047582149505615f, 0.32318234443664550781f, 0.37698253989219665527f, -0.15548183023929595947f, 0.029632059857249259949f, -0.11273216456174850464f, 0.40728792548179626465f, -0.12518173456192016602f, 0.31107223033905029297f, -0.63109481334686279297f, -0.78502434492111206055f, 0.40500080585479736328f, 0.012301554903388023376f, -0.12166479974985122681f},
  {0.51057338714599609375f, 0.027943430468440055847f, -0.22857622802257537842f, -0.046184159815311431885f, 0.081493675708770751953f, 0.23832495510578155518f, -0.036400601267814636230f, -0.082319855690002441406f, -0.021120330318808555603f, 0.091851003468036651611f, -0.13931572437286376953f, -0.41259568929672241211f, 0.069170944392681121826f, -0.14709262549877166748f, -0.16418038308620452881f, 0.24758556485176086426f, 0.098118461668491363525f, 0.073928296566009521484f, 0.13732460141181945801f, 0.060617085546255111694f, 0.43882876634597778320f, 0.21181103587150573730f, 0.027908207848668098450f, 0.025580605491995811462f, -0.037689544260501861572f},
  {-0.94641506671905517578f, 0.18686902523040771484f, -0.055430050939321517944f, -0.094954676926136016846f, -0.10735415667295455933f, -0.37126758694648742676f, -0.11548943072557449341f, 0.19788841903209686279f, 0.57753324508666992188f, 0.15415938198566436768f, -0.063815198838710784912f, 0.22721166908740997314f, 0.61293143033981323242f, -0.65223455429077148438f, 0.0034810160286724567413f, 0.45689389109611511230f, -0.083515994250774383545f, 0.36638304591178894043f, -0.52151119709014892578f, 0.0089655648916959762573f, -0.58771860599517822266f, 0.52537018060684204102f, 0.20846296846866607666f, -0.13765382766723632812f, 0.094488859176635742188f},
  {0.55030006170272827148f, 0.040506992489099502563f, 0.13972894847393035889f, -0.080285571515560150146f, 0.13210271298885345459f, 0.0099656833335757255554f, -0.052292231470346450806f, -0.040212836116552352905f, -0.15136437118053436279f, -0.048741690814495086670f, 0.024679126217961311340f, -0.24684698879718780518f, -0.93245929479598999023f, 0.46832129359245300293f, -0.19517888128757476807f, -0.32416886091232299805f, -0.089244343340396881104f, -0.054808828979730606079f, 0.77027142047882080078f, 0.20833140611648559570f, 0.56767886877059936523f, -0.74223828315734863281f, 0.041903205215930938721f, 0.14522749185562133789f, -0.093245908617973327637f},
  {0.038629848510026931763f, 0.16563256084918975830f, 0.30119672417640686035f, -0.15580309927463531494f, 0.11518181115388870239f, 0.77918845415115356445f, -0.14204710721969604492f, -0.25199806690216064453f, -0.32515183091163635254f, -0.022422553971409797668f, -0.033418003469705581665f, -0.057398628443479537964f, 0.022903868928551673889f, -0.32125437259674072266f, -0.13255363702774047852f, -0.015734180808067321777f, -0.19343838095664978027f, 0.027579683810472488403f, -0.34694030880928039551f, -0.23065823316574096680f, 0.23014241456985473633f, -0.076305948197841644287f, 0.69222503900527954102f, -0.22285968065261840820f, 0.64592766761779785156f},
  {0.29524028301239013672f, 0.17731691896915435791f, 0.33369728922843933105f, 0.15786123275756835938f, -0.046161957085132598877f, -0.13393709063529968262f, -0.068837530910968780518f, 0.19849748909473419189f, 0.14102309942245483398f, -0.024148188531398773193f, 0.12573273479938507080f, -0.43511524796485900879f, -0.18897821009159088135f, 0.68346488475799560547f, 0.082829393446445465088f, 0.019360395148396492004f, -0.14011822640895843506f, 0.15383271872997283936f, -0.012280037626624107361f, 0.21080124378204345703f, -0.32591453194618225098f, -0.79294973611831665039f, 0.34109595417976379395f, -0.12624077498912811279f, 0.19233645498752593994f}
};
static const float tensor_Gemm_2_bias[10] = 
{-0.46193602681159973145f, 0.36257517337799072266f, -0.32540583610534667969f, -0.068624459207057952881f, 0.33548864722251892090f, 0.17264214158058166504f, -0.27409723401069641113f, 0.23856014013290405273f, 0.015627697110176086426f, 0.050382647663354873657f};
float tensor_onnx__Gemm_7[1][64];
float tensor_onnx__Gemm_9[1][25];
float tensor_onnx__Gemm_11[1][25];

float tensor_input[1][25];
float tensor_input_3[1][25];


static inline void node_Flatten_0( const float tensor_onnx__Flatten_0[1][64], float tensor_onnx__Gemm_7[1][64] )
{
	/* Flatten*/
	float *input = (float*)tensor_onnx__Flatten_0;
	float *output = (float*)tensor_onnx__Gemm_7;
	for( uint32_t i=0; i<64; i++ )
		output[i] = input[i];

}

static inline void node_Gemm_1( const float tensor_onnx__Gemm_7[1][64], const float tensor_Gemm_0_weight[25][64], const float tensor_Gemm_0_bias[25], float tensor_input[1][25] )
{
	/* Gemm */
	/* alpha   = 1.0000000000000000000
	   beta    = 1.0000000000000000000
	   transA  = 0
	   transB  = 1
	 */
	const int M = 1;
	const int K = 64;
	const int N = 25;
	float (*A)[64]  = (float(*)[64])tensor_onnx__Gemm_7;
	float (*Y)[25]  = (float(*)[25])tensor_input;
	float alpha = 1.0000000000000000000;
	float beta = 1.0000000000000000000;
	float (*C)[25]  = (float(*)[25])tensor_Gemm_0_bias;
	for( uint32_t r=0; r<M; r++ )
		for( uint32_t c=0; c<N; c++ ) {
			float ABrc = 0;
			for( uint32_t i=0; i<K; i++ ) {
				float B = tensor_Gemm_0_weight[c][i];
				ABrc += A[r][i] * B;
			}
			float tmp = ABrc * alpha;
			tmp += C[0][c] * beta;
			Y[r][c] = tmp;
	}
}

static inline void node_Relu_2( const float tensor_input[1][25], float tensor_onnx__Gemm_9[1][25] )
{
	/*Relu*/
	float *X = (float*)tensor_input;
	float *Y = (float*)tensor_onnx__Gemm_9;
	for( uint32_t i=0; i<25; i++ )
		Y[i] = X[i] > 0 ? X[i] : 0;

}

static inline void node_Gemm_3( const float tensor_onnx__Gemm_9[1][25], const float tensor_Gemm_1_weight[25][25], const float tensor_Gemm_1_bias[25], float tensor_input_3[1][25] )
{
	/* Gemm */
	/* alpha   = 1.0000000000000000000
	   beta    = 1.0000000000000000000
	   transA  = 0
	   transB  = 1
	 */
	const int M = 1;
	const int K = 25;
	const int N = 25;
	float (*A)[25]  = (float(*)[25])tensor_onnx__Gemm_9;
	float (*Y)[25]  = (float(*)[25])tensor_input_3;
	float alpha = 1.0000000000000000000;
	float beta = 1.0000000000000000000;
	float (*C)[25]  = (float(*)[25])tensor_Gemm_1_bias;
	for( uint32_t r=0; r<M; r++ )
		for( uint32_t c=0; c<N; c++ ) {
			float ABrc = 0;
			for( uint32_t i=0; i<K; i++ ) {
				float B = tensor_Gemm_1_weight[c][i];
				ABrc += A[r][i] * B;
			}
			float tmp = ABrc * alpha;
			tmp += C[0][c] * beta;
			Y[r][c] = tmp;
	}
}

static inline void node_Relu_4( const float tensor_input_3[1][25], float tensor_onnx__Gemm_11[1][25] )
{
	/*Relu*/
	float *X = (float*)tensor_input_3;
	float *Y = (float*)tensor_onnx__Gemm_11;
	for( uint32_t i=0; i<25; i++ )
		Y[i] = X[i] > 0 ? X[i] : 0;

}

static inline void node_Gemm_5( const float tensor_onnx__Gemm_11[1][25], const float tensor_Gemm_2_weight[10][25], const float tensor_Gemm_2_bias[10], float tensor_12[1][10] )
{
	/* Gemm */
	/* alpha   = 1.0000000000000000000
	   beta    = 1.0000000000000000000
	   transA  = 0
	   transB  = 1
	 */
	const int M = 1;
	const int K = 25;
	const int N = 10;
	float (*A)[25]  = (float(*)[25])tensor_onnx__Gemm_11;
	float (*Y)[10]  = (float(*)[10])tensor_12;
	float alpha = 1.0000000000000000000;
	float beta = 1.0000000000000000000;
	float (*C)[10]  = (float(*)[10])tensor_Gemm_2_bias;
	for( uint32_t r=0; r<M; r++ )
		for( uint32_t c=0; c<N; c++ ) {
			float ABrc = 0;
			for( uint32_t i=0; i<K; i++ ) {
				float B = tensor_Gemm_2_weight[c][i];
				ABrc += A[r][i] * B;
			}
			float tmp = ABrc * alpha;
			tmp += C[0][c] * beta;
			Y[r][c] = tmp;
	}
}


void original(const float tensor_onnx__Flatten_0[1][64], float tensor_12[1][10]) {
	node_Flatten_0( tensor_onnx__Flatten_0, tensor_onnx__Gemm_7);
	node_Gemm_1( tensor_onnx__Gemm_7, tensor_Gemm_0_weight, tensor_Gemm_0_bias, tensor_input);
	node_Relu_2( tensor_input, tensor_onnx__Gemm_9);
	node_Gemm_3( tensor_onnx__Gemm_9, tensor_Gemm_1_weight, tensor_Gemm_1_bias, tensor_input_3);
	node_Relu_4( tensor_input_3, tensor_onnx__Gemm_11);
	node_Gemm_5( tensor_onnx__Gemm_11, tensor_Gemm_2_weight, tensor_Gemm_2_bias, tensor_12);
}

#endif // ORIGINAL_H

