
#ifndef QUANTIZED_H
#define QUANTIZED_H
// This file is computer-generated by onnx2c 
// (TODO: add creating command line here)
// (TODO: print creation date here )

// ONNX model:
// produced by pytorch, version 1.11.0
// ONNX IR version: 9
// Model documentation: 
/*

*/

#include <float.h>
#include <math.h>
#include <stdbool.h>
#include <stdint.h>
#include <string.h>
#define MAX(X,Y) ( X > Y ? X : Y)
#define MIN(X,Y) ( X < Y ? X : Y)
#define CLIP(X,L) ( MAX(MIN(X,L), -L) )

static const float quantized_tensor_Gemm_0_weight[25][64] = 
{
  {0.0000000000000000000f, 0.0000000000000000000f, 0.0000000000000000000f, 0.25879302620887756348f, 0.25879302620887756348f, 0.12939651310443878174f, -0.12939651310443878174f, -0.12939651310443878174f, 0.12939651310443878174f, 0.0000000000000000000f, 0.12939651310443878174f, 0.51758605241775512695f, 0.64698255062103271484f, 0.25879302620887756348f, -0.12939651310443878174f, -0.12939651310443878174f, -0.12939651310443878174f, 0.0000000000000000000f, 0.0000000000000000000f, 0.0000000000000000000f, -0.12939651310443878174f, -0.38818955421447753906f, -0.12939651310443878174f, 0.0000000000000000000f, 0.0000000000000000000f, -0.12939651310443878174f, -0.38818955421447753906f, -0.12939651310443878174f, 0.0000000000000000000f, -0.12939651310443878174f, 0.12939651310443878174f, 0.0000000000000000000f, -0.12939651310443878174f, -0.12939651310443878174f, 0.0000000000000000000f, 0.51758605241775512695f, 0.0000000000000000000f, -0.25879302620887756348f, 0.38818955421447753906f, 0.0000000000000000000f, 0.0000000000000000000f, 0.25879302620887756348f, 0.64698255062103271484f, 0.90577560663223266602f, 0.38818955421447753906f, 0.51758605241775512695f, 0.25879302620887756348f, 0.12939651310443878174f, 0.0000000000000000000f, 0.0000000000000000000f, 0.25879302620887756348f, 0.0000000000000000000f, 0.25879302620887756348f, 0.12939651310443878174f, 0.12939651310443878174f, -0.12939651310443878174f, 0.0000000000000000000f, 0.0000000000000000000f, -0.25879302620887756348f, -0.25879302620887756348f, -0.25879302620887756348f, -0.12939651310443878174f, 0.0000000000000000000f, -0.12939651310443878174f},
  {0.0000000000000000000f, -0.12939651310443878174f, 0.0000000000000000000f, 0.0000000000000000000f, 0.0000000000000000000f, 0.0000000000000000000f, 0.0000000000000000000f, 0.0000000000000000000f, 0.0000000000000000000f, 0.0000000000000000000f, 0.0000000000000000000f, -0.12939651310443878174f, 0.12939651310443878174f, 0.0000000000000000000f, 0.0000000000000000000f, 0.0000000000000000000f, 0.0000000000000000000f, -0.12939651310443878174f, -0.25879302620887756348f, 0.12939651310443878174f, -0.25879302620887756348f, 0.0000000000000000000f, 0.12939651310443878174f, -0.12939651310443878174f, 0.0000000000000000000f, 0.12939651310443878174f, 0.25879302620887756348f, 0.38818955421447753906f, -0.38818955421447753906f, -0.12939651310443878174f, 0.12939651310443878174f, -0.12939651310443878174f, 0.0000000000000000000f, 0.12939651310443878174f, 0.51758605241775512695f, 0.12939651310443878174f, -0.12939651310443878174f, 0.25879302620887756348f, 0.25879302620887756348f, 0.12939651310443878174f, 0.12939651310443878174f, 0.0000000000000000000f, 0.12939651310443878174f, 0.25879302620887756348f, 0.12939651310443878174f, 0.25879302620887756348f, 0.12939651310443878174f, -0.12939651310443878174f, 0.0000000000000000000f, -0.12939651310443878174f, -0.25879302620887756348f, 0.0000000000000000000f, 0.12939651310443878174f, 0.0000000000000000000f, 0.0000000000000000000f, -0.12939651310443878174f, -0.12939651310443878174f, 0.0000000000000000000f, 0.0000000000000000000f, 0.0000000000000000000f, 0.0000000000000000000f, 0.0000000000000000000f, -0.12939651310443878174f, 0.12939651310443878174f},
  {0.12939651310443878174f, 0.0000000000000000000f, -0.12939651310443878174f, -0.12939651310443878174f, 0.0000000000000000000f, 0.0000000000000000000f, 0.0000000000000000000f, 0.12939651310443878174f, 0.12939651310443878174f, -0.12939651310443878174f, 0.0000000000000000000f, -0.12939651310443878174f, 0.0000000000000000000f, 0.0000000000000000000f, 0.0000000000000000000f, 0.0000000000000000000f, 0.0000000000000000000f, 0.0000000000000000000f, 0.0000000000000000000f, 0.12939651310443878174f, -0.12939651310443878174f, 0.0000000000000000000f, 0.12939651310443878174f, -0.12939651310443878174f, 0.0000000000000000000f, 0.0000000000000000000f, -0.12939651310443878174f, 0.12939651310443878174f, 0.0000000000000000000f, 0.0000000000000000000f, 0.0000000000000000000f, 0.12939651310443878174f, 0.12939651310443878174f, -0.12939651310443878174f, -0.12939651310443878174f, 0.12939651310443878174f, -0.12939651310443878174f, 0.0000000000000000000f, 0.12939651310443878174f, 0.12939651310443878174f, 0.12939651310443878174f, -0.12939651310443878174f, 0.0000000000000000000f, 0.0000000000000000000f, -0.12939651310443878174f, 0.0000000000000000000f, 0.0000000000000000000f, 0.0000000000000000000f, 0.0000000000000000000f, 0.12939651310443878174f, 0.0000000000000000000f, -0.12939651310443878174f, 0.0000000000000000000f, 0.12939651310443878174f, 0.0000000000000000000f, 0.0000000000000000000f, 0.12939651310443878174f, 0.0000000000000000000f, 0.0000000000000000000f, 0.12939651310443878174f, 0.0000000000000000000f, 0.0000000000000000000f, -0.12939651310443878174f, -0.12939651310443878174f},
  {0.0000000000000000000f, 0.0000000000000000000f, 0.12939651310443878174f, 0.12939651310443878174f, 0.12939651310443878174f, 0.0000000000000000000f, -0.12939651310443878174f, -0.12939651310443878174f, -0.12939651310443878174f, 0.12939651310443878174f, 0.12939651310443878174f, 0.0000000000000000000f, 0.12939651310443878174f, 0.0000000000000000000f, 0.12939651310443878174f, 0.0000000000000000000f, 0.0000000000000000000f, -0.12939651310443878174f, -0.12939651310443878174f, -0.12939651310443878174f, -0.12939651310443878174f, -0.25879302620887756348f, 0.0000000000000000000f, 0.0000000000000000000f, -0.12939651310443878174f, -0.12939651310443878174f, 0.25879302620887756348f, 0.25879302620887756348f, 0.0000000000000000000f, -0.12939651310443878174f, 0.0000000000000000000f, -0.12939651310443878174f, 0.0000000000000000000f, 0.12939651310443878174f, 0.25879302620887756348f, 0.12939651310443878174f, 0.12939651310443878174f, 0.0000000000000000000f, 0.12939651310443878174f, 0.12939651310443878174f, 0.0000000000000000000f, 0.0000000000000000000f, 0.12939651310443878174f, 0.12939651310443878174f, 0.12939651310443878174f, 0.0000000000000000000f, 0.12939651310443878174f, 0.0000000000000000000f, 0.0000000000000000000f, -0.12939651310443878174f, 0.0000000000000000000f, 0.0000000000000000000f, 0.12939651310443878174f, 0.0000000000000000000f, 0.0000000000000000000f, 0.0000000000000000000f, 0.0000000000000000000f, 0.0000000000000000000f, 0.0000000000000000000f, 0.0000000000000000000f, 0.0000000000000000000f, -0.12939651310443878174f, -0.12939651310443878174f, -0.12939651310443878174f},
  {-0.12939651310443878174f, -0.12939651310443878174f, 0.0000000000000000000f, -0.12939651310443878174f, 0.0000000000000000000f, 0.0000000000000000000f, -0.12939651310443878174f, 0.12939651310443878174f, -0.12939651310443878174f, 0.0000000000000000000f, 0.12939651310443878174f, 0.0000000000000000000f, 0.0000000000000000000f, 0.0000000000000000000f, -0.12939651310443878174f, 0.0000000000000000000f, -0.12939651310443878174f, 0.12939651310443878174f, -0.12939651310443878174f, 0.0000000000000000000f, 0.12939651310443878174f, 0.0000000000000000000f, 0.0000000000000000000f, -0.12939651310443878174f, 0.0000000000000000000f, 0.12939651310443878174f, 0.12939651310443878174f, -0.12939651310443878174f, -0.12939651310443878174f, 0.0000000000000000000f, 0.0000000000000000000f, 0.0000000000000000000f, 0.0000000000000000000f, 0.0000000000000000000f, 0.0000000000000000000f, -0.12939651310443878174f, 0.0000000000000000000f, -0.12939651310443878174f, 0.0000000000000000000f, 0.0000000000000000000f, 0.12939651310443878174f, 0.0000000000000000000f, 0.0000000000000000000f, -0.12939651310443878174f, 0.0000000000000000000f, 0.12939651310443878174f, 0.12939651310443878174f, -0.12939651310443878174f, 0.0000000000000000000f, -0.12939651310443878174f, 0.0000000000000000000f, -0.12939651310443878174f, 0.0000000000000000000f, -0.12939651310443878174f, 0.12939651310443878174f, 0.0000000000000000000f, -0.12939651310443878174f, 0.0000000000000000000f, 0.12939651310443878174f, 0.12939651310443878174f, 0.0000000000000000000f, -0.12939651310443878174f, 0.0000000000000000000f, -0.12939651310443878174f},
  {0.0000000000000000000f, -0.12939651310443878174f, 0.0000000000000000000f, 0.0000000000000000000f, 0.0000000000000000000f, 0.0000000000000000000f, 0.0000000000000000000f, -0.12939651310443878174f, 0.0000000000000000000f, -0.12939651310443878174f, 0.0000000000000000000f, -0.12939651310443878174f, -0.12939651310443878174f, 0.12939651310443878174f, 0.0000000000000000000f, 0.0000000000000000000f, -0.12939651310443878174f, 0.0000000000000000000f, -0.12939651310443878174f, 0.0000000000000000000f, 0.12939651310443878174f, 0.12939651310443878174f, 0.0000000000000000000f, 0.12939651310443878174f, -0.12939651310443878174f, 0.0000000000000000000f, 0.12939651310443878174f, 0.0000000000000000000f, 0.12939651310443878174f, 0.0000000000000000000f, 0.12939651310443878174f, 0.0000000000000000000f, 0.0000000000000000000f, 0.0000000000000000000f, -0.12939651310443878174f, 0.0000000000000000000f, -0.12939651310443878174f, -0.12939651310443878174f, 0.12939651310443878174f, -0.12939651310443878174f, 0.0000000000000000000f, -0.12939651310443878174f, -0.12939651310443878174f, -0.12939651310443878174f, -0.12939651310443878174f, 0.12939651310443878174f, 0.0000000000000000000f, -0.12939651310443878174f, 0.12939651310443878174f, 0.0000000000000000000f, 0.12939651310443878174f, 0.12939651310443878174f, 0.12939651310443878174f, 0.12939651310443878174f, 0.0000000000000000000f, 0.12939651310443878174f, 0.12939651310443878174f, 0.0000000000000000000f, -0.12939651310443878174f, 0.0000000000000000000f, 0.0000000000000000000f, 0.0000000000000000000f, 0.0000000000000000000f, -0.12939651310443878174f},
  {-0.12939651310443878174f, -0.12939651310443878174f, -0.12939651310443878174f, 0.0000000000000000000f, -0.12939651310443878174f, -0.12939651310443878174f, 0.0000000000000000000f, 0.0000000000000000000f, 0.0000000000000000000f, 0.0000000000000000000f, 0.0000000000000000000f, 0.12939651310443878174f, 0.12939651310443878174f, 0.0000000000000000000f, 0.0000000000000000000f, 0.0000000000000000000f, 0.0000000000000000000f, 0.0000000000000000000f, 0.0000000000000000000f, 0.0000000000000000000f, -0.12939651310443878174f, 0.25879302620887756348f, 0.12939651310443878174f, 0.0000000000000000000f, 0.0000000000000000000f, 0.0000000000000000000f, 0.12939651310443878174f, -0.12939651310443878174f, 0.25879302620887756348f, 0.0000000000000000000f, 0.0000000000000000000f, 0.0000000000000000000f, -0.12939651310443878174f, 0.0000000000000000000f, -0.25879302620887756348f, 0.38818955421447753906f, 0.38818955421447753906f, -0.25879302620887756348f, -0.12939651310443878174f, 0.0000000000000000000f, 0.0000000000000000000f, 0.0000000000000000000f, 0.12939651310443878174f, 0.12939651310443878174f, -0.12939651310443878174f, -0.12939651310443878174f, -0.12939651310443878174f, 0.12939651310443878174f, -0.12939651310443878174f, 0.0000000000000000000f, 0.12939651310443878174f, 0.0000000000000000000f, 0.12939651310443878174f, 0.12939651310443878174f, 0.0000000000000000000f, 0.0000000000000000000f, 0.0000000000000000000f, -0.12939651310443878174f, 0.0000000000000000000f, 0.12939651310443878174f, 0.0000000000000000000f, 0.12939651310443878174f, 0.12939651310443878174f, 0.0000000000000000000f},
  {0.0000000000000000000f, 0.0000000000000000000f, 0.0000000000000000000f, 0.0000000000000000000f, -0.25879302620887756348f, -0.25879302620887756348f, 0.0000000000000000000f, 0.12939651310443878174f, 0.0000000000000000000f, 0.12939651310443878174f, -0.12939651310443878174f, -0.12939651310443878174f, -0.12939651310443878174f, 0.0000000000000000000f, 0.0000000000000000000f, 0.0000000000000000000f, 0.12939651310443878174f, 0.0000000000000000000f, 0.38818955421447753906f, 0.51758605241775512695f, 0.38818955421447753906f, 0.51758605241775512695f, 0.38818955421447753906f, 0.12939651310443878174f, -0.12939651310443878174f, 0.0000000000000000000f, 0.38818955421447753906f, 0.25879302620887756348f, 0.12939651310443878174f, 0.38818955421447753906f, 0.12939651310443878174f, -0.12939651310443878174f, 0.0000000000000000000f, -0.12939651310443878174f, -0.12939651310443878174f, -0.38818955421447753906f, 0.0000000000000000000f, 0.25879302620887756348f, -0.12939651310443878174f, -0.12939651310443878174f, 0.12939651310443878174f, -0.12939651310443878174f, -0.25879302620887756348f, -0.25879302620887756348f, 0.0000000000000000000f, -0.25879302620887756348f, -0.25879302620887756348f, 0.0000000000000000000f, 0.0000000000000000000f, -0.12939651310443878174f, 0.12939651310443878174f, 0.25879302620887756348f, 0.25879302620887756348f, 0.0000000000000000000f, -0.12939651310443878174f, 0.0000000000000000000f, 0.0000000000000000000f, -0.12939651310443878174f, 0.12939651310443878174f, 0.38818955421447753906f, 0.25879302620887756348f, 0.12939651310443878174f, 0.0000000000000000000f, 0.0000000000000000000f},
  {0.0000000000000000000f, 0.0000000000000000000f, 0.0000000000000000000f, 0.0000000000000000000f, 0.12939651310443878174f, 0.12939651310443878174f, 0.0000000000000000000f, 0.12939651310443878174f, 0.0000000000000000000f, -0.12939651310443878174f, -0.12939651310443878174f, 0.0000000000000000000f, -0.12939651310443878174f, -0.12939651310443878174f, 0.12939651310443878174f, 0.0000000000000000000f, 0.0000000000000000000f, 0.0000000000000000000f, 0.12939651310443878174f, 0.12939651310443878174f, -0.12939651310443878174f, 0.0000000000000000000f, 0.0000000000000000000f, 0.0000000000000000000f, 0.0000000000000000000f, -0.12939651310443878174f, 0.0000000000000000000f, 0.0000000000000000000f, -0.12939651310443878174f, 0.12939651310443878174f, 0.0000000000000000000f, 0.0000000000000000000f, 0.0000000000000000000f, 0.0000000000000000000f, -0.12939651310443878174f, 0.12939651310443878174f, -0.12939651310443878174f, 0.12939651310443878174f, 0.0000000000000000000f, -0.12939651310443878174f, 0.12939651310443878174f, 0.0000000000000000000f, 0.0000000000000000000f, 0.0000000000000000000f, 0.0000000000000000000f, -0.12939651310443878174f, 0.0000000000000000000f, 0.12939651310443878174f, 0.0000000000000000000f, 0.0000000000000000000f, 0.0000000000000000000f, -0.12939651310443878174f, 0.12939651310443878174f, 0.0000000000000000000f, 0.0000000000000000000f, 0.0000000000000000000f, 0.0000000000000000000f, -0.12939651310443878174f, 0.0000000000000000000f, 0.0000000000000000000f, -0.12939651310443878174f, 0.0000000000000000000f, 0.12939651310443878174f, 0.0000000000000000000f},
  {-0.12939651310443878174f, 0.12939651310443878174f, -0.12939651310443878174f, 0.0000000000000000000f, 0.12939651310443878174f, 0.12939651310443878174f, 0.0000000000000000000f, 0.0000000000000000000f, -0.12939651310443878174f, -0.12939651310443878174f, 0.25879302620887756348f, 0.38818955421447753906f, 0.51758605241775512695f, 0.25879302620887756348f, 0.0000000000000000000f, 0.0000000000000000000f, -0.12939651310443878174f, 0.0000000000000000000f, 0.0000000000000000000f, 0.0000000000000000000f, 0.0000000000000000000f, 0.12939651310443878174f, 0.0000000000000000000f, 0.0000000000000000000f, 0.0000000000000000000f, -0.12939651310443878174f, -0.25879302620887756348f, 0.0000000000000000000f, -0.12939651310443878174f, -0.12939651310443878174f, 0.12939651310443878174f, 0.0000000000000000000f, -0.12939651310443878174f, 0.0000000000000000000f, 0.0000000000000000000f, 0.12939651310443878174f, -0.12939651310443878174f, -0.12939651310443878174f, 0.25879302620887756348f, 0.0000000000000000000f, 0.12939651310443878174f, 0.12939651310443878174f, 0.64698255062103271484f, 0.25879302620887756348f, 0.12939651310443878174f, 0.38818955421447753906f, 0.38818955421447753906f, 0.12939651310443878174f, -0.12939651310443878174f, 0.12939651310443878174f, 0.38818955421447753906f, 0.12939651310443878174f, 0.25879302620887756348f, 0.25879302620887756348f, 0.0000000000000000000f, 0.0000000000000000000f, 0.12939651310443878174f, 0.0000000000000000000f, -0.12939651310443878174f, 0.0000000000000000000f, 0.0000000000000000000f, 0.0000000000000000000f, -0.12939651310443878174f, 0.12939651310443878174f},
  {0.0000000000000000000f, 0.12939651310443878174f, 0.12939651310443878174f, -0.12939651310443878174f, 0.0000000000000000000f, 0.0000000000000000000f, 0.0000000000000000000f, -0.12939651310443878174f, -0.12939651310443878174f, 0.0000000000000000000f, 0.12939651310443878174f, 0.12939651310443878174f, 0.0000000000000000000f, 0.0000000000000000000f, 0.0000000000000000000f, 0.0000000000000000000f, 0.12939651310443878174f, 0.12939651310443878174f, 0.0000000000000000000f, 0.12939651310443878174f, 0.12939651310443878174f, 0.12939651310443878174f, -0.12939651310443878174f, -0.12939651310443878174f, 0.12939651310443878174f, 0.0000000000000000000f, -0.12939651310443878174f, 0.0000000000000000000f, -0.12939651310443878174f, 0.12939651310443878174f, 0.12939651310443878174f, 0.0000000000000000000f, 0.0000000000000000000f, 0.0000000000000000000f, 0.12939651310443878174f, 0.12939651310443878174f, 0.0000000000000000000f, 0.12939651310443878174f, 0.12939651310443878174f, 0.0000000000000000000f, 0.0000000000000000000f, 0.12939651310443878174f, -0.12939651310443878174f, 0.0000000000000000000f, 0.0000000000000000000f, 0.0000000000000000000f, 0.0000000000000000000f, 0.0000000000000000000f, -0.12939651310443878174f, -0.12939651310443878174f, 0.12939651310443878174f, -0.12939651310443878174f, -0.12939651310443878174f, 0.0000000000000000000f, 0.0000000000000000000f, 0.12939651310443878174f, -0.12939651310443878174f, 0.0000000000000000000f, 0.0000000000000000000f, 0.0000000000000000000f, -0.12939651310443878174f, 0.0000000000000000000f, 0.0000000000000000000f, 0.0000000000000000000f},
  {0.0000000000000000000f, 0.0000000000000000000f, 0.0000000000000000000f, 0.0000000000000000000f, 0.0000000000000000000f, -0.12939651310443878174f, 0.0000000000000000000f, 0.12939651310443878174f, 0.0000000000000000000f, 0.12939651310443878174f, 0.12939651310443878174f, 0.25879302620887756348f, 0.38818955421447753906f, 0.0000000000000000000f, 0.12939651310443878174f, 0.0000000000000000000f, 0.0000000000000000000f, 0.0000000000000000000f, 0.25879302620887756348f, 0.51758605241775512695f, 0.25879302620887756348f, 0.51758605241775512695f, 0.25879302620887756348f, 0.0000000000000000000f, 0.0000000000000000000f, 0.12939651310443878174f, 0.64698255062103271484f, 0.64698255062103271484f, -0.38818955421447753906f, 0.12939651310443878174f, 0.38818955421447753906f, 0.12939651310443878174f, -0.12939651310443878174f, 0.12939651310443878174f, 0.51758605241775512695f, 0.12939651310443878174f, -0.12939651310443878174f, 0.25879302620887756348f, 0.12939651310443878174f, 0.0000000000000000000f, 0.12939651310443878174f, 0.12939651310443878174f, 0.25879302620887756348f, -0.38818955421447753906f, 0.0000000000000000000f, 0.38818955421447753906f, -0.12939651310443878174f, 0.0000000000000000000f, 0.0000000000000000000f, 0.0000000000000000000f, 0.25879302620887756348f, 0.51758605241775512695f, 0.25879302620887756348f, 0.12939651310443878174f, -0.12939651310443878174f, -0.12939651310443878174f, 0.0000000000000000000f, 0.0000000000000000000f, 0.12939651310443878174f, 0.12939651310443878174f, 0.0000000000000000000f, 0.12939651310443878174f, 0.0000000000000000000f, 0.0000000000000000000f},
  {0.0000000000000000000f, 0.0000000000000000000f, 0.0000000000000000000f, 0.12939651310443878174f, -0.12939651310443878174f, 0.0000000000000000000f, -0.12939651310443878174f, 0.0000000000000000000f, 0.12939651310443878174f, 0.12939651310443878174f, 0.12939651310443878174f, 0.38818955421447753906f, 0.38818955421447753906f, 0.0000000000000000000f, 0.0000000000000000000f, 0.0000000000000000000f, 0.0000000000000000000f, 0.25879302620887756348f, 0.25879302620887756348f, 0.25879302620887756348f, 0.64698255062103271484f, 0.51758605241775512695f, 0.25879302620887756348f, 0.12939651310443878174f, -0.12939651310443878174f, 0.0000000000000000000f, -0.38818955421447753906f, -0.12939651310443878174f, 0.25879302620887756348f, 0.0000000000000000000f, 0.12939651310443878174f, 0.0000000000000000000f, 0.0000000000000000000f, -0.12939651310443878174f, -0.38818955421447753906f, -0.25879302620887756348f, -0.12939651310443878174f, 0.0000000000000000000f, 0.0000000000000000000f, 0.12939651310443878174f, 0.0000000000000000000f, 0.25879302620887756348f, 0.12939651310443878174f, -0.12939651310443878174f, 0.0000000000000000000f, 0.12939651310443878174f, 0.12939651310443878174f, 0.0000000000000000000f, 0.0000000000000000000f, 0.12939651310443878174f, 0.38818955421447753906f, 0.25879302620887756348f, 0.12939651310443878174f, 0.12939651310443878174f, 0.0000000000000000000f, -0.12939651310443878174f, 0.12939651310443878174f, 0.0000000000000000000f, 0.12939651310443878174f, 0.12939651310443878174f, 0.12939651310443878174f, -0.12939651310443878174f, -0.12939651310443878174f, 0.12939651310443878174f},
  {0.0000000000000000000f, 0.0000000000000000000f, -0.12939651310443878174f, 0.0000000000000000000f, 0.12939651310443878174f, 0.12939651310443878174f, 0.0000000000000000000f, 0.0000000000000000000f, 0.0000000000000000000f, -0.12939651310443878174f, 0.0000000000000000000f, -0.12939651310443878174f, 0.0000000000000000000f, 0.12939651310443878174f, 0.0000000000000000000f, 0.0000000000000000000f, 0.0000000000000000000f, -0.25879302620887756348f, -0.12939651310443878174f, 0.12939651310443878174f, -0.38818955421447753906f, -0.12939651310443878174f, -0.25879302620887756348f, 0.0000000000000000000f, 0.12939651310443878174f, 0.12939651310443878174f, 0.64698255062103271484f, 0.25879302620887756348f, -0.25879302620887756348f, 0.25879302620887756348f, 0.0000000000000000000f, 0.0000000000000000000f, 0.12939651310443878174f, 0.0000000000000000000f, 0.77637910842895507812f, 0.51758605241775512695f, 0.25879302620887756348f, 0.51758605241775512695f, 0.12939651310443878174f, 0.0000000000000000000f, 0.12939651310443878174f, 0.0000000000000000000f, 0.0000000000000000000f, 0.25879302620887756348f, 0.25879302620887756348f, 0.12939651310443878174f, 0.0000000000000000000f, 0.0000000000000000000f, 0.0000000000000000000f, 0.0000000000000000000f, -0.25879302620887756348f, -0.12939651310443878174f, 0.0000000000000000000f, 0.0000000000000000000f, -0.12939651310443878174f, 0.0000000000000000000f, -0.12939651310443878174f, 0.12939651310443878174f, -0.12939651310443878174f, 0.0000000000000000000f, 0.0000000000000000000f, 0.0000000000000000000f, 0.12939651310443878174f, 0.0000000000000000000f},
  {0.12939651310443878174f, -0.12939651310443878174f, 0.12939651310443878174f, 0.0000000000000000000f, 0.12939651310443878174f, 0.0000000000000000000f, 0.0000000000000000000f, 0.0000000000000000000f, -0.12939651310443878174f, 0.0000000000000000000f, 0.12939651310443878174f, 0.12939651310443878174f, 0.12939651310443878174f, 0.0000000000000000000f, 0.0000000000000000000f, -0.12939651310443878174f, -0.12939651310443878174f, 0.0000000000000000000f, 0.0000000000000000000f, -0.12939651310443878174f, -0.12939651310443878174f, 0.0000000000000000000f, -0.12939651310443878174f, 0.12939651310443878174f, -0.12939651310443878174f, -0.12939651310443878174f, 0.0000000000000000000f, -0.12939651310443878174f, -0.12939651310443878174f, -0.12939651310443878174f, 0.0000000000000000000f, 0.0000000000000000000f, 0.0000000000000000000f, 0.12939651310443878174f, 0.0000000000000000000f, -0.12939651310443878174f, -0.12939651310443878174f, 0.12939651310443878174f, 0.12939651310443878174f, 0.12939651310443878174f, -0.12939651310443878174f, 0.0000000000000000000f, 0.0000000000000000000f, 0.0000000000000000000f, -0.12939651310443878174f, -0.12939651310443878174f, 0.12939651310443878174f, 0.0000000000000000000f, -0.12939651310443878174f, 0.0000000000000000000f, -0.12939651310443878174f, 0.0000000000000000000f, 0.0000000000000000000f, -0.12939651310443878174f, -0.12939651310443878174f, -0.12939651310443878174f, 0.0000000000000000000f, 0.0000000000000000000f, 0.0000000000000000000f, -0.12939651310443878174f, 0.0000000000000000000f, 0.0000000000000000000f, -0.12939651310443878174f, 0.0000000000000000000f},
  {0.12939651310443878174f, 0.12939651310443878174f, 0.0000000000000000000f, 0.0000000000000000000f, 0.0000000000000000000f, 0.12939651310443878174f, 0.0000000000000000000f, 0.0000000000000000000f, 0.12939651310443878174f, 0.0000000000000000000f, 0.0000000000000000000f, 0.0000000000000000000f, 0.12939651310443878174f, 0.0000000000000000000f, 0.0000000000000000000f, -0.12939651310443878174f, 0.0000000000000000000f, 0.0000000000000000000f, 0.0000000000000000000f, -0.12939651310443878174f, 0.0000000000000000000f, -0.12939651310443878174f, 0.12939651310443878174f, 0.0000000000000000000f, -0.12939651310443878174f, 0.0000000000000000000f, 0.0000000000000000000f, 0.12939651310443878174f, -0.12939651310443878174f, -0.12939651310443878174f, 0.12939651310443878174f, 0.0000000000000000000f, 0.0000000000000000000f, 0.0000000000000000000f, 0.0000000000000000000f, 0.0000000000000000000f, 0.0000000000000000000f, -0.12939651310443878174f, -0.12939651310443878174f, 0.0000000000000000000f, -0.12939651310443878174f, 0.0000000000000000000f, 0.0000000000000000000f, 0.0000000000000000000f, 0.0000000000000000000f, 0.12939651310443878174f, -0.12939651310443878174f, 0.12939651310443878174f, 0.0000000000000000000f, -0.12939651310443878174f, 0.12939651310443878174f, -0.12939651310443878174f, 0.0000000000000000000f, 0.0000000000000000000f, -0.12939651310443878174f, 0.12939651310443878174f, 0.12939651310443878174f, -0.12939651310443878174f, 0.0000000000000000000f, 0.0000000000000000000f, 0.12939651310443878174f, 0.12939651310443878174f, 0.12939651310443878174f, -0.12939651310443878174f},
  {0.12939651310443878174f, 0.0000000000000000000f, -0.12939651310443878174f, 0.0000000000000000000f, 0.0000000000000000000f, -0.12939651310443878174f, 0.0000000000000000000f, 0.0000000000000000000f, -0.12939651310443878174f, 0.0000000000000000000f, -0.12939651310443878174f, 0.0000000000000000000f, 0.25879302620887756348f, 0.0000000000000000000f, 0.0000000000000000000f, 0.12939651310443878174f, 0.0000000000000000000f, 0.0000000000000000000f, 0.12939651310443878174f, 0.0000000000000000000f, 0.12939651310443878174f, -0.12939651310443878174f, 0.0000000000000000000f, 0.0000000000000000000f, 0.0000000000000000000f, 0.0000000000000000000f, -0.12939651310443878174f, 0.0000000000000000000f, 0.25879302620887756348f, -0.12939651310443878174f, -0.12939651310443878174f, 0.0000000000000000000f, 0.12939651310443878174f, 0.0000000000000000000f, -0.25879302620887756348f, 0.25879302620887756348f, 0.25879302620887756348f, -0.25879302620887756348f, -0.12939651310443878174f, -0.12939651310443878174f, 0.0000000000000000000f, 0.0000000000000000000f, 0.12939651310443878174f, 0.25879302620887756348f, 0.0000000000000000000f, 0.0000000000000000000f, 0.0000000000000000000f, 0.12939651310443878174f, 0.0000000000000000000f, 0.0000000000000000000f, 0.12939651310443878174f, 0.12939651310443878174f, 0.0000000000000000000f, 0.25879302620887756348f, 0.12939651310443878174f, 0.0000000000000000000f, -0.12939651310443878174f, 0.0000000000000000000f, 0.0000000000000000000f, 0.0000000000000000000f, 0.12939651310443878174f, 0.0000000000000000000f, -0.12939651310443878174f, 0.12939651310443878174f},
  {0.0000000000000000000f, -0.12939651310443878174f, 0.0000000000000000000f, 0.0000000000000000000f, 0.0000000000000000000f, 0.0000000000000000000f, 0.0000000000000000000f, 0.12939651310443878174f, -0.12939651310443878174f, -0.12939651310443878174f, -0.12939651310443878174f, 0.0000000000000000000f, -0.12939651310443878174f, -0.12939651310443878174f, 0.0000000000000000000f, 0.12939651310443878174f, 0.12939651310443878174f, 0.0000000000000000000f, 0.0000000000000000000f, 0.0000000000000000000f, 0.12939651310443878174f, 0.0000000000000000000f, -0.12939651310443878174f, 0.0000000000000000000f, 0.0000000000000000000f, 0.0000000000000000000f, 0.0000000000000000000f, 0.0000000000000000000f, 0.25879302620887756348f, 0.12939651310443878174f, 0.0000000000000000000f, -0.12939651310443878174f, 0.12939651310443878174f, 0.12939651310443878174f, 0.0000000000000000000f, -0.25879302620887756348f, 0.12939651310443878174f, 0.25879302620887756348f, 0.12939651310443878174f, -0.12939651310443878174f, 0.0000000000000000000f, 0.0000000000000000000f, -0.12939651310443878174f, 0.0000000000000000000f, 0.0000000000000000000f, 0.0000000000000000000f, 0.0000000000000000000f, -0.12939651310443878174f, 0.0000000000000000000f, 0.12939651310443878174f, 0.0000000000000000000f, -0.12939651310443878174f, -0.12939651310443878174f, -0.12939651310443878174f, 0.12939651310443878174f, 0.0000000000000000000f, -0.12939651310443878174f, 0.0000000000000000000f, 0.0000000000000000000f, 0.12939651310443878174f, 0.12939651310443878174f, 0.0000000000000000000f, -0.12939651310443878174f, 0.0000000000000000000f},
  {0.12939651310443878174f, 0.12939651310443878174f, 0.12939651310443878174f, 0.0000000000000000000f, 0.0000000000000000000f, 0.0000000000000000000f, 0.0000000000000000000f, -0.12939651310443878174f, -0.12939651310443878174f, 0.0000000000000000000f, 0.12939651310443878174f, 0.12939651310443878174f, 0.0000000000000000000f, 0.12939651310443878174f, 0.0000000000000000000f, 0.12939651310443878174f, 0.0000000000000000000f, 0.0000000000000000000f, 0.0000000000000000000f, 0.0000000000000000000f, 0.0000000000000000000f, -0.12939651310443878174f, -0.12939651310443878174f, 0.0000000000000000000f, -0.12939651310443878174f, 0.0000000000000000000f, 0.0000000000000000000f, -0.12939651310443878174f, 0.51758605241775512695f, 0.0000000000000000000f, -0.12939651310443878174f, 0.0000000000000000000f, 0.0000000000000000000f, 0.0000000000000000000f, -0.12939651310443878174f, 0.25879302620887756348f, 0.38818955421447753906f, -0.12939651310443878174f, 0.12939651310443878174f, 0.0000000000000000000f, 0.0000000000000000000f, -0.12939651310443878174f, -0.12939651310443878174f, 0.38818955421447753906f, 0.12939651310443878174f, 0.0000000000000000000f, 0.12939651310443878174f, 0.12939651310443878174f, 0.12939651310443878174f, 0.0000000000000000000f, -0.12939651310443878174f, -0.12939651310443878174f, 0.0000000000000000000f, 0.12939651310443878174f, 0.0000000000000000000f, 0.0000000000000000000f, 0.0000000000000000000f, 0.0000000000000000000f, -0.12939651310443878174f, 0.0000000000000000000f, -0.12939651310443878174f, 0.12939651310443878174f, 0.12939651310443878174f, 0.0000000000000000000f},
  {0.12939651310443878174f, 0.12939651310443878174f, -0.12939651310443878174f, 0.12939651310443878174f, 0.0000000000000000000f, -0.12939651310443878174f, -0.12939651310443878174f, -0.12939651310443878174f, 0.0000000000000000000f, -0.12939651310443878174f, -0.25879302620887756348f, -0.25879302620887756348f, -0.12939651310443878174f, 0.12939651310443878174f, 0.0000000000000000000f, 0.0000000000000000000f, -0.12939651310443878174f, 0.12939651310443878174f, 0.12939651310443878174f, 0.25879302620887756348f, 0.0000000000000000000f, -0.12939651310443878174f, -0.12939651310443878174f, 0.0000000000000000000f, 0.12939651310443878174f, 0.12939651310443878174f, 0.38818955421447753906f, 0.0000000000000000000f, 0.51758605241775512695f, 0.38818955421447753906f, -0.12939651310443878174f, 0.0000000000000000000f, -0.12939651310443878174f, 0.0000000000000000000f, 0.0000000000000000000f, 0.38818955421447753906f, 0.77637910842895507812f, 0.0000000000000000000f, 0.0000000000000000000f, -0.12939651310443878174f, -0.12939651310443878174f, -0.38818955421447753906f, -0.25879302620887756348f, 0.38818955421447753906f, 0.12939651310443878174f, -0.38818955421447753906f, -0.25879302620887756348f, -0.12939651310443878174f, -0.12939651310443878174f, -0.25879302620887756348f, -0.25879302620887756348f, 0.0000000000000000000f, 0.0000000000000000000f, 0.12939651310443878174f, -0.12939651310443878174f, 0.0000000000000000000f, 0.12939651310443878174f, 0.12939651310443878174f, 0.0000000000000000000f, 0.12939651310443878174f, 0.0000000000000000000f, 0.12939651310443878174f, 0.12939651310443878174f, 0.12939651310443878174f},
  {0.0000000000000000000f, 0.12939651310443878174f, 0.0000000000000000000f, 0.0000000000000000000f, 0.12939651310443878174f, 0.0000000000000000000f, 0.0000000000000000000f, 0.0000000000000000000f, 0.0000000000000000000f, -0.12939651310443878174f, 0.0000000000000000000f, -0.12939651310443878174f, 0.0000000000000000000f, 0.0000000000000000000f, 0.0000000000000000000f, 0.0000000000000000000f, -0.12939651310443878174f, 0.0000000000000000000f, -0.12939651310443878174f, 0.0000000000000000000f, -0.12939651310443878174f, 0.0000000000000000000f, 0.0000000000000000000f, 0.0000000000000000000f, 0.0000000000000000000f, 0.12939651310443878174f, 0.0000000000000000000f, 0.0000000000000000000f, 0.0000000000000000000f, -0.12939651310443878174f, 0.0000000000000000000f, 0.12939651310443878174f, 0.0000000000000000000f, -0.12939651310443878174f, 0.0000000000000000000f, 0.0000000000000000000f, 0.0000000000000000000f, -0.12939651310443878174f, -0.12939651310443878174f, -0.12939651310443878174f, 0.0000000000000000000f, 0.12939651310443878174f, 0.0000000000000000000f, 0.12939651310443878174f, -0.12939651310443878174f, 0.0000000000000000000f, 0.0000000000000000000f, 0.0000000000000000000f, -0.12939651310443878174f, -0.12939651310443878174f, 0.0000000000000000000f, 0.12939651310443878174f, 0.0000000000000000000f, 0.12939651310443878174f, -0.12939651310443878174f, 0.0000000000000000000f, 0.0000000000000000000f, 0.0000000000000000000f, -0.12939651310443878174f, -0.12939651310443878174f, 0.12939651310443878174f, 0.0000000000000000000f, 0.0000000000000000000f, 0.0000000000000000000f},
  {-0.12939651310443878174f, 0.12939651310443878174f, 0.0000000000000000000f, 0.0000000000000000000f, 0.0000000000000000000f, 0.12939651310443878174f, 0.0000000000000000000f, 0.0000000000000000000f, -0.12939651310443878174f, 0.0000000000000000000f, 0.0000000000000000000f, 0.0000000000000000000f, -0.12939651310443878174f, -0.12939651310443878174f, 0.12939651310443878174f, 0.0000000000000000000f, -0.12939651310443878174f, -0.12939651310443878174f, 0.0000000000000000000f, -0.12939651310443878174f, 0.0000000000000000000f, 0.0000000000000000000f, 0.0000000000000000000f, -0.12939651310443878174f, 0.0000000000000000000f, 0.0000000000000000000f, 0.0000000000000000000f, 0.12939651310443878174f, -0.12939651310443878174f, 0.0000000000000000000f, -0.12939651310443878174f, 0.0000000000000000000f, 0.0000000000000000000f, 0.0000000000000000000f, 0.0000000000000000000f, 0.12939651310443878174f, -0.12939651310443878174f, 0.0000000000000000000f, 0.0000000000000000000f, -0.12939651310443878174f, 0.12939651310443878174f, 0.0000000000000000000f, -0.12939651310443878174f, 0.0000000000000000000f, -0.12939651310443878174f, 0.12939651310443878174f, 0.0000000000000000000f, 0.12939651310443878174f, 0.0000000000000000000f, 0.0000000000000000000f, -0.12939651310443878174f, 0.12939651310443878174f, -0.12939651310443878174f, 0.12939651310443878174f, 0.0000000000000000000f, 0.12939651310443878174f, 0.12939651310443878174f, 0.12939651310443878174f, -0.12939651310443878174f, -0.12939651310443878174f, -0.12939651310443878174f, 0.12939651310443878174f, 0.0000000000000000000f, 0.0000000000000000000f},
  {0.0000000000000000000f, 0.12939651310443878174f, -0.12939651310443878174f, 0.12939651310443878174f, 0.0000000000000000000f, -0.12939651310443878174f, 0.0000000000000000000f, -0.12939651310443878174f, 0.0000000000000000000f, 0.12939651310443878174f, 0.25879302620887756348f, 0.25879302620887756348f, 0.12939651310443878174f, 0.0000000000000000000f, 0.0000000000000000000f, 0.12939651310443878174f, 0.0000000000000000000f, 0.12939651310443878174f, 0.0000000000000000000f, -0.12939651310443878174f, 0.51758605241775512695f, 0.12939651310443878174f, -0.12939651310443878174f, -0.12939651310443878174f, 0.0000000000000000000f, 0.0000000000000000000f, -0.38818955421447753906f, -0.12939651310443878174f, 0.51758605241775512695f, 0.12939651310443878174f, -0.25879302620887756348f, 0.0000000000000000000f, 0.0000000000000000000f, 0.0000000000000000000f, -0.12939651310443878174f, -0.38818955421447753906f, 0.12939651310443878174f, 0.38818955421447753906f, 0.12939651310443878174f, 0.0000000000000000000f, 0.0000000000000000000f, 0.25879302620887756348f, -0.25879302620887756348f, -0.64698255062103271484f, 0.0000000000000000000f, 0.38818955421447753906f, 0.12939651310443878174f, 0.0000000000000000000f, 0.0000000000000000000f, 0.12939651310443878174f, 0.25879302620887756348f, 0.12939651310443878174f, 0.0000000000000000000f, 0.0000000000000000000f, 0.0000000000000000000f, 0.12939651310443878174f, -0.12939651310443878174f, 0.0000000000000000000f, 0.0000000000000000000f, 0.12939651310443878174f, 0.12939651310443878174f, -0.12939651310443878174f, 0.12939651310443878174f, -0.12939651310443878174f},
  {0.0000000000000000000f, 0.0000000000000000000f, 0.12939651310443878174f, 0.0000000000000000000f, 0.0000000000000000000f, -0.12939651310443878174f, -0.12939651310443878174f, 0.12939651310443878174f, 0.12939651310443878174f, 0.0000000000000000000f, 0.12939651310443878174f, 0.12939651310443878174f, 0.0000000000000000000f, -0.12939651310443878174f, 0.0000000000000000000f, 0.12939651310443878174f, 0.0000000000000000000f, 0.12939651310443878174f, 0.12939651310443878174f, -0.12939651310443878174f, 0.12939651310443878174f, 0.12939651310443878174f, 0.12939651310443878174f, -0.12939651310443878174f, 0.0000000000000000000f, -0.12939651310443878174f, -0.12939651310443878174f, -0.12939651310443878174f, 0.12939651310443878174f, 0.0000000000000000000f, -0.12939651310443878174f, 0.12939651310443878174f, -0.12939651310443878174f, 0.0000000000000000000f, -0.12939651310443878174f, 0.12939651310443878174f, 0.12939651310443878174f, 0.0000000000000000000f, -0.12939651310443878174f, 0.0000000000000000000f, 0.12939651310443878174f, 0.12939651310443878174f, -0.12939651310443878174f, -0.12939651310443878174f, 0.0000000000000000000f, 0.12939651310443878174f, 0.0000000000000000000f, 0.0000000000000000000f, 0.0000000000000000000f, 0.12939651310443878174f, 0.12939651310443878174f, 0.0000000000000000000f, 0.12939651310443878174f, 0.0000000000000000000f, 0.0000000000000000000f, 0.0000000000000000000f, 0.12939651310443878174f, 0.0000000000000000000f, -0.12939651310443878174f, 0.0000000000000000000f, 0.12939651310443878174f, 0.0000000000000000000f, -0.12939651310443878174f, -0.12939651310443878174f},
  {0.0000000000000000000f, 0.12939651310443878174f, 0.12939651310443878174f, 0.0000000000000000000f, 0.0000000000000000000f, 0.0000000000000000000f, 0.0000000000000000000f, 0.0000000000000000000f, -0.12939651310443878174f, 0.0000000000000000000f, 0.0000000000000000000f, 0.12939651310443878174f, 0.0000000000000000000f, 0.12939651310443878174f, 0.12939651310443878174f, 0.12939651310443878174f, -0.12939651310443878174f, 0.12939651310443878174f, 0.12939651310443878174f, 0.25879302620887756348f, 0.0000000000000000000f, 0.25879302620887756348f, 0.38818955421447753906f, 0.12939651310443878174f, 0.0000000000000000000f, -0.12939651310443878174f, 0.0000000000000000000f, 0.38818955421447753906f, -0.38818955421447753906f, -0.12939651310443878174f, 0.12939651310443878174f, 0.0000000000000000000f, 0.0000000000000000000f, 0.12939651310443878174f, 0.25879302620887756348f, -0.25879302620887756348f, -0.25879302620887756348f, 0.12939651310443878174f, 0.12939651310443878174f, 0.0000000000000000000f, 0.0000000000000000000f, 0.12939651310443878174f, 0.25879302620887756348f, 0.0000000000000000000f, 0.0000000000000000000f, 0.12939651310443878174f, 0.0000000000000000000f, 0.12939651310443878174f, 0.0000000000000000000f, 0.12939651310443878174f, 0.12939651310443878174f, 0.38818955421447753906f, 0.25879302620887756348f, 0.0000000000000000000f, 0.0000000000000000000f, 0.0000000000000000000f, 0.0000000000000000000f, 0.0000000000000000000f, -0.12939651310443878174f, 0.12939651310443878174f, 0.12939651310443878174f, 0.0000000000000000000f, 0.0000000000000000000f, 0.12939651310443878174f}
};
static const float quantized_tensor_Gemm_0_bias[25] = 
{0.25879302620887756348f, 0.25879302620887756348f, -0.12939651310443878174f, 0.12939651310443878174f, 0.0000000000000000000f, -0.12939651310443878174f, 0.0000000000000000000f, 0.25879302620887756348f, 0.0000000000000000000f, 0.0000000000000000000f, 0.0000000000000000000f, 0.0000000000000000000f, 0.25879302620887756348f, 0.0000000000000000000f, 0.0000000000000000000f, -0.12939651310443878174f, 0.12939651310443878174f, 0.25879302620887756348f, 0.38818955421447753906f, 0.51758605241775512695f, 0.0000000000000000000f, -0.12939651310443878174f, 0.25879302620887756348f, 0.12939651310443878174f, 0.25879302620887756348f};
static const float quantized_tensor_Gemm_1_weight[25][25] = 
{
  {-0.44872713088989257812f, 0.0000000000000000000f, 0.0000000000000000000f, -0.29915142059326171875f, 0.0000000000000000000f, 0.14957571029663085938f, 0.0000000000000000000f, 0.74787855148315429688f, 0.14957571029663085938f, 0.0000000000000000000f, -0.14957571029663085938f, 1.0470299720764160156f, 0.59830284118652343750f, -0.14957571029663085938f, -0.14957571029663085938f, -0.14957571029663085938f, 0.0000000000000000000f, 0.0000000000000000000f, -0.29915142059326171875f, -0.14957571029663085938f, -0.14957571029663085938f, 0.0000000000000000000f, 0.74787855148315429688f, 0.0000000000000000000f, 0.44872713088989257812f},
  {-0.14957571029663085938f, 0.0000000000000000000f, 0.14957571029663085938f, -0.14957571029663085938f, 0.14957571029663085938f, 0.14957571029663085938f, -0.14957571029663085938f, 0.14957571029663085938f, 0.0000000000000000000f, 0.14957571029663085938f, 0.14957571029663085938f, -0.14957571029663085938f, -0.14957571029663085938f, -0.14957571029663085938f, -0.14957571029663085938f, -0.14957571029663085938f, 0.0000000000000000000f, -0.14957571029663085938f, 0.14957571029663085938f, 0.14957571029663085938f, 0.0000000000000000000f, -0.14957571029663085938f, 0.14957571029663085938f, -0.14957571029663085938f, 0.14957571029663085938f},
  {0.44872713088989257812f, 0.0000000000000000000f, 0.0000000000000000000f, -0.14957571029663085938f, 0.14957571029663085938f, 0.0000000000000000000f, 0.44872713088989257812f, 0.14957571029663085938f, -0.14957571029663085938f, 0.0000000000000000000f, 0.0000000000000000000f, -0.29915142059326171875f, 0.14957571029663085938f, 0.0000000000000000000f, -0.14957571029663085938f, 0.14957571029663085938f, 0.14957571029663085938f, 0.14957571029663085938f, 0.44872713088989257812f, 0.89745426177978515625f, 0.0000000000000000000f, 0.14957571029663085938f, 0.0000000000000000000f, 0.0000000000000000000f, -0.29915142059326171875f},
  {0.0000000000000000000f, -0.14957571029663085938f, -0.14957571029663085938f, 0.0000000000000000000f, -0.14957571029663085938f, -0.14957571029663085938f, -0.14957571029663085938f, 0.0000000000000000000f, 0.0000000000000000000f, 0.0000000000000000000f, -0.14957571029663085938f, -0.14957571029663085938f, 0.0000000000000000000f, 0.14957571029663085938f, 0.0000000000000000000f, -0.14957571029663085938f, -0.14957571029663085938f, 0.0000000000000000000f, 0.0000000000000000000f, 0.0000000000000000000f, 0.14957571029663085938f, 0.14957571029663085938f, 0.14957571029663085938f, 0.14957571029663085938f, 0.14957571029663085938f},
  {-0.14957571029663085938f, 0.0000000000000000000f, 0.0000000000000000000f, 0.14957571029663085938f, 0.0000000000000000000f, -0.14957571029663085938f, -0.14957571029663085938f, -0.14957571029663085938f, 0.14957571029663085938f, 0.14957571029663085938f, 0.14957571029663085938f, 0.0000000000000000000f, 0.0000000000000000000f, -0.14957571029663085938f, 0.0000000000000000000f, -0.14957571029663085938f, 0.0000000000000000000f, 0.14957571029663085938f, -0.14957571029663085938f, 0.0000000000000000000f, 0.14957571029663085938f, 0.14957571029663085938f, 0.0000000000000000000f, 0.14957571029663085938f, 0.0000000000000000000f},
  {0.14957571029663085938f, -0.29915142059326171875f, 0.0000000000000000000f, 0.0000000000000000000f, 0.0000000000000000000f, 0.0000000000000000000f, 0.29915142059326171875f, 0.29915142059326171875f, 0.0000000000000000000f, 0.44872713088989257812f, -0.14957571029663085938f, 0.59830284118652343750f, 0.59830284118652343750f, -0.14957571029663085938f, 0.0000000000000000000f, 0.14957571029663085938f, 0.14957571029663085938f, -0.29915142059326171875f, 0.0000000000000000000f, -0.29915142059326171875f, -0.14957571029663085938f, 0.0000000000000000000f, -0.14957571029663085938f, 0.0000000000000000000f, 0.14957571029663085938f},
  {-0.14957571029663085938f, 0.0000000000000000000f, 0.0000000000000000000f, -0.14957571029663085938f, 0.14957571029663085938f, 0.0000000000000000000f, -0.14957571029663085938f, -0.14957571029663085938f, 0.0000000000000000000f, 0.14957571029663085938f, 0.0000000000000000000f, -0.14957571029663085938f, 0.14957571029663085938f, 0.0000000000000000000f, -0.14957571029663085938f, 0.0000000000000000000f, 0.0000000000000000000f, 0.14957571029663085938f, 0.14957571029663085938f, 0.14957571029663085938f, 0.14957571029663085938f, 0.0000000000000000000f, 0.14957571029663085938f, 0.0000000000000000000f, 0.0000000000000000000f},
  {0.14957571029663085938f, 0.29915142059326171875f, 0.0000000000000000000f, 0.0000000000000000000f, 0.14957571029663085938f, 0.0000000000000000000f, -0.14957571029663085938f, -0.14957571029663085938f, 0.14957571029663085938f, 0.0000000000000000000f, -0.14957571029663085938f, 0.14957571029663085938f, 0.0000000000000000000f, 0.29915142059326171875f, 0.0000000000000000000f, 0.0000000000000000000f, -0.29915142059326171875f, 0.0000000000000000000f, 0.14957571029663085938f, 0.0000000000000000000f, -0.14957571029663085938f, 0.0000000000000000000f, 0.14957571029663085938f, -0.14957571029663085938f, -0.14957571029663085938f},
  {0.0000000000000000000f, 0.74787855148315429688f, -0.14957571029663085938f, 0.14957571029663085938f, 0.0000000000000000000f, 0.14957571029663085938f, -0.29915142059326171875f, -0.14957571029663085938f, 0.14957571029663085938f, -0.29915142059326171875f, -0.14957571029663085938f, 0.44872713088989257812f, -0.59830284118652343750f, 0.89745426177978515625f, -0.14957571029663085938f, 0.14957571029663085938f, -0.44872713088989257812f, 0.14957571029663085938f, 0.0000000000000000000f, 0.29915142059326171875f, 0.0000000000000000000f, 0.14957571029663085938f, -0.44872713088989257812f, -0.29915142059326171875f, 0.29915142059326171875f},
  {-0.14957571029663085938f, 0.14957571029663085938f, -0.14957571029663085938f, 0.14957571029663085938f, 0.14957571029663085938f, -0.14957571029663085938f, 0.0000000000000000000f, 0.14957571029663085938f, -0.14957571029663085938f, 0.0000000000000000000f, 0.0000000000000000000f, 0.0000000000000000000f, 0.0000000000000000000f, -0.14957571029663085938f, 0.0000000000000000000f, -0.14957571029663085938f, 0.14957571029663085938f, -0.14957571029663085938f, 0.0000000000000000000f, 0.0000000000000000000f, -0.14957571029663085938f, 0.14957571029663085938f, 0.29915142059326171875f, 0.29915142059326171875f, 0.14957571029663085938f},
  {0.14957571029663085938f, -0.14957571029663085938f, 0.14957571029663085938f, -0.14957571029663085938f, 0.0000000000000000000f, 0.14957571029663085938f, 0.14957571029663085938f, -0.14957571029663085938f, 0.14957571029663085938f, 0.0000000000000000000f, 0.14957571029663085938f, 0.14957571029663085938f, -0.14957571029663085938f, 0.14957571029663085938f, 0.0000000000000000000f, -0.14957571029663085938f, -0.14957571029663085938f, 0.14957571029663085938f, -0.14957571029663085938f, -0.14957571029663085938f, 0.14957571029663085938f, 0.14957571029663085938f, 0.14957571029663085938f, 0.14957571029663085938f, -0.14957571029663085938f},
  {0.89745426177978515625f, -0.29915142059326171875f, 0.0000000000000000000f, 0.0000000000000000000f, -0.14957571029663085938f, 0.0000000000000000000f, 0.29915142059326171875f, -0.59830284118652343750f, -0.14957571029663085938f, 0.44872713088989257812f, 0.14957571029663085938f, -0.59830284118652343750f, 0.29915142059326171875f, 0.14957571029663085938f, 0.14957571029663085938f, 0.14957571029663085938f, 0.29915142059326171875f, 0.0000000000000000000f, 0.44872713088989257812f, 0.14957571029663085938f, -0.14957571029663085938f, 0.0000000000000000000f, 0.44872713088989257812f, 0.29915142059326171875f, -0.14957571029663085938f},
  {0.59830284118652343750f, 0.59830284118652343750f, 0.14957571029663085938f, 0.29915142059326171875f, 0.0000000000000000000f, 0.0000000000000000000f, 0.0000000000000000000f, -0.44872713088989257812f, 0.14957571029663085938f, 0.59830284118652343750f, 0.0000000000000000000f, 0.59830284118652343750f, -0.29915142059326171875f, 0.74787855148315429688f, -0.14957571029663085938f, 0.14957571029663085938f, -0.14957571029663085938f, -0.14957571029663085938f, 0.0000000000000000000f, -0.29915142059326171875f, 0.14957571029663085938f, 0.0000000000000000000f, 0.0000000000000000000f, 0.0000000000000000000f, 0.29915142059326171875f},
  {-0.59830284118652343750f, -0.14957571029663085938f, 0.14957571029663085938f, 0.14957571029663085938f, -0.14957571029663085938f, 0.14957571029663085938f, 0.0000000000000000000f, 0.59830284118652343750f, -0.14957571029663085938f, -0.44872713088989257812f, 0.0000000000000000000f, 0.29915142059326171875f, 0.14957571029663085938f, 0.44872713088989257812f, -0.14957571029663085938f, 0.0000000000000000000f, -0.14957571029663085938f, 0.14957571029663085938f, 0.29915142059326171875f, 0.44872713088989257812f, 0.0000000000000000000f, 0.14957571029663085938f, 0.74787855148315429688f, 0.29915142059326171875f, -0.29915142059326171875f},
  {0.14957571029663085938f, -0.14957571029663085938f, -0.14957571029663085938f, -0.14957571029663085938f, 0.14957571029663085938f, -0.14957571029663085938f, -0.14957571029663085938f, -0.14957571029663085938f, 0.0000000000000000000f, -0.14957571029663085938f, 0.0000000000000000000f, -0.14957571029663085938f, -0.14957571029663085938f, 0.14957571029663085938f, 0.0000000000000000000f, 0.14957571029663085938f, -0.14957571029663085938f, -0.14957571029663085938f, 0.14957571029663085938f, -0.14957571029663085938f, -0.14957571029663085938f, 0.14957571029663085938f, 0.0000000000000000000f, -0.14957571029663085938f, 0.14957571029663085938f},
  {0.29915142059326171875f, 0.44872713088989257812f, 0.0000000000000000000f, 0.14957571029663085938f, -0.14957571029663085938f, 0.0000000000000000000f, -0.14957571029663085938f, 0.0000000000000000000f, 0.14957571029663085938f, 0.14957571029663085938f, -0.14957571029663085938f, 0.29915142059326171875f, 0.0000000000000000000f, 0.44872713088989257812f, 0.0000000000000000000f, 0.0000000000000000000f, 0.0000000000000000000f, -0.14957571029663085938f, -0.14957571029663085938f, -0.14957571029663085938f, 0.0000000000000000000f, 0.0000000000000000000f, -0.44872713088989257812f, -0.14957571029663085938f, 0.14957571029663085938f},
  {-0.14957571029663085938f, 0.14957571029663085938f, 0.0000000000000000000f, 0.14957571029663085938f, -0.14957571029663085938f, 0.14957571029663085938f, 0.14957571029663085938f, 0.0000000000000000000f, -0.14957571029663085938f, 0.14957571029663085938f, 0.0000000000000000000f, 0.0000000000000000000f, 0.0000000000000000000f, 0.14957571029663085938f, 0.0000000000000000000f, 0.14957571029663085938f, 0.0000000000000000000f, 0.0000000000000000000f, -0.14957571029663085938f, -0.14957571029663085938f, 0.14957571029663085938f, 0.14957571029663085938f, 0.0000000000000000000f, 0.14957571029663085938f, -0.14957571029663085938f},
  {0.44872713088989257812f, 0.14957571029663085938f, -0.14957571029663085938f, 0.29915142059326171875f, -0.14957571029663085938f, 0.14957571029663085938f, 0.0000000000000000000f, -0.14957571029663085938f, 0.0000000000000000000f, -0.14957571029663085938f, -0.14957571029663085938f, -0.14957571029663085938f, -0.29915142059326171875f, 0.0000000000000000000f, 0.0000000000000000000f, 0.0000000000000000000f, 0.44872713088989257812f, 0.14957571029663085938f, 0.59830284118652343750f, 0.74787855148315429688f, 0.0000000000000000000f, 0.14957571029663085938f, -0.14957571029663085938f, 0.14957571029663085938f, -0.14957571029663085938f},
  {-0.44872713088989257812f, -0.14957571029663085938f, 0.14957571029663085938f, -0.14957571029663085938f, 0.0000000000000000000f, 0.14957571029663085938f, -0.29915142059326171875f, 0.59830284118652343750f, 0.0000000000000000000f, -0.14957571029663085938f, 0.14957571029663085938f, 0.14957571029663085938f, 0.29915142059326171875f, 0.0000000000000000000f, 0.0000000000000000000f, 0.14957571029663085938f, -0.29915142059326171875f, 0.29915142059326171875f, -0.14957571029663085938f, 0.0000000000000000000f, 0.0000000000000000000f, 0.0000000000000000000f, 0.29915142059326171875f, 0.0000000000000000000f, 0.44872713088989257812f},
  {-0.29915142059326171875f, 0.0000000000000000000f, 0.0000000000000000000f, 0.14957571029663085938f, -0.14957571029663085938f, 0.14957571029663085938f, 0.0000000000000000000f, 0.14957571029663085938f, 0.14957571029663085938f, -0.14957571029663085938f, -0.14957571029663085938f, 0.0000000000000000000f, -0.14957571029663085938f, 0.14957571029663085938f, -0.14957571029663085938f, 0.0000000000000000000f, -0.14957571029663085938f, 0.14957571029663085938f, 0.14957571029663085938f, 0.14957571029663085938f, 0.0000000000000000000f, 0.0000000000000000000f, 0.0000000000000000000f, 0.0000000000000000000f, 0.14957571029663085938f},
  {0.14957571029663085938f, -0.14957571029663085938f, -0.14957571029663085938f, -0.14957571029663085938f, -0.14957571029663085938f, -0.14957571029663085938f, 0.0000000000000000000f, 0.44872713088989257812f, 0.0000000000000000000f, 0.14957571029663085938f, -0.14957571029663085938f, 0.29915142059326171875f, 0.74787855148315429688f, -0.59830284118652343750f, 0.0000000000000000000f, 0.0000000000000000000f, 0.14957571029663085938f, 0.0000000000000000000f, -0.14957571029663085938f, -0.14957571029663085938f, 0.14957571029663085938f, 0.14957571029663085938f, 0.14957571029663085938f, 0.14957571029663085938f, 0.44872713088989257812f},
  {1.0470299720764160156f, 0.29915142059326171875f, -0.14957571029663085938f, 0.29915142059326171875f, 0.14957571029663085938f, 0.14957571029663085938f, -0.29915142059326171875f, -0.44872713088989257812f, -0.14957571029663085938f, 0.89745426177978515625f, 0.0000000000000000000f, 0.44872713088989257812f, 0.59830284118652343750f, -0.14957571029663085938f, 0.0000000000000000000f, -0.14957571029663085938f, 0.0000000000000000000f, -0.14957571029663085938f, 0.0000000000000000000f, -0.89745426177978515625f, -0.14957571029663085938f, 0.0000000000000000000f, 0.29915142059326171875f, 0.0000000000000000000f, 0.44872713088989257812f},
  {0.0000000000000000000f, 0.0000000000000000000f, 0.0000000000000000000f, 0.29915142059326171875f, -0.14957571029663085938f, 0.0000000000000000000f, 0.14957571029663085938f, 0.44872713088989257812f, -0.14957571029663085938f, 0.0000000000000000000f, -0.14957571029663085938f, 0.29915142059326171875f, -0.29915142059326171875f, 0.59830284118652343750f, 0.0000000000000000000f, -0.14957571029663085938f, 0.14957571029663085938f, -0.29915142059326171875f, 0.0000000000000000000f, 0.59830284118652343750f, 0.0000000000000000000f, 0.14957571029663085938f, -0.59830284118652343750f, -0.14957571029663085938f, 0.14957571029663085938f},
  {0.0000000000000000000f, -0.14957571029663085938f, -0.14957571029663085938f, 0.14957571029663085938f, -0.14957571029663085938f, 0.0000000000000000000f, 0.0000000000000000000f, 0.0000000000000000000f, 0.0000000000000000000f, 0.0000000000000000000f, 0.14957571029663085938f, -0.29915142059326171875f, 0.14957571029663085938f, -0.14957571029663085938f, 0.0000000000000000000f, -0.14957571029663085938f, 0.29915142059326171875f, 0.0000000000000000000f, 0.29915142059326171875f, 0.0000000000000000000f, 0.0000000000000000000f, -0.14957571029663085938f, 0.0000000000000000000f, 0.14957571029663085938f, 0.14957571029663085938f},
  {0.29915142059326171875f, -0.14957571029663085938f, -0.14957571029663085938f, -0.14957571029663085938f, -0.14957571029663085938f, 0.14957571029663085938f, 0.14957571029663085938f, 0.0000000000000000000f, 0.0000000000000000000f, 0.29915142059326171875f, -0.14957571029663085938f, 0.44872713088989257812f, 0.14957571029663085938f, 0.14957571029663085938f, -0.14957571029663085938f, 0.0000000000000000000f, 0.14957571029663085938f, 0.0000000000000000000f, 0.0000000000000000000f, 0.14957571029663085938f, 0.14957571029663085938f, 0.0000000000000000000f, -0.29915142059326171875f, 0.14957571029663085938f, 0.0000000000000000000f}
};
static const float quantized_tensor_Gemm_1_bias[25] = 
{0.29915142059326171875f, -0.14957571029663085938f, 0.44872713088989257812f, -0.14957571029663085938f, -0.14957571029663085938f, -0.14957571029663085938f, -0.14957571029663085938f, -0.14957571029663085938f, 0.44872713088989257812f, -0.14957571029663085938f, -0.14957571029663085938f, 0.29915142059326171875f, 0.14957571029663085938f, 0.44872713088989257812f, 0.0000000000000000000f, 0.29915142059326171875f, 0.0000000000000000000f, 0.59830284118652343750f, 0.44872713088989257812f, -0.14957571029663085938f, 0.44872713088989257812f, 0.14957571029663085938f, -0.14957571029663085938f, 0.44872713088989257812f, -0.14957571029663085938f};
static const float quantized_tensor_Gemm_2_weight[10][25] = 
{
  {0.54746252298355102539f, 0.13686563074588775635f, -0.75276094675064086914f, 0.20529845356941223145f, -0.068432815372943878174f, 0.20529845356941223145f, -0.13686563074588775635f, 0.13686563074588775635f, 0.27373126149177551270f, -0.13686563074588775635f, -0.13686563074588775635f, -0.75276094675064086914f, 0.47902971506118774414f, -0.54746252298355102539f, 0.0000000000000000000f, 0.34216406941413879395f, -0.13686563074588775635f, -0.82119381427764892578f, 0.13686563074588775635f, -0.13686563074588775635f, 0.34216406941413879395f, 0.82119381427764892578f, -0.13686563074588775635f, 0.0000000000000000000f, -0.13686563074588775635f},
  {-0.82119381427764892578f, 0.068432815372943878174f, 0.95805943012237548828f, 0.20529845356941223145f, 0.13686563074588775635f, -0.34216406941413879395f, -0.13686563074588775635f, -0.34216406941413879395f, -0.61589533090591430664f, -0.068432815372943878174f, 0.13686563074588775635f, 0.95805943012237548828f, -0.68432813882827758789f, -0.27373126149177551270f, -0.068432815372943878174f, -0.41059690713882446289f, 0.13686563074588775635f, 0.82119381427764892578f, -0.41059690713882446289f, 0.13686563074588775635f, 0.13686563074588775635f, -0.27373126149177551270f, -0.34216406941413879395f, 0.47902971506118774414f, -0.27373126149177551270f},
  {-0.54746252298355102539f, -0.068432815372943878174f, 0.068432815372943878174f, 0.068432815372943878174f, 0.0000000000000000000f, 0.27373126149177551270f, 0.068432815372943878174f, -0.13686563074588775635f, -0.20529845356941223145f, 0.068432815372943878174f, -0.068432815372943878174f, 0.75276094675064086914f, 0.54746252298355102539f, -0.68432813882827758789f, -0.068432815372943878174f, 0.13686563074588775635f, 0.068432815372943878174f, -0.068432815372943878174f, -0.34216406941413879395f, 0.13686563074588775635f, -0.068432815372943878174f, 0.82119381427764892578f, -0.47902971506118774414f, 0.0000000000000000000f, 0.27373126149177551270f},
  {0.54746252298355102539f, -0.068432815372943878174f, -0.34216406941413879395f, -0.20529845356941223145f, -0.13686563074588775635f, -0.068432815372943878174f, 0.0000000000000000000f, 0.068432815372943878174f, -0.68432813882827758789f, 0.27373126149177551270f, 0.0000000000000000000f, 0.47902971506118774414f, -0.068432815372943878174f, 0.47902971506118774414f, 0.0000000000000000000f, -0.54746252298355102539f, 0.0000000000000000000f, -0.20529845356941223145f, 0.13686563074588775635f, -0.068432815372943878174f, 0.34216406941413879395f, 0.61589533090591430664f, -0.54746252298355102539f, -0.068432815372943878174f, -0.068432815372943878174f},
  {-0.47902971506118774414f, 0.13686563074588775635f, 0.0000000000000000000f, -0.20529845356941223145f, 0.068432815372943878174f, -0.54746252298355102539f, -0.20529845356941223145f, 0.13686563074588775635f, 1.0264922380447387695f, -0.068432815372943878174f, -0.13686563074588775635f, -0.20529845356941223145f, 0.34216406941413879395f, 0.41059690713882446289f, -0.13686563074588775635f, 0.0000000000000000000f, -0.13686563074588775635f, 0.41059690713882446289f, -0.13686563074588775635f, 0.34216406941413879395f, -0.61589533090591430664f, -0.75276094675064086914f, 0.41059690713882446289f, 0.0000000000000000000f, -0.13686563074588775635f},
  {0.47902971506118774414f, 0.0000000000000000000f, -0.20529845356941223145f, -0.068432815372943878174f, 0.068432815372943878174f, 0.20529845356941223145f, -0.068432815372943878174f, -0.068432815372943878174f, 0.0000000000000000000f, 0.068432815372943878174f, -0.13686563074588775635f, -0.41059690713882446289f, 0.068432815372943878174f, -0.13686563074588775635f, -0.13686563074588775635f, 0.27373126149177551270f, 0.068432815372943878174f, 0.068432815372943878174f, 0.13686563074588775635f, 0.068432815372943878174f, 0.41059690713882446289f, 0.20529845356941223145f, 0.0000000000000000000f, 0.0000000000000000000f, -0.068432815372943878174f},
  {-0.95805943012237548828f, 0.20529845356941223145f, -0.068432815372943878174f, -0.068432815372943878174f, -0.13686563074588775635f, -0.34216406941413879395f, -0.13686563074588775635f, 0.20529845356941223145f, 0.54746252298355102539f, 0.13686563074588775635f, -0.068432815372943878174f, 0.20529845356941223145f, 0.61589533090591430664f, -0.68432813882827758789f, 0.0000000000000000000f, 0.47902971506118774414f, -0.068432815372943878174f, 0.34216406941413879395f, -0.54746252298355102539f, 0.0000000000000000000f, -0.61589533090591430664f, 0.54746252298355102539f, 0.20529845356941223145f, -0.13686563074588775635f, 0.068432815372943878174f},
  {0.54746252298355102539f, 0.068432815372943878174f, 0.13686563074588775635f, -0.068432815372943878174f, 0.13686563074588775635f, 0.0000000000000000000f, -0.068432815372943878174f, -0.068432815372943878174f, -0.13686563074588775635f, -0.068432815372943878174f, 0.0000000000000000000f, -0.27373126149177551270f, -0.95805943012237548828f, 0.47902971506118774414f, -0.20529845356941223145f, -0.34216406941413879395f, -0.068432815372943878174f, -0.068432815372943878174f, 0.75276094675064086914f, 0.20529845356941223145f, 0.54746252298355102539f, -0.75276094675064086914f, 0.068432815372943878174f, 0.13686563074588775635f, -0.068432815372943878174f},
  {0.068432815372943878174f, 0.13686563074588775635f, 0.27373126149177551270f, -0.13686563074588775635f, 0.13686563074588775635f, 0.75276094675064086914f, -0.13686563074588775635f, -0.27373126149177551270f, -0.34216406941413879395f, 0.0000000000000000000f, 0.0000000000000000000f, -0.068432815372943878174f, 0.0000000000000000000f, -0.34216406941413879395f, -0.13686563074588775635f, 0.0000000000000000000f, -0.20529845356941223145f, 0.0000000000000000000f, -0.34216406941413879395f, -0.20529845356941223145f, 0.20529845356941223145f, -0.068432815372943878174f, 0.68432813882827758789f, -0.20529845356941223145f, 0.61589533090591430664f},
  {0.27373126149177551270f, 0.20529845356941223145f, 0.34216406941413879395f, 0.13686563074588775635f, -0.068432815372943878174f, -0.13686563074588775635f, -0.068432815372943878174f, 0.20529845356941223145f, 0.13686563074588775635f, 0.0000000000000000000f, 0.13686563074588775635f, -0.41059690713882446289f, -0.20529845356941223145f, 0.68432813882827758789f, 0.068432815372943878174f, 0.0000000000000000000f, -0.13686563074588775635f, 0.13686563074588775635f, 0.0000000000000000000f, 0.20529845356941223145f, -0.34216406941413879395f, -0.82119381427764892578f, 0.34216406941413879395f, -0.13686563074588775635f, 0.20529845356941223145f}
};
static const float quantized_tensor_Gemm_2_bias[10] = 
{-0.47902971506118774414f, 0.34216406941413879395f, -0.34216406941413879395f, -0.068432815372943878174f, 0.34216406941413879395f, 0.20529845356941223145f, -0.27373126149177551270f, 0.20529845356941223145f, 0.0000000000000000000f, 0.068432815372943878174f};
float quantized_tensor_onnx__Gemm_7[1][64];
float quantized_tensor_onnx__Gemm_9[1][25];
float quantized_tensor_onnx__Gemm_11[1][25];

float quantized_tensor_input[1][25];
float quantized_tensor_input_3[1][25];


static inline void quantized_node_Flatten_0( const float quantized_tensor_onnx__Flatten_0[1][64], float quantized_tensor_onnx__Gemm_7[1][64] )
{
	/* Flatten*/
	float *input = (float*)quantized_tensor_onnx__Flatten_0;
	float *output = (float*)quantized_tensor_onnx__Gemm_7;
	for( uint32_t i=0; i<64; i++ )
		output[i] = input[i];

}

static inline void quantized_node_Gemm_1( const float quantized_tensor_onnx__Gemm_7[1][64], const float quantized_tensor_Gemm_0_weight[25][64], const float quantized_tensor_Gemm_0_bias[25], float quantized_tensor_input[1][25] )
{
	/* Gemm */
	/* alpha   = 1.0000000000000000000
	   beta    = 1.0000000000000000000
	   transA  = 0
	   transB  = 1
	 */
	const int M = 1;
	const int K = 64;
	const int N = 25;
	float (*A)[64]  = (float(*)[64])quantized_tensor_onnx__Gemm_7;
	float (*Y)[25]  = (float(*)[25])quantized_tensor_input;
	float alpha = 1.0000000000000000000;
	float beta = 1.0000000000000000000;
	float (*C)[25]  = (float(*)[25])quantized_tensor_Gemm_0_bias;
	for( uint32_t r=0; r<M; r++ )
		for( uint32_t c=0; c<N; c++ ) {
			float ABrc = 0;
			for( uint32_t i=0; i<K; i++ ) {
				float B = quantized_tensor_Gemm_0_weight[c][i];
				ABrc += A[r][i] * B;
			}
			float tmp = ABrc * alpha;
			tmp += C[0][c] * beta;
			Y[r][c] = tmp;
	}
}

static inline void quantized_node_Relu_2( const float quantized_tensor_input[1][25], float quantized_tensor_onnx__Gemm_9[1][25] )
{
	/*Relu*/
	float *X = (float*)quantized_tensor_input;
	float *Y = (float*)quantized_tensor_onnx__Gemm_9;
	for( uint32_t i=0; i<25; i++ )
		Y[i] = X[i] > 0 ? X[i] : 0;

}

static inline void quantized_node_Gemm_3( const float quantized_tensor_onnx__Gemm_9[1][25], const float quantized_tensor_Gemm_1_weight[25][25], const float quantized_tensor_Gemm_1_bias[25], float quantized_tensor_input_3[1][25] )
{
	/* Gemm */
	/* alpha   = 1.0000000000000000000
	   beta    = 1.0000000000000000000
	   transA  = 0
	   transB  = 1
	 */
	const int M = 1;
	const int K = 25;
	const int N = 25;
	float (*A)[25]  = (float(*)[25])quantized_tensor_onnx__Gemm_9;
	float (*Y)[25]  = (float(*)[25])quantized_tensor_input_3;
	float alpha = 1.0000000000000000000;
	float beta = 1.0000000000000000000;
	float (*C)[25]  = (float(*)[25])quantized_tensor_Gemm_1_bias;
	for( uint32_t r=0; r<M; r++ )
		for( uint32_t c=0; c<N; c++ ) {
			float ABrc = 0;
			for( uint32_t i=0; i<K; i++ ) {
				float B = quantized_tensor_Gemm_1_weight[c][i];
				ABrc += A[r][i] * B;
			}
			float tmp = ABrc * alpha;
			tmp += C[0][c] * beta;
			Y[r][c] = tmp;
	}
}

static inline void quantized_node_Relu_4( const float quantized_tensor_input_3[1][25], float quantized_tensor_onnx__Gemm_11[1][25] )
{
	/*Relu*/
	float *X = (float*)quantized_tensor_input_3;
	float *Y = (float*)quantized_tensor_onnx__Gemm_11;
	for( uint32_t i=0; i<25; i++ )
		Y[i] = X[i] > 0 ? X[i] : 0;

}

static inline void quantized_node_Gemm_5( const float quantized_tensor_onnx__Gemm_11[1][25], const float quantized_tensor_Gemm_2_weight[10][25], const float quantized_tensor_Gemm_2_bias[10], float quantized_tensor_12[1][10] )
{
	/* Gemm */
	/* alpha   = 1.0000000000000000000
	   beta    = 1.0000000000000000000
	   transA  = 0
	   transB  = 1
	 */
	const int M = 1;
	const int K = 25;
	const int N = 10;
	float (*A)[25]  = (float(*)[25])quantized_tensor_onnx__Gemm_11;
	float (*Y)[10]  = (float(*)[10])quantized_tensor_12;
	float alpha = 1.0000000000000000000;
	float beta = 1.0000000000000000000;
	float (*C)[10]  = (float(*)[10])quantized_tensor_Gemm_2_bias;
	for( uint32_t r=0; r<M; r++ )
		for( uint32_t c=0; c<N; c++ ) {
			float ABrc = 0;
			for( uint32_t i=0; i<K; i++ ) {
				float B = quantized_tensor_Gemm_2_weight[c][i];
				ABrc += A[r][i] * B;
			}
			float tmp = ABrc * alpha;
			tmp += C[0][c] * beta;
			Y[r][c] = tmp;
	}
}


void quantized(const float quantized_tensor_onnx__Flatten_0[1][64], float quantized_tensor_12[1][10]) {
	quantized_node_Flatten_0( quantized_tensor_onnx__Flatten_0, quantized_tensor_onnx__Gemm_7);
	quantized_node_Gemm_1( quantized_tensor_onnx__Gemm_7, quantized_tensor_Gemm_0_weight, quantized_tensor_Gemm_0_bias, quantized_tensor_input);
	quantized_node_Relu_2( quantized_tensor_input, quantized_tensor_onnx__Gemm_9);
	quantized_node_Gemm_3( quantized_tensor_onnx__Gemm_9, quantized_tensor_Gemm_1_weight, quantized_tensor_Gemm_1_bias, quantized_tensor_input_3);
	quantized_node_Relu_4( quantized_tensor_input_3, quantized_tensor_onnx__Gemm_11);
	quantized_node_Gemm_5( quantized_tensor_onnx__Gemm_11, quantized_tensor_Gemm_2_weight, quantized_tensor_Gemm_2_bias, quantized_tensor_12);
}

#endif // QUANTIZED_H

