
#ifndef ORIGINAL_H
#define ORIGINAL_H
// This file is computer-generated by onnx2c 
// (TODO: add creating command line here)
// (TODO: print creation date here )

// ONNX model:
// produced by pytorch, version 1.11.0
// ONNX IR version: 9
// Model documentation: 
/*

*/

#include <float.h>
#include <math.h>
#include <stdbool.h>
#include <stdint.h>
#include <string.h>
#define MAX(X,Y) ( X > Y ? X : Y)
#define MIN(X,Y) ( X < Y ? X : Y)
#define CLIP(X,L) ( MAX(MIN(X,L), -L) )

static const float tensor_Gemm_0_weight[50][64] = 
{
  {0.061327543109655380249f, 0.058167602866888046265f, -0.066720344126224517822f, 0.083195850253105163574f, 0.080902203917503356934f, 0.0029561137780547142029f, -0.090759746730327606201f, -0.12334116548299789429f, 0.079469799995422363281f, -0.029004532843828201294f, -0.11414669454097747803f, 0.087593905627727508545f, 0.0011300846235826611519f, 0.0064050089567899703979f, 0.038594488054513931274f, -0.083428151905536651611f, -0.10277683287858963013f, -0.024562552571296691895f, 0.034517347812652587891f, 0.080393686890602111816f, -0.0026651246007531881332f, -0.068937137722969055176f, -0.011756993830204010010f, 0.11403582245111465454f, -0.044096801429986953735f, -0.021110270172357559204f, -0.10195621848106384277f, -0.057609558105468750000f, -0.011069322004914283752f, 0.075703665614128112793f, -0.0045228726230561733246f, -0.013694073073565959930f, -0.088982231914997100830f, -0.11753891408443450928f, -0.086042597889900207520f, -0.075671292841434478760f, -0.028973788022994995117f, 0.026424143463373184204f, 0.096873767673969268799f, -0.038992561399936676025f, 0.019189761951565742493f, 0.10680601745843887329f, -0.013121066614985466003f, 0.10570736229419708252f, -0.018073897808790206909f, 0.096951872110366821289f, -0.076746299862861633301f, 0.10725906491279602051f, 0.019727623090147972107f, -0.10769221186637878418f, 0.10060914605855941772f, -0.084734775125980377197f, 0.10535033792257308960f, -0.088296160101890563965f, -0.059691000729799270630f, -0.10656318813562393188f, -0.016538530588150024414f, 0.082192294299602508545f, -0.10432998090982437134f, -0.081335522234439849854f, -0.054479051381349563599f, -0.072334632277488708496f, 0.022474553436040878296f, -0.078384973108768463135f},
  {-0.010545896366238594055f, -0.068726055324077606201f, -0.045569092035293579102f, -0.0059215449728071689606f, 0.030800987035036087036f, -0.081484951078891754150f, -0.0050899209454655647278f, 0.027416342869400978088f, -0.0079437997192144393921f, 0.047631919384002685547f, 0.16512876749038696289f, 0.10020805150270462036f, 0.15549406409263610840f, -0.14287073910236358643f, -0.15827476978302001953f, 0.0040872199460864067078f, -0.020340928807854652405f, -0.0018220640486106276512f, -0.24206829071044921875f, -0.055713556706905364990f, -0.085034295916557312012f, -0.087863072752952575684f, -0.070038519799709320068f, -0.14393143355846405029f, -0.035662252455949783325f, 0.063620999455451965332f, -0.22136747837066650391f, -0.033017139881849288940f, 0.012656765058636665344f, -0.033655066043138504028f, 0.018607288599014282227f, -0.12244535982608795166f, -0.0062381303869187831879f, 0.083713099360466003418f, 0.16819733381271362305f, 0.017146412283182144165f, 0.023215506225824356079f, 0.22430585324764251709f, 0.12290479987859725952f, 0.11829229444265365601f, 0.091102808713912963867f, 0.036155473440885543823f, -0.051450848579406738281f, 0.19408690929412841797f, 0.10943929105997085571f, 0.19940733909606933594f, 0.10638254880905151367f, -0.071170091629028320312f, -0.047951348125934600830f, -0.037431426346302032471f, -0.17543828487396240234f, -0.095565870404243469238f, 0.055853102356195449829f, -0.056452743709087371826f, 0.032827302813529968262f, -0.091654390096664428711f, -0.084810428321361541748f, 0.046014755964279174805f, 0.035894583910703659058f, -0.0047382898628711700439f, -0.028435124084353446960f, 0.080652371048927307129f, -0.11189574003219604492f, 0.088612474501132965088f},
  {0.12053161114454269409f, 0.025769185274839401245f, -0.082007817924022674561f, -0.088633827865123748779f, 0.043112300336360931396f, 0.033361826092004776001f, 0.065202333033084869385f, 0.12338291853666305542f, 0.12391494959592819214f, -0.085021853446960449219f, -0.024748731404542922974f, -0.10753747820854187012f, 0.066375203430652618408f, 0.10486999154090881348f, 0.095102742314338684082f, 0.051836185157299041748f, -0.0079290121793746948242f, -0.031700592488050460815f, 0.052439037710428237915f, 0.17307899892330169678f, -0.15828239917755126953f, 0.020372344180941581726f, 0.20983895659446716309f, -0.078898131847381591797f, 0.038862593472003936768f, 0.080874845385551452637f, 0.037557166069746017456f, 0.43236750364303588867f, -0.063642069697380065918f, -0.060863882303237915039f, 0.013860356993973255157f, 0.095425479114055633545f, 0.078234128654003143311f, -0.089953437447547912598f, -0.040288787335157394409f, 0.052591282874345779419f, -0.20841512084007263184f, 0.14785107970237731934f, 0.17876657843589782715f, 0.075152926146984100342f, 0.067095398902893066406f, -0.10436318814754486084f, -0.039839036762714385986f, -0.12833620607852935791f, -0.040140084922313690186f, 0.22372028231620788574f, -0.070499882102012634277f, 0.018607294186949729919f, -0.0045467279851436614990f, 0.11601357907056808472f, 0.10699351876974105835f, 0.081448554992675781250f, 0.19220349192619323730f, 0.12969022989273071289f, -0.058434609323740005493f, -0.028108449652791023254f, 0.082017131149768829346f, -0.014292445965111255646f, 0.072690665721893310547f, 0.13243694603443145752f, 0.066136389970779418945f, -0.044538982212543487549f, -0.074130907654762268066f, -0.085165008902549743652f},
  {0.0098372604697942733765f, 0.033077109605073928833f, 0.088650509715080261230f, 0.12725988030433654785f, 0.18638059496879577637f, 0.038250282406806945801f, -0.064281567931175231934f, -0.076133430004119873047f, -0.11743326485157012939f, 0.059982858598232269287f, -0.060782510787248611450f, 0.057348839938640594482f, 0.42548662424087524414f, 0.24732799828052520752f, 0.15151153504848480225f, 0.0094217667356133460999f, -0.049075972288846969604f, -0.15196141600608825684f, -0.21215407550334930420f, 0.10190807282924652100f, -0.15284551680088043213f, -0.30015832185745239258f, 0.13280525803565979004f, -0.00095223350217565894127f, -0.11545010656118392944f, -0.087608233094215393066f, 0.35629212856292724609f, 0.28049886226654052734f, -0.48659345507621765137f, -0.30918994545936584473f, 0.31981614232063293457f, -0.068881101906299591064f, 0.047428064048290252686f, 0.17178133130073547363f, 0.50395989418029785156f, 0.32128047943115234375f, -0.15638945996761322021f, -0.26339367032051086426f, 0.34127351641654968262f, 0.13019351661205291748f, 0.0040339455008506774902f, 0.056606609374284744263f, 0.77084457874298095703f, 0.63775318861007690430f, 0.22090590000152587891f, 0.11502066254615783691f, 0.23114992678165435791f, 0.034319035708904266357f, -0.052836868911981582642f, -0.15214017033576965332f, 0.053932871669530868530f, 0.060115069150924682617f, 0.13482643663883209229f, -0.046397693455219268799f, -0.011663412675261497498f, -0.025337129831314086914f, -0.046754345297813415527f, -0.0077209752053022384644f, -0.12226663529872894287f, -0.10266892611980438232f, -0.077000573277473449707f, -0.087277233600616455078f, -0.088789284229278564453f, -0.11615236103534698486f},
  {-0.11528612673282623291f, -0.099117547273635864258f, -0.0094117755070328712463f, -0.10574754327535629272f, 0.037160217761993408203f, -0.015285039320588111877f, -0.090516567230224609375f, 0.10846986621618270874f, -0.12275550514459609985f, 4.0784056182019412518e-05f, 0.073078468441963195801f, 0.029756369069218635559f, 0.0034959279000759124756f, -0.047279264777898788452f, -0.092167600989341735840f, -0.052182726562023162842f, -0.10382223874330520630f, 0.11028498411178588867f, -0.085501596331596374512f, -0.066292084753513336182f, 0.11754181236028671265f, -0.0022778022103011608124f, -0.031986035406589508057f, -0.083509072661399841309f, -0.0023875567130744457245f, 0.092145837843418121338f, 0.079521290957927703857f, -0.10582926124334335327f, -0.10835038870573043823f, 0.00017374093295074999332f, -0.033476337790489196777f, -0.046047315001487731934f, 0.017355605959892272949f, -0.052118957042694091797f, 0.059066645801067352295f, -0.10644039511680603027f, -0.029794624075293540955f, -0.11535199731588363647f, 0.012488120235502719879f, -0.038709715008735656738f, 0.074554599821567535400f, 0.049068082123994827271f, -0.0033178555313497781754f, -0.078934207558631896973f, 0.00016466899251099675894f, 0.075106985867023468018f, 0.10144623368978500366f, -0.090040817856788635254f, 0.030109554529190063477f, -0.098145246505737304688f, 0.0022357611451297998428f, -0.11149287968873977661f, -0.060879021883010864258f, -0.086786523461341857910f, 0.065667383372783660889f, 0.047743488103151321411f, -0.073679983615875244141f, -0.059807766228914260864f, 0.081326484680175781250f, 0.12484589964151382446f, -0.040732227265834808350f, -0.092834763228893280029f, 0.055725917220115661621f, -0.11672163754701614380f},
  {0.033753518015146255493f, -0.11930715292692184448f, -0.012366717681288719177f, -0.027403844520449638367f, -0.074600227177143096924f, -0.024036534130573272705f, -0.071620069444179534912f, -0.11424840986728668213f, 0.033916100859642028809f, -0.035602584481239318848f, 0.16869617998600006104f, 0.11730429530143737793f, 0.093577243387699127197f, 0.14351959526538848877f, 0.12912324070930480957f, 0.067307077348232269287f, -0.097151547670364379883f, 0.093445569276809692383f, -0.053087994456291198730f, 0.089656509459018707275f, 0.66689324378967285156f, 0.35314303636550903320f, 0.17298269271850585938f, 0.17512738704681396484f, -0.10402239114046096802f, -0.022933490574359893799f, -0.029540672898292541504f, 0.35249727964401245117f, 0.45792889595031738281f, -0.25094801187515258789f, 0.10479175299406051636f, -0.031047446653246879578f, -0.027298150584101676941f, -0.028026599436998367310f, -0.39066997170448303223f, -0.37471741437911987305f, -0.53953701257705688477f, 0.014006374403834342957f, 0.17393076419830322266f, -0.12095107138156890869f, 0.078905642032623291016f, 0.096930235624313354492f, -0.14014913141727447510f, -0.64100551605224609375f, -0.24730217456817626953f, 0.41360992193222045898f, -0.014841472730040550232f, -0.12342286109924316406f, 0.12771987915039062500f, 0.23358452320098876953f, 0.59003740549087524414f, 0.55497282743453979492f, 0.46615716814994812012f, 0.12670353055000305176f, -0.061237115412950515747f, 0.069433666765689849854f, 0.087693206965923309326f, 0.050212364643812179565f, -0.033700216561555862427f, 0.052902184426784515381f, 0.096976734697818756104f, 0.043037239462137222290f, 0.0017918866360560059547f, -0.078669749200344085693f},
  {-0.085820876061916351318f, -0.10044904798269271851f, -0.085646383464336395264f, 0.0012511888053268194199f, -0.083865717053413391113f, -0.054564647376537322998f, 0.012341068126261234283f, -0.0049145990051329135895f, -0.039794173091650009155f, 0.036539401859045028687f, 0.0012844417942687869072f, -0.038375861942768096924f, 0.0025983673986047506332f, -0.083959288895130157471f, 0.030163386836647987366f, 0.033181652426719665527f, -0.058657508343458175659f, -0.057139512151479721069f, -0.044656023383140563965f, -0.033804353326559066772f, -0.0070894369855523109436f, 0.10547614097595214844f, 0.12366586178541183472f, -0.021949239075183868408f, 0.0067843548022210597992f, 0.0041481028310954570770f, 0.097295507788658142090f, -0.11528278887271881104f, 0.14413446187973022461f, -0.19436763226985931396f, -0.072672940790653228760f, -0.026650309562683105469f, -0.098234891891479492188f, 0.010883962735533714294f, -0.19115175306797027588f, 0.11887347698211669922f, 0.17675994336605072021f, -0.26754814386367797852f, -0.092488080263137817383f, 0.044135104864835739136f, -0.020004926249384880066f, -0.030113441869616508484f, 0.11788593977689743042f, 0.19981759786605834961f, 0.054863300174474716187f, -0.18543359637260437012f, -0.090249300003051757812f, 0.10969129949808120728f, -0.082397386431694030762f, 0.030465314164757728577f, 0.0028995198663324117661f, -0.0037466932553797960281f, -0.0050489814020693302155f, 0.057905521243810653687f, -0.012822555378079414368f, 0.036375213414430618286f, -0.0064760502427816390991f, -0.11854445189237594604f, -0.022603506222367286682f, 0.055544510483741760254f, -0.073211140930652618408f, 0.077330946922302246094f, 0.095377609133720397949f, -0.055165160447359085083f},
  {-0.021755153313279151917f, 0.041526913642883300781f, 0.094876326620578765869f, 0.12596994638442993164f, -0.040144164115190505981f, -0.077672429382801055908f, -0.028217043727636337280f, 0.10417014360427856445f, 0.012349689379334449768f, 0.10409459471702575684f, 0.0043004038743674755096f, 0.030917435884475708008f, -0.046931650489568710327f, 0.062826097011566162109f, -0.045306120067834854126f, -0.024778462946414947510f, 0.085774458944797515869f, -0.023245567455887794495f, 0.23944570124149322510f, 0.021774135529994964600f, -0.28852659463882446289f, -0.14784857630729675293f, 0.044326867908239364624f, 0.096273615956306457520f, -0.12217006087303161621f, -0.093698531389236450195f, 0.28796985745429992676f, 0.24224138259887695312f, -0.083597660064697265625f, 0.064837880432605743408f, 0.081300579011440277100f, -0.087756410241127014160f, -0.029081171378493309021f, -0.15253095328807830811f, 0.14660802483558654785f, 0.12785266339778900146f, 0.12029574811458587646f, 0.14595422148704528809f, 0.096488133072853088379f, -0.060039091855287551880f, 0.072107672691345214844f, -0.17451260983943939209f, -0.049341354519128799438f, 0.32990962266921997070f, 0.24774536490440368652f, -0.030246892943978309631f, -0.057305604219436645508f, 0.096662342548370361328f, -0.042004663497209548950f, -0.13065001368522644043f, -0.036985199898481369019f, -0.034578621387481689453f, 0.11338717490434646606f, 0.11943254619836807251f, -0.033631321042776107788f, 0.038264606148004531860f, -0.045758873224258422852f, -0.12656547129154205322f, -0.014203898608684539795f, 0.10198024660348892212f, -0.012463146820664405823f, 0.055431276559829711914f, -0.0019626787398010492325f, -0.023195412009954452515f},
  {-0.030540028586983680725f, 0.018058378249406814575f, -0.023015137761831283569f, -0.019081261008977890015f, 0.13551735877990722656f, 0.17383986711502075195f, -0.047686655074357986450f, 0.066031746566295623779f, 0.026441462337970733643f, -0.15134069323539733887f, -0.20144313573837280273f, -0.18623687326908111572f, -0.16315078735351562500f, -0.025404477491974830627f, 0.14127074182033538818f, 0.022314498201012611389f, 0.017594372853636741638f, -0.030841331928968429565f, 0.12245958298444747925f, 0.19962035119533538818f, -0.40554794669151306152f, -0.22299081087112426758f, 0.049167171120643615723f, 0.027690859511494636536f, -0.0037029685918241739273f, -0.070288643240928649902f, 0.41790902614593505859f, 0.47679844498634338379f, -0.22479866445064544678f, 0.12661677598953247070f, 0.012084588408470153809f, 0.036164198070764541626f, -0.034725125879049301147f, -0.038446761667728424072f, 0.21927736699581146240f, 0.37756884098052978516f, 0.044085063040256500244f, 0.23048584163188934326f, 0.047618780285120010376f, -0.12689366936683654785f, 0.058749459683895111084f, -0.12618619203567504883f, 0.037053100764751434326f, 0.13049638271331787109f, 0.14459028840065002441f, -0.073675967752933502197f, -0.027515735477209091187f, 0.057073485106229782104f, -0.018750080838799476624f, -0.16869424283504486084f, -0.18810382485389709473f, -0.035429589450359344482f, 0.17407415807247161865f, 0.032501563429832458496f, 0.0062995073385536670685f, -0.051397558301687240601f, -0.018428912386298179626f, -0.098322957754135131836f, -0.071150690317153930664f, -0.046308632940053939819f, -0.099007613956928253174f, -0.00088640779722481966019f, 0.092472195625305175781f, 0.057530101388692855835f},
  {-0.11028802394866943359f, 0.12218688428401947021f, -0.11300566047430038452f, -0.027520194649696350098f, 0.13824646174907684326f, 0.097156338393688201904f, 0.034174922853708267212f, -0.062100294977426528931f, -0.11215572804212570190f, -0.13509519398212432861f, 0.041175797581672668457f, 0.10081814974546432495f, 0.36626353859901428223f, 0.38750469684600830078f, 0.21548105776309967041f, 0.098522193729877471924f, -0.083068996667861938477f, -0.071763433516025543213f, -0.00085015752119943499565f, 0.14136965572834014893f, -0.27261957526206970215f, 0.21854858100414276123f, 0.26986166834831237793f, 0.11725714057683944702f, -0.032158710062503814697f, -0.10932601988315582275f, 0.21978563070297241211f, 0.24725914001464843750f, -0.52689045667648315430f, -0.090644940733909606934f, 0.17810186743736267090f, 0.044357083737850189209f, -0.11660923063755035400f, 0.10608737915754318237f, 0.42559003829956054688f, 0.22321964800357818604f, -0.20138514041900634766f, 0.040563315153121948242f, 0.25019451975822448730f, 0.014338804408907890320f, 0.10608647018671035767f, 0.12129792571067810059f, 0.78980672359466552734f, 0.34322488307952880859f, 0.13292051851749420166f, 0.29628467559814453125f, 0.31241247057914733887f, 0.15194986760616302490f, -0.12018635869026184082f, 0.013978979550302028656f, 0.37322127819061279297f, 0.21477782726287841797f, 0.29839420318603515625f, 0.24426487088203430176f, 0.0013415788998827338219f, 0.014088110066950321198f, 0.094935446977615356445f, -0.061922222375869750977f, -0.19865497946739196777f, -0.042050931602716445923f, -0.037290886044502258301f, -0.0092341396957635879517f, -0.12047991901636123657f, 0.068232104182243347168f},
  {0.037566717714071273804f, 0.090762697160243988037f, 0.096879407763481140137f, -0.10109102725982666016f, 0.0096217663958668708801f, -0.035145539790391921997f, -0.014252866618335247040f, -0.12171520292758941650f, -0.081637367606163024902f, 0.023838104680180549622f, 0.10323300957679748535f, 0.071251027286052703857f, 0.024535777047276496887f, 0.031375687569379806519f, -0.014136778190732002258f, -0.031421720981597900391f, 0.064712263643741607666f, 0.086490996181964874268f, 0.027687363326549530029f, 0.11722418665885925293f, 0.086080126464366912842f, 0.091070659458637237549f, -0.077589146792888641357f, -0.095611043274402618408f, 0.11591272801160812378f, 0.057225283235311508179f, -0.16975544393062591553f, -0.065161034464836120605f, -0.13039302825927734375f, 0.087835758924484252930f, 0.096655756235122680664f, 0.055658798664808273315f, 0.0045470562763512134552f, -0.061218105256557464600f, 0.0051835100166499614716f, 0.10963409394025802612f, 0.034852080047130584717f, 0.025009157136082649231f, 0.036796525120735168457f, 0.042817369103431701660f, 0.0067104254849255084991f, 0.094864331185817718506f, -0.063037648797035217285f, -0.0020836221519857645035f, 0.0010999543592333793640f, -0.049741007387638092041f, 0.0045675029978156089783f, 0.019136764109134674072f, -0.11477266997098922729f, -0.099715128540992736816f, 0.056085087358951568604f, -0.13576309382915496826f, -0.11368869990110397339f, -0.030275290831923484802f, 0.014604181051254272461f, 0.096490442752838134766f, -0.12233532965183258057f, -0.044164609163999557495f, 0.047957513481378555298f, -0.0034407458733767271042f, -0.079884625971317291260f, -0.041716232895851135254f, -0.032818797975778579712f, -0.023763323202729225159f},
  {-0.041967663913965225220f, -0.050154652446508407593f, -0.015957025811076164246f, 0.016830647364258766174f, -0.047764655202627182007f, -0.090872198343276977539f, -0.036497034132480621338f, 0.076706908643245697021f, -0.023571886122226715088f, 0.12107852101325988770f, 0.077090151607990264893f, -0.052847288548946380615f, -0.088297374546527862549f, -0.039796162396669387817f, 0.12164875864982604980f, -0.051602952182292938232f, 0.013683039695024490356f, -0.012491718865931034088f, 0.047449406236410140991f, -0.010433032177388668060f, -0.089530885219573974609f, 0.19009883701801300049f, 0.033726558089256286621f, -0.044466175138950347900f, -0.0042243627831339836121f, 0.14654059708118438721f, 0.63468360900878906250f, 0.40073555707931518555f, -0.097038820385932922363f, 0.24351951479911804199f, 0.11524700373411178589f, 0.0076175420545041561127f, -0.090515755116939544678f, 0.22438004612922668457f, 0.65346741676330566406f, 0.21561743319034576416f, 0.25483730435371398926f, 0.39646381139755249023f, 0.082837522029876708984f, -0.042281664907932281494f, 0.11398629099130630493f, -0.061311893165111541748f, -0.30649185180664062500f, -0.54061359167098999023f, -0.064473696053028106689f, 0.029265584424138069153f, -0.22150212526321411133f, -0.033503379672765731812f, -0.0090790363028645515442f, -0.091839849948883056641f, -0.036760687828063964844f, -0.076007179915904998779f, 0.046084504574537277222f, 0.057859335094690322876f, -0.12941120564937591553f, -0.12506717443466186523f, -0.047332439571619033813f, -0.052336301654577255249f, 0.079736635088920593262f, -0.062841743230819702148f, -0.064584992825984954834f, 0.11181358247995376587f, 0.015483641065657138824f, -0.024009654298424720764f},
  {0.062722623348236083984f, 0.021194173023104667664f, -0.021474232897162437439f, 0.050239048898220062256f, -0.091936372220516204834f, 0.041078668087720870972f, -0.10872062295675277710f, 0.023162707686424255371f, 0.10637818276882171631f, 0.051168516278266906738f, -0.12151896953582763672f, -0.15140490233898162842f, -0.13328824937343597412f, -0.16607743501663208008f, -0.053279697895050048828f, 0.0059805796481668949127f, -0.048713330179452896118f, 0.17379230260848999023f, 0.21028697490692138672f, 0.58333516120910644531f, 0.68094831705093383789f, 0.47624817490577697754f, 0.069480583071708679199f, 0.011594290845096111298f, -0.066089168190956115723f, 0.12349027395248413086f, 0.24036651849746704102f, 0.096113614737987518311f, 0.27261084318161010742f, 0.34336504340171813965f, 0.090246051549911499023f, -0.012174400500953197479f, -0.042480569332838058472f, -0.038185689598321914673f, -0.14193971455097198486f, -0.44954618811607360840f, 0.023522341623902320862f, 0.14789775013923645020f, -0.020035574212670326233f, 0.068103112280368804932f, -0.041463572531938552856f, -0.14466492831707000732f, -0.38456022739410400391f, -0.38844126462936401367f, 0.0059003313072025775909f, -0.22820751368999481201f, -0.19343733787536621094f, -0.021514233201742172241f, -0.0039670784026384353638f, -0.056590408086776733398f, -0.031461201608180999756f, 0.12604831159114837646f, 0.071266628801822662354f, -0.052667934447526931763f, -0.12288095802068710327f, -0.088305279612541198730f, 0.076218783855438232422f, -0.034084025770425796509f, 0.21362534165382385254f, 0.24579231441020965576f, 0.22802494466304779053f, -0.0031525022350251674652f, -0.097995638847351074219f, 0.12444503605365753174f},
  {0.0093252258375287055969f, -0.025573700666427612305f, -0.10787026584148406982f, 0.028190201148390769958f, 0.11614733934402465820f, 0.13560983538627624512f, -0.058594323694705963135f, -0.037468042224645614624f, 0.053714159876108169556f, -0.047359250485897064209f, 0.070089995861053466797f, 0.13286003470420837402f, 0.089959852397441864014f, 0.11013672500848770142f, -0.084337212145328521729f, -0.027562836185097694397f, 0.054981458932161331177f, -0.12094786018133163452f, -0.12482408434152603149f, 0.014350232668220996857f, -0.044021997600793838501f, -0.21273308992385864258f, -0.20566445589065551758f, 0.061613906174898147583f, 0.10111817717552185059f, 0.044354803860187530518f, 0.044020202010869979858f, -0.17123569548130035400f, -0.012816715985536575317f, -0.037243977189064025879f, -0.038274846971035003662f, -0.058151431381702423096f, 0.086227074265480041504f, -0.058075319975614547729f, 0.019112430512905120850f, 0.15515811741352081299f, 0.021941429004073143005f, 0.18516248464584350586f, 0.0081861335784196853638f, 0.0098769366741180419922f, 0.10662417113780975342f, 0.14864479005336761475f, 0.049680858850479125977f, 0.30155512690544128418f, 0.12787239253520965576f, 0.10493783652782440186f, 0.14319616556167602539f, -0.0016295509412884712219f, 0.016949197277426719666f, 0.087743721902370452881f, -0.012741058133542537689f, -0.054925832897424697876f, -0.056714691221714019775f, -0.053430210798978805542f, -0.098986051976680755615f, -0.013824644498527050018f, -0.093398831784725189209f, 0.094969853758811950684f, -0.090684913098812103271f, -0.052781645208597183228f, 0.046405304223299026489f, -0.045258019119501113892f, 0.084101848304271697998f, 0.013132040388882160187f},
  {0.068826645612716674805f, -0.094027638435363769531f, 0.11414246261119842529f, 0.036556567996740341187f, 0.11479867994785308838f, -0.043518528342247009277f, -0.038687925785779953003f, -0.0074533042497932910919f, -0.096218101680278778076f, 0.040237098932266235352f, 0.065953433513641357422f, 0.10603461414575576782f, 0.10655004531145095825f, -0.036710422486066818237f, 0.0016113350866362452507f, -0.077942863106727600098f, -0.10371378809213638306f, 0.040555823594331741333f, -0.047467440366744995117f, -0.059119921177625656128f, -0.089684329926967620850f, 0.032221943140029907227f, -0.10950956493616104126f, 0.073973506689071655273f, -0.094158262014389038086f, -0.099064216017723083496f, 0.068248540163040161133f, -0.12085346132516860962f, -0.12291883677244186401f, -0.10905084013938903809f, -0.0072208703495562076569f, -0.015374573878943920135f, 0.033296179026365280151f, 0.11799529939889907837f, -0.0086885513737797737122f, -0.069423533976078033447f, -0.085294499993324279785f, 0.11467955261468887329f, 0.099620595574378967285f, 0.081411153078079223633f, -0.094652451574802398682f, 0.013779797591269016266f, 0.058994278311729431152f, -0.0048344465903937816620f, -0.099467724561691284180f, -0.093685008585453033447f, 0.11825030297040939331f, -0.057236611843109130859f, -0.070430763065814971924f, -0.042873781174421310425f, -0.087647214531898498535f, 0.052273359149694442749f, -0.027278319001197814941f, -0.070126079022884368896f, -0.066647306084632873535f, -0.096846252679824829102f, 0.0046828091144561767578f, 0.060223955661058425903f, -0.010647354647517204285f, -0.077627904713153839111f, -0.024553181603550910950f, 0.028833450749516487122f, -0.065467439591884613037f, -0.042997114360332489014f},
  {0.065392166376113891602f, 0.10877963155508041382f, -0.056073114275932312012f, 0.013896279036998748779f, 0.10731574147939682007f, 0.15222793817520141602f, -0.037788193672895431519f, 0.065030917525291442871f, 0.11033172905445098877f, -0.020927809178829193115f, -0.10683681070804595947f, -0.055633641779422760010f, 0.20696029067039489746f, 0.20812273025512695312f, 0.11269598454236984253f, -0.061876665800809860229f, -0.046121891587972640991f, 0.011681984178721904755f, -0.10320331901311874390f, 0.0094586601480841636658f, -0.0029871209990233182907f, -0.46893835067749023438f, 0.12653909623622894287f, 0.10911922901868820190f, -0.083345532417297363281f, 0.0049546128138899803162f, 0.0017317167948931455612f, 0.56656640768051147461f, -0.0010076955659314990044f, -0.57570135593414306641f, 0.0032217744737863540649f, 0.030110524967312812805f, 0.038265183568000793457f, -0.15114547312259674072f, -0.12475321441888809204f, 0.19989062845706939697f, -0.054832804948091506958f, -0.27822032570838928223f, -0.088796004652976989746f, 0.011979190632700920105f, -0.11832372844219207764f, -0.10319282114505767822f, 0.14726689457893371582f, 0.31073850393295288086f, 0.0057127866894006729126f, 0.18661732971668243408f, -0.064581088721752166748f, 0.069584764540195465088f, 0.015220675617456436157f, -0.12050312012434005737f, 0.16020160913467407227f, 0.093537710607051849365f, 0.16392543911933898926f, 0.059857238084077835083f, -0.096145644783973693848f, 0.090297304093837738037f, 0.090754710137844085693f, -0.12169320136308670044f, 0.013405215926468372345f, -0.021637834608554840088f, 0.053090132772922515869f, 0.055942013859748840332f, 0.067801535129547119141f, -0.071316748857498168945f},
  {0.089893423020839691162f, 0.0090597160160541534424f, -0.050272081047296524048f, 0.039814978837966918945f, 0.10117812454700469971f, -0.045632194727659225464f, -0.055183339864015579224f, -0.061561539769172668457f, -0.064227245748043060303f, 0.089484542608261108398f, 0.067776523530483245850f, 0.21497483551502227783f, 0.35055366158485412598f, -0.017440494149923324585f, -0.014530464075505733490f, 0.083045415580272674561f, 0.059716694056987762451f, 0.017844108864665031433f, 0.069669805467128753662f, -0.029495351016521453857f, 0.16808773577213287354f, -0.075304381549358367920f, -0.085814662277698516846f, -0.027004862204194068909f, -0.0035663142334669828415f, -0.075481921434402465820f, -0.24795457720756530762f, -0.13287755846977233887f, -0.12145868688821792603f, -0.10486786067485809326f, -0.032034657895565032959f, 0.028718689456582069397f, 0.074153788387775421143f, 0.080911412835121154785f, -0.073902823030948638916f, -0.20915918052196502686f, -0.19640454649925231934f, 0.11855536699295043945f, 0.072426199913024902344f, -0.054118689149618148804f, -0.0071701663546264171600f, 0.15638074278831481934f, 0.42357730865478515625f, 0.25936958193778991699f, 0.29542869329452514648f, 0.39886027574539184570f, 0.17281156778335571289f, 0.13041824102401733398f, -0.0096764005720615386963f, 0.064952798187732696533f, 0.17421349883079528809f, 0.22704769670963287354f, -0.0095835812389850616455f, 0.14553055167198181152f, 0.15231344103813171387f, -0.050956737250089645386f, -0.10586947947740554810f, -0.046284437179565429688f, 0.047785941511392593384f, -0.015263753011822700500f, -0.0083311451599001884460f, -0.029554095119237899780f, -0.12824949622154235840f, 0.099829360842704772949f},
  {-0.028632270172238349915f, -0.087593503296375274658f, 0.034478593617677688599f, 0.045925583690404891968f, 0.055677220225334167480f, -0.047848146408796310425f, 0.035279959440231323242f, 0.10623583942651748657f, -0.10522603243589401245f, -0.11407659202814102173f, -0.18503472208976745605f, -0.013846923597157001495f, -0.045983433723449707031f, -0.20471055805683135986f, -0.14274963736534118652f, 0.087852314114570617676f, 0.064689934253692626953f, 0.021054942160844802856f, 0.13490758836269378662f, 0.26411867141723632812f, 0.28453895449638366699f, -0.069326467812061309814f, -0.18739987909793853760f, -0.021649098023772239685f, -0.061324339359998703003f, 0.00038831369602121412754f, 0.11665892601013183594f, -0.0063947802409529685974f, 0.19920742511749267578f, 0.25963416695594787598f, 0.092231146991252899170f, -0.079516597092151641846f, 0.10090339928865432739f, -0.010442987084388732910f, -0.086435779929161071777f, 0.0059209242463111877441f, 0.33160251379013061523f, 0.045025922358036041260f, 0.018421731889247894287f, -0.092703290283679962158f, -0.029636338353157043457f, -0.086565665900707244873f, -0.097824931144714355469f, 0.19019190967082977295f, 0.039069090038537979126f, -0.10552909225225448608f, -0.046266723424196243286f, -0.10382767766714096069f, -0.044233988970518112183f, 0.032054994255304336548f, -0.15145467221736907959f, -0.076627917587757110596f, -0.13621227443218231201f, -0.13095253705978393555f, 0.098942756652832031250f, -0.024746498093008995056f, -0.069542489945888519287f, -0.022208677604794502258f, 0.056961815804243087769f, 0.15516145527362823486f, 0.18908429145812988281f, 0.096631139516830444336f, -0.084458783268928527832f, -0.040057908743619918823f},
  {0.10542521625757217407f, 0.11858582496643066406f, 0.10756865888833999634f, 0.011584243737161159515f, 0.014344234950840473175f, -0.012228864245116710663f, 0.0095522757619619369507f, -0.10420324653387069702f, -0.086906269192695617676f, 0.024167051538825035095f, 0.27749750018119812012f, 0.35734847187995910645f, 0.24698910117149353027f, 0.20275156199932098389f, -0.048158288002014160156f, 0.095466673374176025391f, 0.033421546220779418945f, 0.051274064928293228149f, 0.25496742129325866699f, 0.19614067673683166504f, -0.11934985965490341187f, 0.26910048723220825195f, 0.16671529412269592285f, 0.13407911360263824463f, -0.081249006092548370361f, 0.0069530429318547248840f, -0.098649382591247558594f, 0.10124150663614273071f, 0.15457671880722045898f, 0.14355900883674621582f, -0.029515581205487251282f, 0.080326139926910400391f, 0.058106143027544021606f, -0.0056052692234516143799f, -0.19402673840522766113f, 0.25465437769889831543f, 0.096321381628513336182f, -0.070146180689334869385f, 0.069756746292114257812f, -0.0016147405840456485748f, -0.036639917641878128052f, 0.013162792660295963287f, 0.22239615023136138916f, 0.047471754252910614014f, 0.011723014526069164276f, 0.29507115483283996582f, 0.14973664283752441406f, 0.10764356702566146851f, 0.12678073346614837646f, 0.090612657368183135986f, 0.22130113840103149414f, 0.29729732871055603027f, 0.13470514118671417236f, 0.27799192070960998535f, 0.035201955586671829224f, -0.039548356086015701294f, 0.042959928512573242188f, 0.031526755541563034058f, -0.098468735814094543457f, 0.078506194055080413818f, -0.039899896830320358276f, 0.063215002417564392090f, 0.11325994879007339478f, -0.030129158869385719299f},
  {0.086805708706378936768f, 0.12530334293842315674f, -0.099597156047821044922f, 0.11833784729242324829f, 0.073210231959819793701f, -0.084313929080963134766f, -0.091327324509620666504f, -0.096163958311080932617f, -0.013388057239353656769f, -0.091085858643054962158f, -0.084808237850666046143f, 0.081021443009376525879f, 0.20773656666278839111f, 0.21624563634395599365f, -0.069725103676319122314f, -0.0041776550933718681335f, -0.12041193246841430664f, 0.099550306797027587891f, -0.17015933990478515625f, -0.13540972769260406494f, 0.20009566843509674072f, -0.25185829401016235352f, -0.094222038984298706055f, 0.083263657987117767334f, 0.12063380330801010132f, -0.051531322300434112549f, -0.24356295168399810791f, -0.085933245718479156494f, 0.75663530826568603516f, -0.36882367730140686035f, -0.30786752700805664062f, 0.023588949814438819885f, -0.089678667485713958740f, -0.18159711360931396484f, -0.45255857706069946289f, 0.48959967494010925293f, 0.56355875730514526367f, -0.51402735710144042969f, -0.053597446531057357788f, -0.10870446264743804932f, -0.045789621770381927490f, -0.13953764736652374268f, -0.0098494756966829299927f, 0.52553033828735351562f, 0.11111620813608169556f, -0.16927330195903778076f, -0.026485638692975044250f, -0.099876195192337036133f, -0.077270112931728363037f, -0.023843942210078239441f, 0.044393420219421386719f, 0.065614692866802215576f, 0.054089054465293884277f, 0.16272385418415069580f, 0.017240909859538078308f, 0.026581641286611557007f, 0.11666570603847503662f, 0.068161033093929290771f, -0.16013696789741516113f, -0.041478190571069717407f, -0.11992426961660385132f, 0.11001789569854736328f, 0.12666854262351989746f, 0.098137348890304565430f},
  {-0.058565966784954071045f, 0.090223453938961029053f, -0.0094032520428299903870f, 0.060985531657934188843f, 0.10981807857751846313f, 0.022375078871846199036f, 0.018866769969463348389f, 0.043388396501541137695f, -0.058454852551221847534f, -0.080709144473075866699f, -0.019586948677897453308f, -0.083752050995826721191f, 0.042416531592607498169f, 0.038998253643512725830f, 0.054721985012292861938f, 0.045594628900289535522f, -0.074717015027999877930f, 0.0030074438545852899551f, -0.079472355544567108154f, -0.041205059736967086792f, -0.21022680401802062988f, 0.031383942812681198120f, 0.0015061419690027832985f, 0.0011416088091209530830f, 0.0099817896261811256409f, 0.11353516578674316406f, 0.072526104748249053955f, 0.057317342609167098999f, -0.059111412614583969116f, -0.12464027851819992065f, -0.0029440219514071941376f, 0.12214238196611404419f, -0.012850665487349033356f, -0.11457674950361251831f, 0.11960903555154800415f, 0.10413891822099685669f, 0.14336158335208892822f, -0.059733163565397262573f, -0.091287575662136077881f, -0.098416551947593688965f, -0.0016663622809574007988f, 0.079726688563823699951f, 0.11517818272113800049f, 0.21612347662448883057f, -0.019588707014918327332f, 0.070023663341999053955f, 0.0024541323073208332062f, 0.061483308672904968262f, -0.082136169075965881348f, -0.10368534177541732788f, -0.023006748408079147339f, 0.057896949350833892822f, 0.041157990694046020508f, 0.10966186225414276123f, -0.078865975141525268555f, -0.044063083827495574951f, 0.046101838350296020508f, -0.017453588545322418213f, -0.097878962755203247070f, -0.12610124051570892334f, 0.083665810525417327881f, -0.067878521978855133057f, -0.045523893088102340698f, -0.057828884571790695190f},
  {-0.084201335906982421875f, 0.084346637129783630371f, 0.022876461967825889587f, -0.0090810377150774002075f, -0.0062415678985416889191f, 0.073267459869384765625f, -0.028373755514621734619f, 0.025101015344262123108f, -0.099443696439266204834f, -0.051825825124979019165f, -0.0083228508010506629944f, -0.030576776713132858276f, -0.055613812059164047241f, -0.070484451949596405029f, 0.15582442283630371094f, 0.059468965977430343628f, -0.12061917781829833984f, -0.11214838922023773193f, -0.053276747465133666992f, -0.082677751779556274414f, 0.014091125689446926117f, -0.023572113364934921265f, 0.040046948939561843872f, -0.085610620677471160889f, 0.015089634805917739868f, 0.023415559902787208557f, 0.11594840884208679199f, 0.29696512222290039062f, -0.027464957907795906067f, -0.0078312363475561141968f, -0.12319523841142654419f, 0.0031084723304957151413f, 0.022138409316539764404f, 0.045787435024976730347f, 0.18328109383583068848f, 0.25058186054229736328f, 0.020871724933385848999f, 0.0095699997618794441223f, -0.013021269813179969788f, -0.089313216507434844971f, 0.074908882379531860352f, -0.047603212296962738037f, -0.14738202095031738281f, -0.098794050514698028564f, -0.089477702975273132324f, 0.093534097075462341309f, -0.016224058344960212708f, 0.067592807114124298096f, -0.0070639271289110183716f, 0.058601904660463333130f, -0.087850965559482574463f, 0.095514871180057525635f, -0.048125047236680984497f, 0.14501757919788360596f, 0.030926803126931190491f, 0.10969426482915878296f, 0.11698975414037704468f, 0.072761751711368560791f, -0.073459617793560028076f, -0.098960451781749725342f, -0.088243447244167327881f, 0.10914337635040283203f, -0.050049144774675369263f, 0.021912654861807823181f},
  {0.046583738178014755249f, 0.076693259179592132568f, -0.10203332453966140747f, 0.10171443969011306763f, 0.014410591684281826019f, -0.094709880650043487549f, 0.033382851630449295044f, -0.092319212853908538818f, -0.050991158932447433472f, 0.13534295558929443359f, 0.22136785089969635010f, 0.21409685909748077393f, 0.23841051757335662842f, 0.11138998717069625854f, 0.041770853102207183838f, 0.10691056400537490845f, -0.053846172988414764404f, 0.18823979794979095459f, 0.086146764457225799561f, 0.11877501010894775391f, 0.28667181730270385742f, 0.17873220145702362061f, 0.0063964887522161006927f, -0.077018328011035919189f, 0.017469657585024833679f, -0.0087864035740494728088f, -0.25973767042160034180f, -0.22121535241603851318f, -0.33374908566474914551f, 0.21301446855068206787f, 0.12989684939384460449f, 0.037041038274765014648f, -0.061319682747125625610f, 0.16199159622192382812f, 0.20165382325649261475f, -0.39245218038558959961f, -0.24001164734363555908f, 0.42830714583396911621f, 0.40035831928253173828f, 0.078152298927307128906f, -0.058478645980358123779f, 0.29527860879898071289f, 0.47759464383125305176f, 0.023453800007700920105f, 0.23371365666389465332f, 0.52750283479690551758f, 0.31881338357925415039f, -0.0054843807592988014221f, -0.017979055643081665039f, 0.10673519223928451538f, 0.34154671430587768555f, 0.26583608984947204590f, 0.010040056891739368439f, -0.025896947830915451050f, 0.0060422453097999095917f, 0.12086556106805801392f, -0.094218805432319641113f, -0.056624475866556167603f, 0.010451598092913627625f, 0.068116284906864166260f, 0.020881060510873794556f, -0.15598984062671661377f, 0.10470563173294067383f, -0.065657086670398712158f},
  {-0.0037908107042312622070f, 0.0029340386390686035156f, 0.11517944931983947754f, 0.054998606443405151367f, 0.032567068934440612793f, -0.096344321966171264648f, -0.073790132999420166016f, 0.067093700170516967773f, 0.087626978754997253418f, -0.045247644186019897461f, 0.026993572711944580078f, 0.026912868022918701172f, -0.049640998244285583496f, -0.079855039715766906738f, 0.052984341979026794434f, 0.10049040615558624268f, 0.015203282237052917480f, 0.036376684904098510742f, 0.028240516781806945801f, -0.093646466732025146484f, -0.018721863627433776855f, 0.041293904185295104980f, 0.11009064316749572754f, -0.065402984619140625000f, 0.00072047114372253417969f, -0.091388523578643798828f, -0.051540732383728027344f, -0.073544293642044067383f, -0.090767189860343933105f, -0.013408169150352478027f, -0.043150961399078369141f, 0.092214226722717285156f, -0.098828539252281188965f, -0.043558031320571899414f, 0.0047636479139328002930f, 0.049659177660942077637f, -0.063738554716110229492f, -0.052409976720809936523f, -0.072499290108680725098f, -0.034012779593467712402f, 0.082396000623703002930f, 0.074167490005493164062f, -0.051572337746620178223f, -0.022186428308486938477f, -0.069425746798515319824f, 0.082801938056945800781f, -0.021756321191787719727f, 0.031446278095245361328f, -0.066061988472938537598f, 0.053601905703544616699f, 0.029719501733779907227f, 0.0022692531347274780273f, 0.11633996665477752686f, -0.044601887464523315430f, -0.078595310449600219727f, -0.032422587275505065918f, 0.079913288354873657227f, -0.064795672893524169922f, -0.10810424387454986572f, 0.027268290519714355469f, 0.12380793690681457520f, 0.040099889039993286133f, -0.066302359104156494141f, -0.091790437698364257812f},
  {0.033855337649583816528f, 0.092031687498092651367f, 0.11597494781017303467f, 0.056477099657058715820f, 0.017052542418241500854f, 0.026136422529816627502f, -0.056487973779439926147f, 0.018730480223894119263f, -0.065754599869251251221f, 0.031170297414064407349f, 0.027552010491490364075f, 0.11985280364751815796f, -0.11360304802656173706f, 0.12369542568922042847f, 0.073672831058502197266f, 0.042658794671297073364f, -0.10443541407585144043f, 0.11493467539548873901f, 0.075821004807949066162f, 0.046770844608545303345f, -0.11974146217107772827f, 0.012140690349042415619f, 0.12875688076019287109f, 0.0039384956471621990204f, -0.014384930953383445740f, -0.094241343438625335693f, -0.076833583414554595947f, 0.13657070696353912354f, -0.059285283088684082031f, -0.026040427386760711670f, -0.077851302921772003174f, -0.072184145450592041016f, -0.021531583741307258606f, 0.014803075231611728668f, 0.13857461512088775635f, -0.078940741717815399170f, 0.041967503726482391357f, 0.030325219035148620605f, 0.039203625172376632690f, -0.083839558064937591553f, 0.052115570753812789917f, 0.016438573598861694336f, 0.044604029506444931030f, 0.048577513545751571655f, -0.078295491635799407959f, -0.018154179677367210388f, -0.080355405807495117188f, 0.066467016935348510742f, -0.0013914210721850395203f, 0.12028726190328598022f, -0.097149565815925598145f, 0.052191305905580520630f, 0.12560918927192687988f, 0.051002603024244308472f, 0.086075417697429656982f, 0.013141890056431293488f, 0.020140351727604866028f, 0.025984872132539749146f, -0.12163780629634857178f, 0.085414603352546691895f, 0.10300696641206741333f, 0.036279827356338500977f, 0.041169259697198867798f, 0.071396395564079284668f},
  {-0.043943982571363449097f, 0.044597633183002471924f, -0.12038307636976242065f, -0.076176024973392486572f, -0.069480389356613159180f, -0.12939789891242980957f, -0.018724009394645690918f, 0.043989297002553939819f, -0.063748158514499664307f, -0.0041818092577159404755f, -0.19395594298839569092f, -0.23679557442665100098f, -0.15269675850868225098f, -0.12446919083595275879f, 0.10506403446197509766f, -0.082795642316341400146f, 0.069516219198703765869f, 0.091457113623619079590f, 0.26953095197677612305f, 0.29892587661743164062f, -0.12931425869464874268f, -0.022597372531890869141f, 0.12107320874929428101f, 0.058349370956420898438f, 0.018143687397241592407f, -0.024968584999442100525f, 0.29528886079788208008f, 0.17885638773441314697f, -0.090286597609519958496f, 0.24854947626590728760f, 0.090861797332763671875f, 0.053335938602685928345f, 0.078485488891601562500f, 0.091475307941436767578f, 0.016599196940660476685f, 0.029484016820788383484f, 0.37633198499679565430f, -0.0034801289439201354980f, -0.11306120455265045166f, -0.12064949423074722290f, -0.068887367844581604004f, -0.076740756630897521973f, -0.14172779023647308350f, 0.10247569531202316284f, 0.063697323203086853027f, -0.29107081890106201172f, -0.16929449141025543213f, 0.065179273486137390137f, -0.013147935271263122559f, -0.068188719451427459717f, -0.19758272171020507812f, 0.068277969956398010254f, 0.10150985419750213623f, -0.12920828163623809814f, 0.030155416578054428101f, 0.049491554498672485352f, -0.059678137302398681641f, 0.092331677675247192383f, 0.026173546910285949707f, 0.21180246770381927490f, 0.15452212095260620117f, -0.073379859328269958496f, -0.11712324619293212891f, -0.061254713684320449829f},
  {-0.051697880029678344727f, -0.12156853079795837402f, 0.015655279159545898438f, -0.052171885967254638672f, 0.10839369893074035645f, 0.068122118711471557617f, 0.012899458408355712891f, -0.097132891416549682617f, 0.11547112464904785156f, -0.063848614692687988281f, 0.11034102737903594971f, 0.11825798451900482178f, 0.062855198979377746582f, -0.026414781808853149414f, -0.064134895801544189453f, 0.10259561240673065186f, -0.036053970456123352051f, 0.071166291832923889160f, -0.0077810287475585937500f, -0.048960521817207336426f, -0.016178116202354431152f, -0.028285533189773559570f, -0.082679167389869689941f, -0.037133872509002685547f, -0.032457694411277770996f, -0.10375471413135528564f, 0.083908006548881530762f, -0.075844228267669677734f, -0.016248360276222229004f, 0.072353899478912353516f, 0.098595246672630310059f, 0.013449177145957946777f, 0.074390232563018798828f, -0.0069878548383712768555f, -0.054609417915344238281f, -0.051934123039245605469f, -0.0057980716228485107422f, -0.11325104534626007080f, -0.071011751890182495117f, -0.017807498574256896973f, -0.11419084668159484863f, -0.11817488074302673340f, -0.11213548481464385986f, -0.042945444583892822266f, 0.030898511409759521484f, 0.029937729239463806152f, -0.098380148410797119141f, -0.12461270391941070557f, -0.022064581513404846191f, 0.063411995768547058105f, -0.045611917972564697266f, -0.10828505456447601318f, -0.096963971853256225586f, -0.0031379163265228271484f, 0.041894614696502685547f, -0.019740968942642211914f, 0.048710301518440246582f, 0.10586570203304290771f, 0.079740315675735473633f, 0.12108246982097625732f, 0.11067162454128265381f, -0.10741932690143585205f, 0.023579850792884826660f, -0.015097305178642272949f},
  {0.065432280302047729492f, 0.020823828876018524170f, -0.067637614905834197998f, -0.080361671745777130127f, -0.16886179149150848389f, 0.011405904777348041534f, 0.082775600254535675049f, 0.066838443279266357422f, -0.015255319885909557343f, -0.010391688905656337738f, -0.028121154755353927612f, 0.076296240091323852539f, -0.099528074264526367188f, -0.017205670475959777832f, 0.065817214548587799072f, -0.10658069700002670288f, -0.015358132310211658478f, 0.17134425044059753418f, 0.19360618293285369873f, -0.017975576221942901611f, 0.17995503544807434082f, 0.23748873174190521240f, -0.031383134424686431885f, -0.13451299071311950684f, 0.044286906719207763672f, 0.044619984924793243408f, -0.17697897553443908691f, -0.22468592226505279541f, 0.39572888612747192383f, 0.34190744161605834961f, -0.090941809117794036865f, 0.043181922286748886108f, -0.11383118480443954468f, 0.071832172572612762451f, -0.063404291868209838867f, 0.11447723209857940674f, 0.38811957836151123047f, 0.080175757408142089844f, -0.14657361805438995361f, -0.095661014318466186523f, 0.064983151853084564209f, -0.035047058016061782837f, -0.22594484686851501465f, -0.091922767460346221924f, -0.10451450198888778687f, -0.17652451992034912109f, -0.082850016653537750244f, -0.086489975452423095703f, -0.026607891544699668884f, 0.066850326955318450928f, -0.037799488753080368042f, 0.076725885272026062012f, -0.015257306396961212158f, -0.025478098541498184204f, -0.053294956684112548828f, 0.036036461591720581055f, 0.054594885557889938354f, 0.022833082824945449829f, -0.021388636901974678040f, 0.20169605314731597900f, 0.10769021511077880859f, -0.057386502623558044434f, 0.029464934021234512329f, 0.019542336463928222656f},
  {0.053553044795989990234f, 0.073485583066940307617f, 0.092777572572231292725f, 0.048126235604286193848f, -0.018845010548830032349f, 0.019074860960245132446f, 0.0069379783235490322113f, -0.021514963358640670776f, 0.12042213976383209229f, 0.051812056452035903931f, -0.13374106585979461670f, -0.21218663454055786133f, -0.071936093270778656006f, -0.037006478756666183472f, -0.049452703446149826050f, -0.065099991858005523682f, 0.068306103348731994629f, 0.12691552937030792236f, 0.064829416573047637939f, 0.42638117074966430664f, 0.44774734973907470703f, 0.41411012411117553711f, 0.080804899334907531738f, -0.011909686960279941559f, -0.099132061004638671875f, 0.11747450381517410278f, 0.37440803647041320801f, 0.044547963887453079224f, -0.22059313952922821045f, 0.25083932280540466309f, 0.25196269154548645020f, -0.097114086151123046875f, -0.083030901849269866943f, 0.027774559333920478821f, 0.18356442451477050781f, -0.44770309329032897949f, -0.23774293065071105957f, 0.11559008806943893433f, 0.082277536392211914062f, -0.11614673584699630737f, -0.094638638198375701904f, 0.033565785735845565796f, -0.10517007857561111450f, -0.13975208997726440430f, 0.098128199577331542969f, -0.11675565689802169800f, -0.010341155342757701874f, -0.065342374145984649658f, 0.10306031256914138794f, -0.17528456449508666992f, 0.062119424343109130859f, 0.14815917611122131348f, 0.053840894252061843872f, -0.099506959319114685059f, 0.064668521285057067871f, -0.12218154221773147583f, -0.093340285122394561768f, 0.11681902408599853516f, -0.022172631695866584778f, 0.24881276488304138184f, -0.00049842143198475241661f, 0.16716808080673217773f, 0.082223825156688690186f, -0.11588567495346069336f},
  {0.050285089761018753052f, 0.10538785159587860107f, -0.12825305759906768799f, -0.066135346889495849609f, -0.11820972710847854614f, -0.081292234361171722412f, -0.045337177813053131104f, -0.095811285078525543213f, 0.024073293432593345642f, -0.059631004929542541504f, 0.027741596102714538574f, -0.21467842161655426025f, -0.23864172399044036865f, -0.12428925186395645142f, -0.13025607168674468994f, 0.12216800451278686523f, 0.13552406430244445801f, 0.24988232553005218506f, 0.48940259218215942383f, 0.61897706985473632812f, 0.40332657098770141602f, 0.65079450607299804688f, 0.091166421771049499512f, 0.025030983611941337585f, 0.098876774311065673828f, 0.26422050595283508301f, 0.29858157038688659668f, 0.077655307948589324951f, -0.023120656609535217285f, 0.61429774761199951172f, 0.14033301174640655518f, -0.10763145983219146729f, 0.082221888005733489990f, 0.011103216558694839478f, -0.092093817889690399170f, -0.48538839817047119141f, 0.18012244999408721924f, 0.27512782812118530273f, -0.19765709340572357178f, 0.031429186463356018066f, 0.11006956547498703003f, 0.10536099225282669067f, -0.19628471136093139648f, -0.61617034673690795898f, 0.11274202167987823486f, -0.13545645773410797119f, -0.065960690379142761230f, -0.0084567824378609657288f, -0.094588018953800201416f, 0.021375380456447601318f, 0.044293582439422607422f, 0.050677254796028137207f, 0.023861911147832870483f, 0.092472814023494720459f, 0.036614842712879180908f, -0.099837638437747955322f, 0.085982508957386016846f, 0.13099963963031768799f, 0.26505818963050842285f, 0.42806911468505859375f, 0.29066756367683410645f, 0.063359126448631286621f, 0.021260291337966918945f, 0.078045591711997985840f},
  {-0.11697059869766235352f, -0.0099101597443222999573f, 0.067200481891632080078f, 0.020212920382618904114f, -0.063767082989215850830f, 0.041103474795818328857f, 0.050020627677440643311f, 0.062944717705249786377f, 0.0067097847349941730499f, -0.010138581506907939911f, 0.067354671657085418701f, 0.31557825207710266113f, 0.22030681371688842773f, 0.26928234100341796875f, 0.15204805135726928711f, 0.052400950342416763306f, 0.0032353494316339492798f, -0.061294760555028915405f, 0.22143264114856719971f, 0.051062505692243576050f, 0.22558113932609558105f, 0.15242347121238708496f, 0.21549849212169647217f, 0.058349534869194030762f, -0.12268750369548797607f, 0.059008765965700149536f, -0.16055056452751159668f, 0.35342189669609069824f, 0.43446612358093261719f, -0.13461920619010925293f, -0.11430065333843231201f, -0.019172808155417442322f, 0.068901538848876953125f, -0.028070727363228797913f, -0.49771416187286376953f, 0.44101354479789733887f, 0.014840313233435153961f, -0.32310220599174499512f, -0.23763243854045867920f, -0.047929991036653518677f, 0.0019296006066724658012f, 0.071281597018241882324f, 0.19603116810321807861f, 0.056629147380590438843f, -0.26869651675224304199f, 0.0047474135644733905792f, -0.050609998404979705811f, -0.079761229455471038818f, 0.090215370059013366699f, 0.080953709781169891357f, 0.43280145525932312012f, 0.49713695049285888672f, 0.45249822735786437988f, 0.27526229619979858398f, -0.083399929106235504150f, 0.084018565714359283447f, -0.062184214591979980469f, -0.11844542622566223145f, -0.075710721313953399658f, 0.14092405140399932861f, 0.0096814800053834915161f, -0.071016944944858551025f, -0.053442023694515228271f, 0.017279917374253273010f},
  {-0.091687358915805816650f, 0.039329271763563156128f, -0.078901872038841247559f, -0.11056089401245117188f, 0.016335858032107353210f, -0.078528359532356262207f, 0.047382835298776626587f, -0.10092791169881820679f, -0.085927337408065795898f, 0.075514838099479675293f, -0.050245806574821472168f, 0.043437365442514419556f, 0.12854328751564025879f, -0.077913038432598114014f, -0.22441440820693969727f, 0.018534343689680099487f, -0.0067831180058419704437f, 0.14301824569702148438f, 0.030641956254839897156f, -0.16483791172504425049f, 0.25627988576889038086f, 0.29575213789939880371f, -0.18878228962421417236f, -0.056771397590637207031f, 0.11163458228111267090f, 0.0040733204223215579987f, -0.36366948485374450684f, -0.38899314403533935547f, 0.63497769832611083984f, 0.41154304146766662598f, -0.030876811593770980835f, -0.058112956583499908447f, 0.016378901898860931396f, -0.036546040326356887817f, -0.26035079360008239746f, 0.024267120286822319031f, 0.41466936469078063965f, -0.066118784248828887939f, -0.23235540091991424561f, -0.062720216810703277588f, 0.018694683909416198730f, -0.11341191083192825317f, -0.11788108944892883301f, -0.013110325671732425690f, 0.058074060827493667603f, -0.27128931879997253418f, 0.031891345977783203125f, 0.067750543355941772461f, -0.027617588639259338379f, -0.032528631389141082764f, 0.068964287638664245605f, -0.053580377250909805298f, 0.0047725234180688858032f, -0.0044547202996909618378f, 0.076748572289943695068f, 0.0095077473670244216919f, 0.068544872105121612549f, 0.010542957112193107605f, -0.0056284461170434951782f, -0.042076293379068374634f, -0.032254200428724288940f, 0.16663327813148498535f, 0.10687717795372009277f, 0.035838574171066284180f},
  {0.050547767430543899536f, -0.059171110391616821289f, 0.10723128169775009155f, 0.045308995991945266724f, -0.058060768991708755493f, 0.073319472372531890869f, -0.058622386306524276733f, 0.12312770634889602661f, -0.077030874788761138916f, -0.086064368486404418945f, -0.078522786498069763184f, -0.27642336487770080566f, -0.25165569782257080078f, -0.11747834086418151855f, -0.12723699212074279785f, -0.13552853465080261230f, -0.0037883045151829719543f, 0.042885538190603256226f, 0.24076047539710998535f, 0.15002153813838958740f, 0.081527374684810638428f, 0.19246700406074523926f, 0.0048146513290703296661f, 0.039247356355190277100f, 0.0077244876883924007416f, 0.21372540295124053955f, 0.25889277458190917969f, -0.21172921359539031982f, -0.27628046274185180664f, 0.51249426603317260742f, 0.12836331129074096680f, 0.042689442634582519531f, 0.084650300443172454834f, 0.032810796052217483521f, 0.45957514643669128418f, -0.069991700351238250732f, 0.14363606274127960205f, 0.36102965474128723145f, 0.022876920178532600403f, -0.032041054219007492065f, 0.079224057495594024658f, -0.051440592855215072632f, 0.10578337311744689941f, -0.013747852295637130737f, 0.27424097061157226562f, -0.13261702656745910645f, -0.12136782705783843994f, -0.0048600016161799430847f, -0.014014840126037597656f, -0.091715820133686065674f, -0.18996508419513702393f, 0.025656431913375854492f, -0.17486719787120819092f, -0.14132948219776153564f, -0.062261622399091720581f, 0.073237679898738861084f, -0.083495445549488067627f, 0.10905458778142929077f, 0.035014837980270385742f, 0.10440218448638916016f, 0.15288929641246795654f, -0.034107718616724014282f, -0.062083084136247634888f, 0.023160001263022422791f},
  {-0.013001375831663608551f, 0.091292053461074829102f, -0.072805069386959075928f, 0.065935201942920684814f, -0.049567941576242446899f, 0.11322293430566787720f, 0.052257381379604339600f, 0.082337722182273864746f, 0.010049562901258468628f, -0.036051806062459945679f, -0.028239576146006584167f, -0.032474260777235031128f, 0.12239523231983184814f, -0.036003280431032180786f, 0.021384263411164283752f, -0.065410420298576354980f, -0.056820109486579895020f, -0.11591205745935440063f, -0.20157471299171447754f, -0.088646642863750457764f, 0.063623577356338500977f, -0.30136305093765258789f, -0.16783392429351806641f, -0.057839047163724899292f, 0.0084363659843802452087f, 0.012727784924209117889f, -0.025007965043187141418f, 0.28537288308143615723f, 0.10051028430461883545f, -0.20556847751140594482f, -0.021900674328207969666f, -0.099013872444629669189f, -0.062521174550056457520f, 0.041838973760604858398f, 0.18290302157402038574f, -0.11138674616813659668f, -0.078186854720115661621f, 0.26126483082771301270f, 0.19997562468051910400f, -0.018274189904332160950f, -0.11060523986816406250f, 0.059029705822467803955f, 0.059571877121925354004f, 0.13081455230712890625f, 0.042022716253995895386f, 0.064977392554283142090f, -0.11731173098087310791f, 0.077216044068336486816f, 0.032767277210950851440f, 0.083949126303195953369f, -0.013789001852273941040f, 0.041237581521272659302f, 0.079660408198833465576f, -0.10514396429061889648f, -0.098477214574813842773f, 0.030978947877883911133f, 0.026064028963446617126f, -0.11885333061218261719f, -0.12367812544107437134f, -0.060462873429059982300f, -0.027966307476162910461f, -0.089900970458984375000f, 0.0015486623160541057587f, 0.079658880829811096191f},
  {-0.055081080645322799683f, 0.0080640660598874092102f, 0.083850957453250885010f, -0.087615802884101867676f, -0.040829703211784362793f, 0.055776897817850112915f, 0.085197560489177703857f, -0.083999454975128173828f, 0.10185331851243972778f, -0.14441779255867004395f, -0.16147808730602264404f, -0.24984571337699890137f, 0.023302977904677391052f, -0.10072985291481018066f, -0.14467909932136535645f, 0.026738023385405540466f, -0.11207529157400131226f, -0.071537151932716369629f, 0.21000497043132781982f, 0.46094366908073425293f, 0.42638242244720458984f, 0.14381758868694305420f, -0.040729038417339324951f, 0.082502856850624084473f, -0.095541298389434814453f, 0.062515996396541595459f, 0.32097345590591430664f, 0.061921287328004837036f, -0.33357423543930053711f, 0.38500237464904785156f, 0.18927267193794250488f, 0.017326002940535545349f, 0.023110756650567054749f, 0.051984757184982299805f, 0.32436451315879821777f, -0.28061196208000183105f, -0.094500735402107238770f, 0.067856602370738983154f, 0.087506115436553955078f, -0.11824749410152435303f, 0.075715407729148864746f, -0.13683705031871795654f, 0.15459364652633666992f, -0.033405732363462448120f, 0.088126823306083679199f, -0.18938219547271728516f, -0.13816356658935546875f, 0.020699100568890571594f, 0.068631067872047424316f, -0.054512739181518554688f, -0.13597767055034637451f, 0.033394489437341690063f, -0.10990207642316818237f, -0.15935519337654113770f, 0.0073090055957436561584f, 0.010589602403342723846f, -0.041600525379180908203f, -0.038307230919599533081f, 0.11519759893417358398f, 0.036572493612766265869f, 0.22475251555442810059f, 0.064086943864822387695f, 0.059800982475280761719f, -0.092315934598445892334f},
  {0.022232530638575553894f, 0.082190111279487609863f, 0.021107181906700134277f, 0.013577227480709552765f, 0.12591035664081573486f, 0.16337169706821441650f, -0.0011860850499942898750f, -0.095646448433399200439f, 0.080756165087223052979f, -0.058928273618221282959f, -0.056149307638406753540f, -0.20398315787315368652f, 0.072588935494422912598f, -0.0040659746155142784119f, -0.063807591795921325684f, -0.031821668148040771484f, -0.11237522214651107788f, -0.19044452905654907227f, 0.016854679211974143982f, -0.043802402913570404053f, -0.43248805403709411621f, -0.22468286752700805664f, -0.049408417195081710815f, 0.033261027187108993530f, -0.0093572987243533134460f, 0.099180564284324645996f, 0.32623594999313354492f, 0.22333754599094390869f, -0.048126153647899627686f, 0.0033222273923456668854f, 0.11829993873834609985f, 0.029612390324473381042f, -0.051958113908767700195f, 0.15484334528446197510f, 0.51948213577270507812f, 0.50887089967727661133f, 0.32019299268722534180f, 0.20784048736095428467f, 0.23929360508918762207f, -0.029098106548190116882f, 0.013515096157789230347f, -0.22842976450920104980f, 0.14626079797744750977f, 0.31006610393524169922f, 0.15771581232547760010f, -0.00067112833494320511818f, -0.028457256034016609192f, 0.043650623410940170288f, -0.13150660693645477295f, -0.13247378170490264893f, -0.28826758265495300293f, -0.21574430167675018311f, -0.10046949237585067749f, -0.049227904528379440308f, -0.092163033783435821533f, 0.042501606047153472900f, 0.11967439204454421997f, -0.052232995629310607910f, -0.021579094231128692627f, -0.10016948729753494263f, -0.14295667409896850586f, 0.025799604132771492004f, 0.12152942270040512085f, 0.10818242281675338745f},
  {0.097163066267967224121f, -0.077398359775543212891f, -0.10485079139471054077f, -0.10946670919656753540f, -0.059585250914096832275f, -0.046251177787780761719f, 0.088691398501396179199f, 0.11568623781204223633f, -0.024925628677010536194f, -0.069126144051551818848f, -0.053815662860870361328f, -0.048758216202259063721f, 0.071364544332027435303f, 0.087967418134212493896f, -0.063563808798789978027f, 0.12263596057891845703f, 0.11244918406009674072f, 0.10739134997129440308f, -0.063325740396976470947f, 0.080186501145362854004f, -0.055463679134845733643f, -0.022762456908822059631f, -0.059391509741544723511f, 0.077111452817916870117f, 0.049133241176605224609f, 0.0017004864057525992393f, 0.11256904900074005127f, 0.014694428071379661560f, -0.078025259077548980713f, 0.14626191556453704834f, 0.064328335225582122803f, -0.059270132333040237427f, 0.078260265290737152100f, 0.011818571947515010834f, -0.039232973009347915649f, 0.013738834299147129059f, 0.15182909369468688965f, 0.057365372776985168457f, 0.0094276703894138336182f, -0.045572496950626373291f, 0.10174785554409027100f, 0.019774680957198143005f, 0.014025293290615081787f, -0.11502160131931304932f, 0.069589607417583465576f, 0.047692973166704177856f, 0.095852643251419067383f, -0.034747049212455749512f, -0.11876851320266723633f, -0.12699496746063232422f, -0.11739751696586608887f, -0.12430536001920700073f, 0.0091882077977061271667f, 0.048806209117174148560f, -0.023830914869904518127f, 0.11648078262805938721f, 0.013178670778870582581f, 0.078946977853775024414f, 0.049636598676443099976f, 0.10754930973052978516f, 0.015567554160952568054f, -0.10234127193689346313f, 0.010965052992105484009f, -0.044172000139951705933f},
  {-0.017048537731170654297f, 0.034378334879875183105f, 0.050290331244468688965f, 0.11565354466438293457f, -0.026718303561210632324f, -0.024331003427505493164f, 0.022181436419486999512f, -0.10275289416313171387f, 0.10682375729084014893f, -0.064656838774681091309f, -0.12142118811607360840f, 0.044112935662269592285f, -0.11082474887371063232f, -0.11856737732887268066f, 0.019684299826622009277f, 0.11961628496646881104f, -0.038652718067169189453f, -0.098665356636047363281f, 0.057496041059494018555f, 0.052897229790687561035f, 0.012569114565849304199f, -0.097175583243370056152f, -0.093093305826187133789f, -0.070511117577552795410f, 0.094588533043861389160f, -0.085065558552742004395f, 0.058137789368629455566f, -0.047850757837295532227f, -0.10793234407901763916f, -0.027607947587966918945f, 0.045946568250656127930f, -0.093383669853210449219f, 0.084500804543495178223f, 0.017890363931655883789f, 0.029706180095672607422f, -0.028865024447441101074f, 0.050933554768562316895f, 0.035815656185150146484f, -0.016733095049858093262f, 0.0065590590238571166992f, -0.057840883731842041016f, 0.023226812481880187988f, -0.086939930915832519531f, -0.083975031971931457520f, -0.048575028777122497559f, -0.021777108311653137207f, -0.10261218249797821045f, 0.042010307312011718750f, 0.061329990625381469727f, 0.093403607606887817383f, 0.019867554306983947754f, 0.080012097954750061035f, 0.075777396559715270996f, -0.016495063900947570801f, -0.021780982613563537598f, -0.0059331208467483520508f, 0.0048684924840927124023f, -0.10473224520683288574f, 0.11676073074340820312f, -0.0057141929864883422852f, -0.059346601366996765137f, -0.067096337676048278809f, -0.050073862075805664062f, -0.071322187781333923340f},
  {-0.0038668110501021146774f, 0.047272529453039169312f, 0.11529509723186492920f, -0.010635773651301860809f, 0.14814631640911102295f, 0.12851333618164062500f, -0.084151290357112884521f, 0.0033108787611126899719f, 0.064106933772563934326f, -0.076921232044696807861f, 0.038042966276407241821f, -0.21566964685916900635f, -0.065828137099742889404f, -0.14724743366241455078f, 0.13179120421409606934f, 0.079695761203765869141f, -0.024373620748519897461f, -0.034272756427526473999f, -0.12363930791616439819f, 0.094509378075599670410f, -0.18369689583778381348f, -0.41915088891983032227f, -0.095495678484439849854f, 0.035827469080686569214f, -0.047744646668434143066f, 0.082141481339931488037f, 0.44351240992546081543f, 0.16502793133258819580f, -0.073214933276176452637f, 0.092986717820167541504f, -0.20527867972850799561f, -0.12192107737064361572f, -0.12484292685985565186f, -0.011192148551344871521f, 0.32708105444908142090f, 0.43107989430427551270f, 0.42759850621223449707f, 0.28479838371276855469f, 0.12415277212858200073f, -0.012732997536659240723f, 0.070761218667030334473f, -0.12236420810222625732f, -0.021557575091719627380f, 0.055883485823869705200f, 0.33976057171821594238f, 0.094296939671039581299f, -0.10433658957481384277f, 0.063389487564563751221f, 0.11715194582939147949f, -0.20037595927715301514f, -0.46290722489356994629f, -0.32800996303558349609f, -0.099635981023311614990f, -0.00088936992688104510307f, -0.11652991175651550293f, -0.039265159517526626587f, -0.10914246737957000732f, -0.093035675585269927979f, -0.063374139368534088135f, -0.16766677796840667725f, -0.064244203269481658936f, -0.026917411014437675476f, -0.087656535208225250244f, 0.10619224607944488525f},
  {-0.081446222960948944092f, 0.11495912075042724609f, -0.082145079970359802246f, 0.096636772155761718750f, 0.066057533025741577148f, 0.11182846873998641968f, 0.12717115879058837891f, 0.098996192216873168945f, -0.027926487848162651062f, 0.022438824176788330078f, 0.023921921849250793457f, 0.16833513975143432617f, -0.039153803139925003052f, -0.0071638296358287334442f, 0.10228917002677917480f, -0.058654885739088058472f, 0.11454972624778747559f, 0.037419449537992477417f, -0.033660404384136199951f, 0.016873976215720176697f, -0.15366184711456298828f, 0.026495676487684249878f, -0.17243860661983489990f, 0.046969056129455566406f, -0.095542684197425842285f, -0.089933432638645172119f, 0.31012308597564697266f, 0.35526397824287414551f, 0.44275200366973876953f, -0.037592697888612747192f, -0.074225448071956634521f, -0.12411208450794219971f, -0.059083875268697738647f, 0.084905184805393218994f, 0.31773263216018676758f, 0.18411189317703247070f, 0.27310928702354431152f, 0.35484516620635986328f, -0.0089114028960466384888f, -0.072316631674766540527f, -0.030029289424419403076f, -0.031974963843822479248f, -0.36843696236610412598f, -0.58528959751129150391f, 0.038020495325326919556f, 0.13806009292602539062f, 0.0029653531964868307114f, -0.029977902770042419434f, -0.10367473959922790527f, 0.13946105539798736572f, 0.052041362971067428589f, 0.060172766447067260742f, 0.25135728716850280762f, 0.082919567823410034180f, -0.046111036092042922974f, -0.12430521845817565918f, -0.10511037707328796387f, 0.028414774686098098755f, -0.050821300595998764038f, -0.0061261351220309734344f, 0.017144676297903060913f, 0.11436890065670013428f, -0.097433164715766906738f, -0.00036477381945587694645f},
  {-0.11982849985361099243f, 0.021711042150855064392f, 0.092026807367801666260f, 0.039527878165245056152f, -0.038524523377418518066f, -0.12341018021106719971f, -0.11424094438552856445f, -0.12445849180221557617f, 0.11020679026842117310f, 0.035349559038877487183f, 0.0073537933640182018280f, 0.10982917249202728271f, 0.066976636648178100586f, -0.038974542170763015747f, -0.11426419019699096680f, -0.039549402892589569092f, -0.057453628629446029663f, 0.10661328583955764771f, -0.013506372459232807159f, -0.018244042992591857910f, 0.11812654137611389160f, 0.011214095167815685272f, 0.011987196281552314758f, -0.094361335039138793945f, -0.070693895220756530762f, -0.035256918519735336304f, 0.056969497352838516235f, -0.12324655055999755859f, -0.13235580921173095703f, 0.047918848693370819092f, 0.059207163751125335693f, -0.083040289580821990967f, 0.071368776261806488037f, 0.10679730772972106934f, 0.015458673238754272461f, -0.018094763159751892090f, 0.15359652042388916016f, -0.057689301669597625732f, -0.10028368234634399414f, -0.12353172898292541504f, 0.018628440797328948975f, 0.044640514999628067017f, -0.028930978849530220032f, 0.15733270347118377686f, -0.084927670657634735107f, 0.14208239316940307617f, 0.045113246887922286987f, -0.038580395281314849854f, -0.093610323965549468994f, 0.044104430824518203735f, -0.042679835110902786255f, 0.045473854988813400269f, 0.098764598369598388672f, 0.051260884851217269897f, 0.076274499297142028809f, 0.10676138848066329956f, -0.057405028492212295532f, -0.056753091514110565186f, -0.12477476894855499268f, -0.073156729340553283691f, 0.0063037727959454059601f, -0.034036375582218170166f, -0.061419185250997543335f, -0.0024807080626487731934f},
  {0.10141316801309585571f, -0.087338596582412719727f, 0.051323730498552322388f, 0.029074853286147117615f, 0.20038899779319763184f, 0.039210736751556396484f, -0.072251670062541961670f, -0.092838108539581298828f, -0.12025132775306701660f, 0.031175713986158370972f, 0.27926912903785705566f, 0.65093088150024414062f, 0.50044423341751098633f, -0.022609602659940719604f, -0.10708332061767578125f, -0.13431423902511596680f, -0.013544659130275249481f, 0.18317766487598419189f, -0.053320959210395812988f, -0.14963401854038238525f, 0.010612169280648231506f, -0.10242247581481933594f, -0.27680629491806030273f, -0.11158201843500137329f, 0.070954963564872741699f, -0.092301473021507263184f, -0.66078412532806396484f, -0.32418817281723022461f, 0.21872761845588684082f, 0.15240363776683807373f, -0.10721311718225479126f, -0.098360612988471984863f, 0.084414556622505187988f, -0.080730237066745758057f, -0.14486488699913024902f, 0.47711646556854248047f, 0.39503809809684753418f, -0.059310872107744216919f, 0.083286426961421966553f, 0.064672030508518218994f, 0.040545389056205749512f, 0.13937649130821228027f, 0.35957869887351989746f, 0.57480597496032714844f, 0.28312775492668151855f, 0.45366451144218444824f, 0.23271949589252471924f, 0.16730321943759918213f, 0.063614144921302795410f, 0.033469900488853454590f, 0.11665244400501251221f, -0.17177024483680725098f, -0.11766770482063293457f, 0.27780121564865112305f, 0.23628559708595275879f, 0.060017947107553482056f, -0.022449307143688201904f, -0.092335827648639678955f, -0.078593879938125610352f, -0.051564250141382217407f, -0.13306842744350433350f, -0.094440102577209472656f, 0.057165395468473434448f, -0.049276918172836303711f},
  {-0.024539770558476448059f, 0.096394449472427368164f, -0.085459791123867034912f, 0.11884815245866775513f, 0.041554223746061325073f, -0.11322679370641708374f, -0.10246532410383224487f, -0.013749646954238414764f, -0.0044926968403160572052f, 0.14034371078014373779f, 0.21760790050029754639f, 0.34227883815765380859f, 0.30201882123947143555f, 0.25184908509254455566f, -0.064320832490921020508f, -0.069602176547050476074f, -0.012021639384329319000f, 0.071937792003154754639f, -0.033438183367252349854f, 0.15452939271926879883f, -0.12100008130073547363f, 0.35543918609619140625f, 0.22611816227436065674f, -0.018426114693284034729f, 0.046272218227386474609f, -0.015116554684937000275f, 0.14988122880458831787f, 0.045349340885877609253f, -0.32615581154823303223f, 0.17180204391479492188f, 0.15815109014511108398f, 0.013624520041048526764f, 0.071558706462383270264f, 0.076290473341941833496f, 0.49202996492385864258f, 0.15082833170890808105f, -0.19281332194805145264f, 0.28676459193229675293f, 0.16557970643043518066f, 0.099906958639621734619f, 0.11454748362302780151f, 0.39739903807640075684f, 0.43376550078392028809f, -0.11735447496175765991f, 0.17028491199016571045f, 0.55559235811233520508f, 0.27606040239334106445f, -0.055861353874206542969f, -0.064536474645137786865f, 0.18084622919559478760f, 0.25582292675971984863f, 0.16787554323673248291f, 0.21208405494689941406f, 0.17615459859371185303f, 0.14321120083332061768f, 0.13258720934391021729f, 0.091763257980346679688f, -0.012829135172069072723f, -0.13421583175659179688f, -0.17095543444156646729f, 0.0025465122889727354050f, -0.14118628203868865967f, 0.098540879786014556885f, -0.053548704832792282104f},
  {-0.045664966106414794922f, 0.039330251514911651611f, 0.046545300632715225220f, -0.15505447983741760254f, -0.15426228940486907959f, 0.0025938858743757009506f, -0.041097689419984817505f, 0.058878399431705474854f, -0.0076830219477415084839f, -0.076137095689773559570f, -0.20989413559436798096f, -0.40475812554359436035f, -0.37417066097259521484f, -0.026648227125406265259f, 0.095132276415824890137f, 0.10004907846450805664f, 0.054914940148591995239f, 0.0037719525862485170364f, -0.15338866412639617920f, -0.12473676353693008423f, 0.060950811952352523804f, 0.14438851177692413330f, 0.016944037750363349915f, -0.14454887807369232178f, -0.035327687859535217285f, 0.094793416559696197510f, 0.23666501045227050781f, -0.13428470492362976074f, 0.30974626541137695312f, 0.25509598851203918457f, -0.13971032202243804932f, -0.049124754965305328369f, 0.10810612142086029053f, 0.10943724215030670166f, 0.22672486305236816406f, 0.23966555297374725342f, 0.54341554641723632812f, -0.18385483324527740479f, -0.11563053727149963379f, 0.064617328345775604248f, 0.073856636881828308105f, -0.0064872363582253456116f, -0.40388420224189758301f, -0.026342747732996940613f, 0.024983899667859077454f, -0.50483405590057373047f, -0.12352655827999114990f, 0.052491672337055206299f, -0.026171650737524032593f, -0.17675048112869262695f, -0.17255397140979766846f, -0.19041259586811065674f, -0.13936355710029602051f, 0.0056460816413164138794f, 0.087183527648448944092f, 0.067422382533550262451f, -0.023593459278345108032f, -0.093734279274940490723f, -0.12927147746086120605f, 0.094997920095920562744f, 0.089471086859703063965f, -0.054960221052169799805f, -0.10471310466527938843f, -0.0020014573819935321808f},
  {-0.021608093753457069397f, -0.048554297536611557007f, -0.084278509020805358887f, 0.12051717936992645264f, -0.048436820507049560547f, 0.090539336204528808594f, -0.064818456768989562988f, -0.021411204710602760315f, 0.021168220788240432739f, -0.035702772438526153564f, 0.055234923958778381348f, 0.023492822423577308655f, 0.10121109336614608765f, -0.092399619519710540771f, 0.031376652419567108154f, -0.070022769272327423096f, -0.020576365292072296143f, 0.015225867740809917450f, -0.0078309625387191772461f, -0.24643102288246154785f, -0.13830511271953582764f, -0.24950845539569854736f, -0.23799532651901245117f, -0.12736356258392333984f, -0.028308656066656112671f, -0.0077417823486030101776f, -0.14401248097419738770f, -0.11507243663072586060f, 0.10325472801923751831f, 0.10240188986063003540f, -0.14439870417118072510f, 0.020179882645606994629f, -0.028914365917444229126f, 0.12042371928691864014f, 0.30100581049919128418f, 0.56079727411270141602f, 0.37265956401824951172f, 0.12836305797100067139f, -0.10186502337455749512f, 0.043151494115591049194f, 0.0016967531992122530937f, 0.010002965107560157776f, 0.15467935800552368164f, 0.31850251555442810059f, 0.25652047991752624512f, 0.17342165112495422363f, 0.13789483904838562012f, 0.061609193682670593262f, 0.013097743503749370575f, -0.12628901004791259766f, -0.11578646302223205566f, -0.23453885316848754883f, -0.025976227596402168274f, 0.088904149830341339111f, -0.051627777516841888428f, -0.10356343537569046021f, 0.088637366890907287598f, 0.036295935511589050293f, -0.17213495075702667236f, -0.085228718817234039307f, -0.024763025343418121338f, 0.094166323542594909668f, 0.080386444926261901855f, 0.11934810876846313477f},
  {-0.081308811902999877930f, 0.028812732547521591187f, 0.089456781744956970215f, 0.090095780789852142334f, 0.018405530601739883423f, 0.0076592429541051387787f, -0.036299142986536026001f, -0.0067885648459196090698f, -0.063227109611034393311f, -0.021197518333792686462f, -0.12080719321966171265f, -0.14968112111091613770f, -0.072126708924770355225f, -0.10998336970806121826f, 0.044068522751331329346f, -0.045963402837514877319f, -0.0010453071445226669312f, 0.047018747776746749878f, 0.17009398341178894043f, -0.095491997897624969482f, -0.23684333264827728271f, 0.032402426004409790039f, 0.0041761375032365322113f, 0.060052949935197830200f, -0.069439418613910675049f, -0.053117986768484115601f, 0.22331543266773223877f, 0.080050230026245117188f, 0.13136659562587738037f, 0.22422161698341369629f, 0.096163533627986907959f, -0.11394847929477691650f, -0.021776957437396049500f, 0.073781333863735198975f, 0.0064111673273146152496f, 0.041703928261995315552f, 0.11015732586383819580f, 0.14039039611816406250f, -0.061721693724393844604f, -0.096085518598556518555f, 0.056914016604423522949f, -0.10773050785064697266f, -0.023167220875620841980f, 0.080566301941871643066f, 0.075073800981044769287f, -0.13967446982860565186f, 0.064782410860061645508f, -0.075427345931529998779f, 0.031456504017114639282f, 0.059902571141719818115f, -0.16626943647861480713f, 0.069602265954017639160f, -0.049945380538702011108f, -0.056711811572313308716f, -0.10692256689071655273f, -0.065623722970485687256f, -0.027590457350015640259f, -0.11103340983390808105f, 0.045221574604511260986f, 0.014744919724762439728f, 0.12509955465793609619f, -0.10279209911823272705f, -0.060904663056135177612f, 0.10217189043760299683f},
  {-0.076725870370864868164f, -0.053447466343641281128f, 0.11194857209920883179f, 0.015077533200383186340f, 0.0067538102157413959503f, 0.13044311106204986572f, 0.0064864251762628555298f, -0.080350987613201141357f, -0.092087879776954650879f, -0.082194954156875610352f, -0.18078814446926116943f, -0.19692924618721008301f, -0.039652649313211441040f, 0.079782925546169281006f, 0.023250732570886611938f, -0.020773822441697120667f, -0.10594040155410766602f, -0.050225906074047088623f, 0.12712083756923675537f, 0.26018083095550537109f, -0.18692332506179809570f, 0.064305678009986877441f, 0.18665717542171478271f, -0.073009684681892395020f, 0.096282608807086944580f, -0.088903568685054779053f, 0.31205943226814270020f, 0.42754936218261718750f, -0.052179839462041854858f, 0.094865791499614715576f, 0.021773289889097213745f, -0.10604369640350341797f, -0.080285392701625823975f, -0.13430580496788024902f, 0.12694904208183288574f, 0.32822856307029724121f, 0.15839865803718566895f, 0.018279181793332099915f, -0.024778261780738830566f, 0.057260356843471527100f, -0.049724556505680084229f, -0.24492953717708587646f, 0.082683257758617401123f, 0.097126334905624389648f, -0.085231378674507141113f, 0.053360261023044586182f, -0.19840636849403381348f, -0.093791417777538299561f, -0.010254750028252601624f, -0.19576697051525115967f, 0.051337745040655136108f, 0.093232527375221252441f, 0.23924928903579711914f, -0.052412927150726318359f, 0.016928318887948989868f, -0.090763166546821594238f, -0.10402411222457885742f, -0.0097042489796876907349f, 0.054545011371374130249f, -0.047382775694131851196f, -0.010322592221200466156f, -0.043929632753133773804f, -0.0021477800328284502029f, 0.038546260446310043335f},
  {0.067718856036663055420f, 0.066742628812789916992f, 0.028508560732007026672f, 0.010918462648987770081f, -0.063023291528224945068f, -0.027367372065782546997f, 0.10450159758329391479f, -0.0078637879341840744019f, -0.071923278272151947021f, 0.012284774333238601685f, 0.087423272430896759033f, -0.066039092838764190674f, -0.11972623318433761597f, -0.027572829276323318481f, -0.029766656458377838135f, -0.11697533726692199707f, -0.064931318163871765137f, -0.099431410431861877441f, 0.11458441615104675293f, 0.018735937774181365967f, -0.11074253916740417480f, 0.056994821876287460327f, -0.00079355452908203005791f, 0.10274859517812728882f, -0.11685582250356674194f, 0.080403804779052734375f, 0.095826223492622375488f, -0.084069065749645233154f, -0.066174134612083435059f, 0.012995541095733642578f, 0.092035509645938873291f, 0.11634581536054611206f, -0.024533044546842575073f, 0.098759472370147705078f, -0.078225791454315185547f, 0.058754708617925643921f, -0.015964742749929428101f, -0.089725255966186523438f, 0.0034896954894065856934f, 0.041636727750301361084f, -0.0065911449491977691650f, 0.091827169060707092285f, -0.015988625586032867432f, 0.070744916796684265137f, 0.043797474354505538940f, 0.10323069244623184204f, -0.11172748357057571411f, 0.040312457829713821411f, -0.027600390836596488953f, -0.099412396550178527832f, 0.0096832904964685440063f, -0.021822145208716392517f, -0.10504953563213348389f, -0.048416908830404281616f, 0.071271710097789764404f, 0.046446606516838073730f, 0.0060664713382720947266f, 0.045702386647462844849f, -0.063970893621444702148f, -0.076253578066825866699f, -0.052530683577060699463f, -0.069918036460876464844f, -0.098577156662940979004f, 0.044203825294971466064f},
  {0.10782048851251602173f, -0.054057527333498001099f, -0.10426340252161026001f, -0.14370569586753845215f, 0.015867689624428749084f, -0.079430229961872100830f, 0.040024463087320327759f, 0.10489259660243988037f, 0.031239038333296775818f, 0.012434441596269607544f, 0.11949542909860610962f, -0.14672498404979705811f, -0.25267395377159118652f, -0.081994138658046722412f, 0.073362618684768676758f, 0.078924313187599182129f, -0.0052478206343948841095f, -0.060158602893352508545f, 0.034725338220596313477f, -0.025915000587701797485f, -0.026145432144403457642f, 0.21490228176116943359f, 0.060717925429344177246f, 0.099465645849704742432f, -0.094776727259159088135f, 0.015092862769961357117f, 0.0089495610445737838745f, 0.070984378457069396973f, 0.25433984398841857910f, 0.0099346451461315155029f, -0.17684252560138702393f, -0.056606277823448181152f, -0.023681616410613059998f, -0.040004111826419830322f, -0.063831560313701629639f, 0.079928129911422729492f, 0.44238048791885375977f, 0.023241396993398666382f, 0.023450886830687522888f, -0.034523058682680130005f, 0.081576593220233917236f, -0.13807156682014465332f, -0.26633507013320922852f, -0.029429720714688301086f, 0.15620833635330200195f, -0.18478780984878540039f, 0.0014355072053149342537f, -0.0066570253111422061920f, 0.083953954279422760010f, -0.052446618676185607910f, -0.0094197466969490051270f, -0.11221130192279815674f, -0.063486605882644653320f, -0.0068680462427437305450f, -0.060560751706361770630f, -0.073408000171184539795f, -0.048438388854265213013f, -0.063595488667488098145f, -0.058927312493324279785f, 0.016677560284733772278f, -0.080239161849021911621f, 0.044717688113451004028f, 0.041703619062900543213f, -0.11811385303735733032f},
  {-0.10601922124624252319f, -0.091880448162555694580f, -0.071165986359119415283f, -0.086190603673458099365f, 0.045820508152246475220f, 0.12047585844993591309f, -0.036018170416355133057f, 0.049297101795673370361f, -0.023982694372534751892f, -0.048330351710319519043f, -0.0074336663819849491119f, 0.12792454659938812256f, -0.071345113217830657959f, 0.096909977495670318604f, 0.045803554356098175049f, -0.011032878421247005463f, -0.040525771677494049072f, -0.053233388811349868774f, 0.023357927799224853516f, -0.095102615654468536377f, -0.021001482382416725159f, -0.18026381731033325195f, 0.011480084620416164398f, -0.062574632465839385986f, -0.10748775303363800049f, -0.011291246861219406128f, 0.026191664859652519226f, 0.13195927441120147705f, 0.0066826199181377887726f, -0.14239618182182312012f, -0.14538785815238952637f, -0.089233100414276123047f, 0.048774592578411102295f, -0.010376756079494953156f, -0.11145421862602233887f, -0.032329000532627105713f, 0.0041158306412398815155f, 0.18374095857143402100f, 0.012190913781523704529f, 0.048521984368562698364f, -0.035726711153984069824f, -0.037910562008619308472f, -0.022698502987623214722f, -0.11173635721206665039f, 0.023394843563437461853f, 0.16975487768650054932f, 0.019197201356291770935f, -0.10292743146419525146f, 0.039832074195146560669f, 0.051114350557327270508f, 0.045050889253616333008f, 0.17637717723846435547f, 0.14161860942840576172f, 0.018559152260422706604f, 0.080993920564651489258f, -0.10144409537315368652f, -0.11551097035408020020f, -0.0031307968311011791229f, 0.0048991432413458824158f, -0.11632180958986282349f, 0.024741945788264274597f, 0.052250303328037261963f, -0.10621942579746246338f, 0.086986728012561798096f}
};
static const float tensor_Gemm_0_bias[50] = 
{-0.15783427655696868896f, 0.23274284601211547852f, 0.10873697698116302490f, 0.28507620096206665039f, -0.021646978333592414856f, 0.45433533191680908203f, 0.18470491468906402588f, -0.075911007821559906006f, 0.15671958029270172119f, -0.065202325582504272461f, -0.0056155310012400150299f, 0.21530337631702423096f, 0.27413615584373474121f, 0.059930711984634399414f, 0.013558423146605491638f, 0.39553734660148620605f, 0.16564778983592987061f, 0.014589453116059303284f, -0.18925426900386810303f, 0.67406582832336425781f, 0.083352692425251007080f, 0.16242508590221405029f, 0.049758199602365493774f, -0.082647204399108886719f, -0.058423578739166259766f, 0.22042445838451385498f, -0.11236785352230072021f, 0.19867850840091705322f, 0.14050687849521636963f, 0.25249034166336059570f, -0.029150096699595451355f, 0.33454069495201110840f, 0.15694755315780639648f, 0.21435835957527160645f, 0.15855474770069122314f, 0.14403392374515533447f, -0.027935633435845375061f, -0.12403194606304168701f, 0.26141133904457092285f, -0.017663197591900825500f, -0.056234061717987060547f, 0.055637735873460769653f, -0.011768283322453498840f, 0.53607439994812011719f, 0.14311504364013671875f, 0.096839584410190582275f, -0.17022608220577239990f, -0.091296404600143432617f, 0.42009502649307250977f, 0.061987839639186859131f};
static const float tensor_Gemm_1_weight[10][50] = 
{
  {-0.035764589905738830566f, -0.019620081409811973572f, 0.094597496092319488525f, 0.71266216039657592773f, -0.014030094258487224579f, 0.43133661150932312012f, -0.16571530699729919434f, -0.24613426625728607178f, -0.071522623300552368164f, 0.76794350147247314453f, -0.14348889887332916260f, 0.061040885746479034424f, -0.018206149339675903320f, -0.099799461662769317627f, 0.022960178554058074951f, -0.17829199135303497314f, 0.25537088513374328613f, -0.32645496726036071777f, -0.12815839052200317383f, -0.98929703235626220703f, -0.13534283638000488281f, -0.055449474602937698364f, 0.77414709329605102539f, -0.070662193000316619873f, -0.086817890405654907227f, -0.29512459039688110352f, -0.041911553591489791870f, -0.45833232998847961426f, 0.50033479928970336914f, -0.00039836508221924304962f, -0.26004108786582946777f, -0.37613227963447570801f, 0.24068912863731384277f, 0.087668426334857940674f, 0.50050806999206542969f, -0.18082694709300994873f, -0.13471676409244537354f, -0.11400997638702392578f, -0.60254544019699096680f, -0.37733525037765502930f, 0.017034061253070831299f, -0.59571939706802368164f, 0.61096751689910888672f, -0.40165936946868896484f, -0.47492888569831848145f, -0.14104095101356506348f, 0.010658678598701953888f, 0.047443144023418426514f, -0.54237389564514160156f, -0.025890907272696495056f},
  {-0.013502433896064758301f, 0.098995447158813476562f, -0.32269516587257385254f, 0.0087654152885079383850f, -0.089012295007705688477f, 0.091080531477928161621f, 0.39188656210899353027f, -0.31558993458747863770f, -0.29322108626365661621f, -0.69300901889801025391f, -0.022384420037269592285f, -0.67037057876586914062f, -0.21170331537723541260f, 0.025806732475757598877f, 0.081256426870822906494f, 0.45617365837097167969f, -0.14621458947658538818f, 0.060974486172199249268f, -0.37536707520484924316f, 1.3042721748352050781f, -0.051304977387189865112f, -0.022413918748497962952f, -0.69399005174636840820f, -0.12954564392566680908f, 0.062613174319267272949f, -0.13656853139400482178f, 0.11918247491121292114f, 0.14588145911693572998f, -0.46640515327453613281f, -0.78944349288940429688f, 0.30737110972404479980f, 0.61818277835845947266f, -0.53840523958206176758f, 0.13201694190502166748f, -0.42142981290817260742f, -0.20570066571235656738f, 0.047977697104215621948f, 0.099685966968536376953f, -0.19253256916999816895f, -0.32618507742881774902f, -0.067094512283802032471f, 0.12509067356586456299f, -0.96554660797119140625f, 0.56505173444747924805f, 0.12690757215023040771f, -0.088054358959197998047f, -0.27348485589027404785f, 0.063481941819190979004f, 0.30830630660057067871f, 0.084127709269523620605f},
  {-0.0065071959979832172394f, 0.15655994415283203125f, -0.38936054706573486328f, 0.38124823570251464844f, 0.10601451992988586426f, -0.61484128236770629883f, 0.081029988825321197510f, -0.010752187110483646393f, -0.33329826593399047852f, 0.49123150110244750977f, 0.11220264434814453125f, -0.57645767927169799805f, -0.69203245639801025391f, 0.24525083601474761963f, 0.011325434781610965729f, -0.26838749647140502930f, 0.55284798145294189453f, -0.091765731573104858398f, 0.33116778731346130371f, 0.18722052872180938721f, 0.057191405445337295532f, -0.19032423198223114014f, 0.65057152509689331055f, -0.057281076908111572266f, 0.098841458559036254883f, -0.40308415889739990234f, 0.042822364717721939087f, 0.010385444387793540955f, -0.42081224918365478516f, -0.34539651870727539062f, -0.11023744195699691772f, 0.19204872846603393555f, -0.0063773863948881626129f, -0.21588268876075744629f, -0.27872219681739807129f, -0.12764129042625427246f, -0.11044852435588836670f, -0.054302118718624114990f, -0.13164964318275451660f, -0.53199660778045654297f, 0.18184430897235870361f, 1.1448446512222290039f, 0.51096802949905395508f, -0.30455213785171508789f, 0.42681759595870971680f, -0.15143930912017822266f, -0.40115651488304138184f, 0.027299251407384872437f, -0.18277662992477416992f, 0.025222031399607658386f},
  {-0.093786485493183135986f, 0.19788841903209686279f, 0.15249298512935638428f, -0.77365481853485107422f, 0.11722126603126525879f, 1.0417922735214233398f, -0.24586053192615509033f, -0.25503137707710266113f, -0.41093790531158447266f, -0.32669055461883544922f, -0.12466797232627868652f, 0.099470473825931549072f, 0.091278634965419769287f, -0.071536667644977569580f, 0.080736726522445678711f, -0.22013257443904876709f, 0.23906113207340240479f, -0.19271436333656311035f, 0.38578495383262634277f, -0.047309238463640213013f, -0.27576345205307006836f, 0.027824331074953079224f, 0.42759817838668823242f, 0.0051982239820063114166f, -0.063504472374916076660f, -0.53357088565826416016f, -0.018892999738454818726f, 0.23075707256793975830f, -0.29357028007507324219f, 0.13259446620941162109f, 0.38152346014976501465f, 0.39838969707489013672f, -0.36895579099655151367f, 0.15398888289928436279f, -0.48032981157302856445f, -0.56582945585250854492f, 0.047762073576450347900f, -0.040821313858032226562f, -0.44573679566383361816f, 0.62765395641326904297f, -0.049860436469316482544f, 0.36112225055694580078f, 0.28898459672927856445f, -0.46548238396644592285f, -0.066828072071075439453f, -0.065791100263595581055f, -0.28006914258003234863f, -0.083667844533920288086f, -0.016972770914435386658f, 0.24611914157867431641f},
  {0.00047403751523233950138f, 0.079545304179191589355f, -0.0073396996594965457916f, -0.13503761589527130127f, -0.12707896530628204346f, -0.81243062019348144531f, -0.030685450881719589233f, 0.23599649965763092041f, 0.54193168878555297852f, -0.049811199307441711426f, -0.15231664478778839111f, 0.85584181547164916992f, -0.37899297475814819336f, -0.10097012668848037720f, 0.074638880789279937744f, -0.38624882698059082031f, -0.56678307056427001953f, -0.16219709813594818115f, -0.27613833546638488770f, -0.27213448286056518555f, 0.091483317315578460693f, 0.20773309469223022461f, -0.32308918237686157227f, -0.065386913716793060303f, 0.13284671306610107422f, 0.27886158227920532227f, -0.10988397151231765747f, 0.14227361977100372314f, -0.25103741884231567383f, -0.084982931613922119141f, -0.61554992198944091797f, 0.027587724849581718445f, 0.49851208925247192383f, -0.047140415757894515991f, -0.13209892809391021729f, 0.60376626253128051758f, 0.061555255204439163208f, -0.11657162755727767944f, 0.55333125591278076172f, 0.39811319112777709961f, -0.090483978390693664551f, -0.43725600838661193848f, 0.00043179775821045041084f, 0.76294177770614624023f, 0.34909763932228088379f, 0.38632598519325256348f, 0.20572122931480407715f, -0.11438085138797760010f, 0.40217411518096923828f, -0.071102000772953033447f},
  {0.011886999942362308502f, -0.28109845519065856934f, 0.37147983908653259277f, 0.23410901427268981934f, 0.11540971696376800537f, 0.68193626403808593750f, 0.10760130733251571655f, 0.10755216330289840698f, 0.30644494295120239258f, 0.38926607370376586914f, 0.060834854841232299805f, 0.15639701485633850098f, 0.033562332391738891602f, -0.15424996614456176758f, -0.13087011873722076416f, 0.58197873830795288086f, -0.0027175040449947118759f, -0.27486950159072875977f, 0.023860707879066467285f, -0.047075722366571426392f, 0.033206861466169357300f, 0.18395632505416870117f, -0.078024774789810180664f, -0.10760753601789474487f, 0.029619351029396057129f, 0.037578638643026351929f, 0.13206189870834350586f, -0.35310685634613037109f, 0.058004472404718399048f, 0.15596874058246612549f, 0.33297312259674072266f, -0.66176140308380126953f, -0.32266017794609069824f, 0.12611818313598632812f, -0.10243174433708190918f, -0.24988031387329101562f, -0.13873992860317230225f, 0.11857619881629943848f, 0.0038586871232837438583f, 0.16411781311035156250f, 0.023139482364058494568f, -0.70165461301803588867f, 0.11307403445243835449f, -0.17902727425098419189f, -0.38868126273155212402f, -0.10841931402683258057f, 0.16775776445865631104f, 0.10955833643674850464f, 0.016887957230210304260f, 0.27925780415534973145f},
  {-0.016837626695632934570f, 0.32284036278724670410f, 0.10197620093822479248f, 0.81496900320053100586f, -0.097706742584705352783f, -0.70567715167999267578f, -0.076669350266456604004f, 0.46161448955535888672f, 0.59261316061019897461f, 0.30081599950790405273f, -0.14030349254608154297f, -0.21943263709545135498f, -0.71043634414672851562f, 0.32304924726486206055f, 0.044581104069948196411f, 0.48379436135292053223f, 0.28768634796142578125f, 0.11337196826934814453f, -0.16380582749843597412f, 0.019857704639434814453f, 0.082159936428070068359f, -0.014319632202386856079f, 0.077820256352424621582f, 0.086404383182525634766f, -0.047689661383628845215f, -0.10203872621059417725f, -0.075285889208316802979f, -0.51885676383972167969f, -0.38033011555671691895f, -0.87757116556167602539f, -0.46797543764114379883f, -0.54251021146774291992f, 0.010252221487462520599f, 0.47777456045150756836f, -0.029650438576936721802f, 0.67186117172241210938f, -0.065649352967739105225f, 0.13209362328052520752f, 0.65499758720397949219f, -0.092991903424263000488f, -0.051156409084796905518f, 0.34250599145889282227f, -0.036265246570110321045f, -0.51520282030105590820f, 0.44268178939819335938f, 0.084830448031425476074f, 0.24065370857715606689f, 0.13048978149890899658f, -0.28865787386894226074f, 0.15368191897869110107f},
  {-0.060348410159349441528f, -0.11392064392566680908f, -0.036320377141237258911f, -0.91940158605575561523f, -0.13833966851234436035f, 0.084026016294956207275f, 0.084185637533664703369f, 0.0043037584982812404633f, -0.099206641316413879395f, -0.71062624454498291016f, 0.023830339312553405762f, -0.19946187734603881836f, 0.91663140058517456055f, -0.22160151600837707520f, 0.091667689383029937744f, -0.48962184786796569824f, -0.043959237635135650635f, 0.38459563255310058594f, -0.23299995064735412598f, -0.30500704050064086914f, -0.22600430250167846680f, -0.33175668120384216309f, 0.18916565179824829102f, 0.11592405289411544800f, -0.082197003066539764404f, 0.39949059486389160156f, 0.10688783228397369385f, 0.33967185020446777344f, 0.57275247573852539062f, 1.0971366167068481445f, -0.39292338490486145020f, 0.34106278419494628906f, 0.57298314571380615234f, -0.19150750339031219482f, 0.51168149709701538086f, -0.51913970708847045898f, -0.022622454911470413208f, 0.036745224148035049438f, -0.25419375300407409668f, -0.35980856418609619141f, -0.080341123044490814209f, -0.47765159606933593750f, -0.54197281599044799805f, 0.19312760233879089355f, -0.43021699786186218262f, 0.20801468193531036377f, -0.10928881168365478516f, -0.13261927664279937744f, 0.20149318873882293701f, 0.053351361304521560669f},
  {0.084701523184776306152f, -0.34558928012847900391f, 0.13011008501052856445f, 0.16705542802810668945f, -0.072586610913276672363f, -0.13179226219654083252f, 0.12311264872550964355f, 0.25895425677299499512f, 0.25481632351875305176f, 0.45048776268959045410f, -0.043397940695285797119f, -0.20961983501911163330f, -0.10064308345317840576f, -0.23550425469875335693f, -0.073175825178623199463f, 0.14245751500129699707f, -0.24069437384605407715f, 0.093147650361061096191f, 0.64824819564819335938f, 0.17123743891716003418f, 0.0077268024906516075134f, -0.015215308405458927155f, -0.28851360082626342773f, 0.12802837789058685303f, 0.0057258233428001403809f, 0.27838420867919921875f, -0.11786243319511413574f, 0.15747617185115814209f, -0.19757781922817230225f, -0.0067680855281651020050f, 0.89438319206237792969f, 0.076028153300285339355f, -0.15183472633361816406f, -0.34929794073104858398f, -0.073061138391494750977f, -0.037180546671152114868f, 0.095413446426391601562f, -0.13320164382457733154f, -0.30413427948951721191f, -0.10053611546754837036f, 0.13977752625942230225f, 0.086788788437843322754f, 0.080691829323768615723f, -0.18471907079219818115f, -0.094585768878459930420f, 0.14583981037139892578f, 0.61470139026641845703f, -0.10022007673978805542f, -0.14777120947837829590f, -0.12015493214130401611f},
  {0.057782318443059921265f, -0.0054991994984447956085f, -0.23133167624473571777f, -0.25696879625320434570f, -0.040719632059335708618f, -0.32953003048896789551f, 0.0025490506086498498917f, -0.017240496352314949036f, 0.13702616095542907715f, -0.48432037234306335449f, -0.039064835757017135620f, 0.43461182713508605957f, 0.58393251895904541016f, -0.11347620189189910889f, -0.054315369576215744019f, -0.36081641912460327148f, -0.41382527351379394531f, 0.47434076666831970215f, -0.25991293787956237793f, -0.11666094511747360229f, -0.17762260138988494873f, 0.16380403935909271240f, -0.40312656760215759277f, -0.0045693758875131607056f, -0.13766337931156158447f, 0.16680671274662017822f, 0.013830017298460006714f, 0.16673390567302703857f, 0.28642880916595458984f, 0.59795272350311279297f, -0.35863330960273742676f, 0.24383667111396789551f, 0.31053832173347473145f, -0.022459672763943672180f, 0.55538874864578247070f, 0.14062343537807464600f, 0.12123390287160873413f, -0.057772204279899597168f, 0.45416551828384399414f, 0.28694203495979309082f, 0.092743076384067535400f, -0.38411131501197814941f, -0.23669853806495666504f, 0.47489279508590698242f, 0.12860432267189025879f, 0.013622416183352470398f, 0.14315514266490936279f, -0.015278580598533153534f, 0.00013872617273591458797f, -0.13294050097465515137f}
};
static const float tensor_Gemm_1_bias[10] = 
{-0.19670495390892028809f, 0.50012820959091186523f, -0.058783043175935745239f, 0.013296240940690040588f, 0.060412071645259857178f, 0.20240098237991333008f, -0.11356497555971145630f, 0.29263481497764587402f, -0.39130115509033203125f, -0.17778064310550689697f};
float tensor_onnx__Gemm_5[1][64];
float tensor_onnx__Gemm_7[1][50];

float tensor_input[1][50];


static inline void node_Flatten_0( const float tensor_onnx__Flatten_0[1][64], float tensor_onnx__Gemm_5[1][64] )
{
	/* Flatten*/
	float *input = (float*)tensor_onnx__Flatten_0;
	float *output = (float*)tensor_onnx__Gemm_5;
	for( uint32_t i=0; i<64; i++ )
		output[i] = input[i];

}

static inline void node_Gemm_1( const float tensor_onnx__Gemm_5[1][64], const float tensor_Gemm_0_weight[50][64], const float tensor_Gemm_0_bias[50], float tensor_input[1][50] )
{
	/* Gemm */
	/* alpha   = 1.0000000000000000000
	   beta    = 1.0000000000000000000
	   transA  = 0
	   transB  = 1
	 */
	const int M = 1;
	const int K = 64;
	const int N = 50;
