
#ifndef ORIGINAL_H
#define ORIGINAL_H
// This file is computer-generated by onnx2c 
// (TODO: add creating command line here)
// (TODO: print creation date here )

// ONNX model:
// produced by pytorch, version 1.11.0
// ONNX IR version: 9
// Model documentation: 
/*

*/

#include <float.h>
#include <math.h>
#include <stdbool.h>
#include <stdint.h>
#include <string.h>
#define MAX(X,Y) ( X > Y ? X : Y)
#define MIN(X,Y) ( X < Y ? X : Y)
#define CLIP(X,L) ( MAX(MIN(X,L), -L) )

static const float tensor_Gemm_0_weight[50][64] = 
{
  {0.061342049390077590942f, 0.059987541288137435913f, -0.046990856528282165527f, 0.13539695739746093750f, 0.13108742237091064453f, 0.018472447991371154785f, -0.094676367938518524170f, -0.12404256314039230347f, 0.080507487058639526367f, 0.0070208208635449409485f, 0.083746850490570068359f, 0.44191047549247741699f, 0.31680834293365478516f, 0.088298067450523376465f, -0.014883515425026416779f, -0.093222267925739288330f, -0.099334254860877990723f, 0.036968864500522613525f, 0.16481487452983856201f, 0.13224495947360992432f, 0.096748843789100646973f, 0.063829548656940460205f, 0.092839047312736511230f, 0.13740649819374084473f, -0.045835074037313461304f, -0.090699084103107452393f, -0.28568109869956970215f, -0.055514078587293624878f, 0.015015634708106517792f, 0.11207776516675949097f, 0.096401095390319824219f, 0.0094002615660429000854f, -0.089043281972408294678f, -0.17926247417926788330f, -0.13467945158481597900f, 0.10441722720861434937f, -0.10046962648630142212f, 0.073827460408210754395f, 0.19784854352474212646f, -0.0069596567191183567047f, 0.039769336581230163574f, 0.28037413954734802246f, 0.32566189765930175781f, 0.28883770108222961426f, 0.076857574284076690674f, 0.43795630335807800293f, 0.13016639649868011475f, 0.14656013250350952148f, 0.033511869609355926514f, 0.032793220132589340210f, 0.38781908154487609863f, 0.14839981496334075928f, 0.26410222053527832031f, 0.0080036893486976623535f, -0.0054168556816875934601f, -0.097569361329078674316f, -0.015905607491731643677f, 0.083688177168369293213f, -0.10822182893753051758f, -0.052996434271335601807f, -0.054589595645666122437f, -0.10849566012620925903f, 0.012713102623820304871f, -0.078427255153656005859f},
  {-0.010541543364524841309f, -0.068605743348598480225f, -0.042149651795625686646f, -0.00014541562995873391628f, 0.028962949290871620178f, -0.086659781634807586670f, -0.0076751378364861011505f, 0.027616584673523902893f, -0.0080852704122662544250f, 0.049123086035251617432f, 0.22580312192440032959f, 0.22920598089694976807f, 0.29841265082359313965f, -0.026455795392394065857f, -0.081847235560417175293f, 0.035360492765903472900f, -0.019189642742276191711f, 0.015088804997503757477f, -0.10737690329551696777f, 0.13652446866035461426f, 0.019884016364812850952f, 0.10256835818290710449f, 0.21687784790992736816f, -0.039846237748861312866f, -0.036850698292255401611f, 0.041019488126039505005f, -0.094672001898288726807f, 0.30871039628982543945f, -0.25397449731826782227f, -0.28714805841445922852f, 0.11170791834592819214f, -0.084817968308925628662f, -0.0091776186600327491760f, 0.048942279070615768433f, 0.11536123603582382202f, -0.13538476824760437012f, -0.44010618329048156738f, 0.17674566805362701416f, 0.19979730248451232910f, 0.13865248858928680420f, 0.097171485424041748047f, 0.20334635674953460693f, 0.20237682759761810303f, 0.032190669327974319458f, 0.018939541652798652649f, 0.46672716736793518066f, 0.22627699375152587891f, -0.055975690484046936035f, -0.043683685362339019775f, 0.051197797060012817383f, 0.14316135644912719727f, 0.28134602308273315430f, 0.26434105634689331055f, 0.030604070052504539490f, 0.052277516573667526245f, -0.089710794389247894287f, -0.084556065499782562256f, 0.041960719972848892212f, 0.038196615874767303467f, 0.066490016877651214600f, 3.5295928682899102569e-05f, 0.052526991814374923706f, -0.12196524441242218018f, 0.088453993201255798340f},
  {0.12052422016859054565f, 0.025690549984574317932f, -0.082571707665920257568f, -0.089659027755260467529f, 0.034970793873071670532f, 0.019488936290144920349f, 0.060761418193578720093f, 0.12292174994945526123f, 0.12352062016725540161f, -0.089953228831291198730f, -0.044262316077947616577f, -0.10063678026199340820f, 0.085030466318130493164f, 0.068797461688518524170f, 0.038300320506095886230f, 0.035003487020730972290f, -0.011211675591766834259f, -0.055942770093679428101f, -0.021336210891604423523f, 0.10604425519704818726f, -0.10547209531068801880f, 0.0079818656668066978455f, 0.095029637217521667480f, -0.11819889396429061890f, 0.036820024251937866211f, 0.066743887960910797119f, -0.10570263862609863281f, 0.11096660047769546509f, -0.069610431790351867676f, -0.036576692014932632446f, -0.021814281120896339417f, 0.084697894752025604248f, 0.078928187489509582520f, -0.081658326089382171631f, -0.084547638893127441406f, 0.080549702048301696777f, -0.12345039099454879761f, 0.0028866631910204887390f, 0.10982652753591537476f, 0.077590070664882659912f, 0.067759566009044647217f, -0.10113571584224700928f, -0.052762456238269805908f, -0.034209966659545898438f, -0.066792048513889312744f, 0.087796576321125030518f, -0.057986326515674591064f, 0.034835174679756164551f, -0.0053295595571398735046f, 0.10651236772537231445f, 0.027345290407538414001f, -0.10733568668365478516f, 0.048852317035198211670f, 0.12639841437339782715f, -0.023581011220812797546f, -0.022124715149402618408f, 0.081782639026641845703f, -0.017504528164863586426f, 0.049958370625972747803f, 0.088533036410808563232f, 0.057731822133064270020f, -0.022508950904011726379f, -0.067206583917140960693f, -0.084820635616779327393f},
  {0.0098294271156191825867f, 0.032987326383590698242f, 0.086140267550945281982f, 0.11017766594886779785f, 0.15619865059852600098f, 0.025447202846407890320f, -0.065489135682582855225f, -0.076229006052017211914f, -0.11720775812864303589f, 0.075734399259090423584f, -0.010609488002955913544f, -0.066788457334041595459f, 0.15412646532058715820f, 0.13652142882347106934f, 0.11579496413469314575f, -0.0015060276491567492485f, -0.051875058561563491821f, -0.12415461242198944092f, -0.12515446543693542480f, -0.053627274930477142334f, -0.29909631609916687012f, -0.19213393330574035645f, -0.0025192592293024063110f, -0.053013470023870468140f, -0.11709798872470855713f, -0.047588136047124862671f, 0.40723335742950439453f, 0.13560798764228820801f, -0.37032428383827209473f, -0.016075739637017250061f, 0.20853126049041748047f, -0.095058523118495941162f, 0.049124058336019515991f, 0.21285878121852874756f, 0.52566236257553100586f, 0.21055193245410919189f, 0.13089875876903533936f, -0.030899116769433021545f, 0.29606670141220092773f, 0.12115458399057388306f, 0.0023393847513943910599f, -0.047367200255393981934f, 0.39904627203941345215f, 0.42671665549278259277f, 0.26347100734710693359f, 0.016535736620426177979f, 0.15903052687644958496f, 0.027876362204551696777f, -0.051146708428859710693f, -0.18231204152107238770f, -0.089505232870578765869f, -0.0058641443029046058655f, -0.0054698339663445949554f, -0.079392269253730773926f, -0.0096830818802118301392f, -0.025512870401144027710f, -0.046487778425216674805f, 0.0010946856345981359482f, -0.065018445253372192383f, -0.045760523527860641479f, -0.10096790641546249390f, -0.089275345206260681152f, -0.085317961871623992920f, -0.11609470844268798828f},
  {-0.11528594046831130981f, -0.099097959697246551514f, -0.0093338806182146072388f, -0.10570386797189712524f, 0.037183951586484909058f, -0.015271939337253570557f, -0.090515762567520141602f, 0.10846994817256927490f, -0.12274841219186782837f, 0.00035379320615902543068f, 0.073520980775356292725f, 0.029886353760957717896f, 0.0036443851422518491745f, -0.047124564647674560547f, -0.092157132923603057861f, -0.052181228995323181152f, -0.10375733673572540283f, 0.11141937226057052612f, -0.084444165229797363281f, -0.065836042165756225586f, 0.11824003607034683228f, -0.0012440413702279329300f, -0.031624887138605117798f, -0.083488672971725463867f, -0.0023304354399442672729f, 0.093716494739055633545f, 0.080880366265773773193f, -0.10548193752765655518f, -0.10782410949468612671f, 0.0016654828796163201332f, -0.032171037048101425171f, -0.045897748321294784546f, 0.017374876886606216431f, -0.050965931266546249390f, 0.060629203915596008301f, -0.10594876110553741455f, -0.029290106147527694702f, -0.11398632824420928955f, 0.014034830965101718903f, -0.038520328700542449951f, 0.074563488364219665527f, 0.049445156008005142212f, -0.0024268710985779762268f, -0.077968798577785491943f, 0.0011052768677473068237f, 0.076851196587085723877f, 0.10270382463932037354f, -0.089955128729343414307f, 0.030109990388154983521f, -0.098117262125015258789f, 0.0022033455315977334976f, -0.11142233759164810181f, -0.060387324541807174683f, -0.085928186774253845215f, 0.066236190497875213623f, 0.047740645706653594971f, -0.073679983615875244141f, -0.059808347374200820923f, 0.081294506788253784180f, 0.12478861957788467407f, -0.040676038712263107300f, -0.092737063765525817871f, 0.055893614888191223145f, -0.11674539744853973389f},
  {0.033741593360900878906f, -0.11992941051721572876f, -0.017721509560942649841f, -0.037456702440977096558f, -0.069633759558200836182f, -0.010432310402393341064f, -0.066416308283805847168f, -0.11396601796150207520f, 0.032349292188882827759f, -0.071955211460590362549f, 0.0079246507957577705383f, -0.14383314549922943115f, -0.12819248437881469727f, 0.076238743960857391357f, 0.12658675014972686768f, 0.062704041600227355957f, -0.10130231082439422607f, 0.031942032277584075928f, -0.12189348787069320679f, 0.028177114203572273254f, 0.40746662020683288574f, 0.16453629732131958008f, 0.048624511808156967163f, 0.14598247408866882324f, -0.10287113487720489502f, 0.0073533724062144756317f, 0.14298559725284576416f, 0.17797248065471649170f, 0.42702662944793701172f, -0.14641228318214416504f, 0.0090187788009643554688f, -0.049989212304353713989f, -0.029261877760291099548f, -0.029131039977073669434f, -0.20329916477203369141f, 0.017990184947848320007f, -0.044011250138282775879f, -0.12624964118003845215f, 0.027067933231592178345f, -0.13604448735713958740f, 0.059954557567834854126f, -0.096654690802097320557f, -0.26548111438751220703f, -0.30196511745452880859f, -0.15182787179946899414f, 0.060083698481321334839f, -0.12840472161769866943f, -0.12812344729900360107f, 0.11425170302391052246f, 0.064892619848251342773f, 0.16007365286350250244f, 0.15070462226867675781f, 0.21589477360248565674f, 0.052370481193065643311f, -0.061124227941036224365f, 0.070754885673522949219f, 0.086747787892818450928f, 0.038925740867853164673f, -0.072603277862071990967f, 0.00053747656056657433510f, 0.11657693237066268921f, 0.086127154529094696045f, 0.011056919582188129425f, -0.078483246266841888428f},
  {-0.085824288427829742432f, -0.099970288574695587158f, -0.080968171358108520508f, 0.017419088631868362427f, -0.055847235023975372314f, -0.031319160014390945435f, 0.018200719729065895081f, -0.0049612042494118213654f, -0.040367085486650466919f, 0.030892100185155868530f, 0.0043787080794572830200f, 0.029005412012338638306f, 0.10443092137575149536f, 0.016769707202911376953f, 0.042541373521089553833f, 0.020147301256656646729f, -0.064593195915222167969f, -0.090614005923271179199f, -0.051573332399129867554f, -0.090555913746356964111f, -0.26534748077392578125f, -0.052910022437572479248f, 0.0048370603471994400024f, -0.069503471255302429199f, 0.0015181954950094223022f, 0.0039128451608121395111f, 0.18803927302360534668f, -0.0055117676965892314911f, 0.32650816440582275391f, -0.11094893515110015869f, -0.098399013280868530273f, -0.039226446300745010376f, -0.099153190851211547852f, 0.020389804616570472717f, -0.057350866496562957764f, 0.52340757846832275391f, 0.47713637351989746094f, -0.23441761732101440430f, -0.064471609890460968018f, 0.043367404490709304810f, -0.023406356573104858398f, -0.097143575549125671387f, 0.10246679186820983887f, 0.30946734547615051270f, 0.12771931290626525879f, -0.10605304688215255737f, -0.055717617273330688477f, 0.11218302696943283081f, -0.082951501011848449707f, 0.014562560245394706726f, -0.063391931354999542236f, -0.078548915684223175049f, 0.10985892266035079956f, 0.16487970948219299316f, 0.011913251131772994995f, 0.037913996726274490356f, -0.0067883352749049663544f, -0.12896360456943511963f, -0.075593672692775726318f, -0.0095150256529450416565f, -0.10323143750429153442f, 0.077392324805259704590f, 0.097402520477771759033f, -0.055154040455818176270f},
  {-0.021760782226920127869f, 0.040518846362829208374f, 0.082683868706226348877f, 0.093204468488693237305f, -0.080934971570968627930f, -0.10527383536100387573f, -0.033670090138912200928f, 0.10383877903223037720f, 0.012491286732256412506f, 0.097307808697223663330f, -0.060939423739910125732f, -0.041474215686321258545f, -0.047158371657133102417f, 0.053557354956865310669f, -0.078368872404098510742f, -0.038754094392061233521f, 0.084596306085586547852f, -0.052767004817724227905f, 0.11319430917501449585f, -0.023215968161821365356f, -0.083392567932605743408f, -0.031416416168212890625f, -0.0074283624999225139618f, 0.057508438825607299805f, -0.12278699129819869995f, -0.081227086484432220459f, 0.24616740643978118896f, 0.18417418003082275391f, 0.092619433999061584473f, 0.11745925992727279663f, 0.10857057571411132812f, -0.095814488828182220459f, -0.027961926534771919250f, -0.090723678469657897949f, 0.15705783665180206299f, 0.0029592995997518301010f, 0.10648414492607116699f, 0.10294541716575622559f, 0.072928540408611297607f, -0.072921700775623321533f, 0.070846363902091979980f, -0.17604759335517883301f, -0.17004282772541046143f, 0.15564620494842529297f, 0.17505393922328948975f, -0.16563281416893005371f, -0.14489433169364929199f, 0.079656817018985748291f, -0.042597085237503051758f, -0.13585439324378967285f, -0.049888577312231063843f, -0.033684186637401580811f, 0.12722711265087127686f, 0.077242508530616760254f, -0.067135743796825408936f, 0.033732149749994277954f, -0.045724861323833465576f, -0.12384653091430664062f, -0.0033487945329397916794f, 0.10562287271022796631f, -0.0044303364120423793793f, 0.069879852235317230225f, 0.00086827628547325730324f, -0.023259026929736137390f},
  {-0.030546655878424644470f, 0.018480641767382621765f, -0.017887668684124946594f, -0.010289036668837070465f, 0.12346539646387100220f, 0.14667555689811706543f, -0.057930253446102142334f, 0.065222941339015960693f, 0.026571158319711685181f, -0.13565430045127868652f, -0.10462386161088943481f, 0.0091811614111065864563f, 0.051225192844867706299f, 0.027844430878758430481f, 0.090560220181941986084f, 0.0073053152300417423248f, 0.014799959957599639893f, -0.023627407848834991455f, 0.11774637550115585327f, 0.14884468913078308105f, -0.24903547763824462891f, -0.031290829181671142578f, 0.071818128228187561035f, 0.012891175225377082825f, -0.0086195403710007667542f, -0.13003952801227569580f, 0.11647089570760726929f, 0.23760639131069183350f, -0.23533709347248077393f, 0.11973323673009872437f, 0.046589151024818420410f, 0.041012477129697799683f, -0.034599781036376953125f, -0.049618460237979888916f, 0.051588762551546096802f, 0.32466429471969604492f, -0.093175262212753295898f, 0.048371437937021255493f, 0.028062891215085983276f, -0.11039313673973083496f, 0.068718381226062774658f, 0.0086610009893774986267f, 0.22675739228725433350f, 0.16363368928432464600f, 0.066126354038715362549f, -0.039790246635675430298f, 0.082144439220428466797f, 0.090832993388175964355f, -0.012429695576429367065f, -0.076879009604454040527f, 0.024676626548171043396f, 0.081063210964202880859f, 0.16933514177799224854f, 0.092709198594093322754f, 0.069560475647449493408f, -0.041214454919099807739f, -0.018301799893379211426f, -0.099470674991607666016f, -0.078805394470691680908f, -0.050017703324556350708f, -0.12617780268192291260f, -0.015963232144713401794f, 0.091828204691410064697f, 0.057751197367906570435f},
  {-0.11029487103223800659f, 0.12158592790365219116f, -0.12267788499593734741f, -0.059541117399930953979f, 0.091821953654289245605f, 0.074788242578506469727f, 0.032886613160371780396f, -0.062284216284751892090f, -0.11121065914630889893f, -0.13130980730056762695f, -0.029437497258186340332f, -0.16444352269172668457f, -0.018157072365283966064f, 0.14023624360561370850f, 0.12075550109148025513f, 0.076046869158744812012f, -0.074963212013244628906f, -0.029196424409747123718f, -0.054309211671352386475f, -0.035301748663187026978f, -0.14958816766738891602f, 0.10325605422258377075f, -0.062179055064916610718f, 0.034403320401906967163f, -0.022415438666939735413f, -0.044323574751615524292f, 0.12746246159076690674f, -0.047643948346376419067f, -0.057286050170660018921f, 0.11155714839696884155f, -0.068629302084445953369f, -0.0034519585315138101578f, -0.11410634219646453857f, 0.053517803549766540527f, 0.17469283938407897949f, 0.086412079632282257080f, 0.20166960358619689941f, 0.088115297257900238037f, 0.038452088832855224609f, -0.025052329525351524353f, 0.099894002079963684082f, -0.14790357649326324463f, 0.10450810194015502930f, 0.13282909989356994629f, 0.079804517328739166260f, -0.076237529516220092773f, 0.090931318700313568115f, 0.11835952103137969971f, -0.12184324115514755249f, -0.085178412497043609619f, 0.014976111240684986115f, -0.12189820408821105957f, 0.10407759994268417358f, 0.13869228959083557129f, -0.050250049680471420288f, 0.0068868133239448070526f, 0.095232814550399780273f, -0.046762492507696151733f, -0.12981577217578887939f, 0.025761995464563369751f, 0.041308362036943435669f, 0.059829372912645339966f, -0.10728421062231063843f, 0.068384513258934020996f},
  {0.037567418068647384644f, 0.089913457632064819336f, 0.087556429207324981689f, -0.12864610552787780762f, -0.020966596901416778564f, -0.053984995931386947632f, -0.019454089924693107605f, -0.12191794812679290771f, -0.081482879817485809326f, 0.017481917515397071838f, 0.061400767415761947632f, -0.0044153202325105667114f, 0.016266021877527236938f, 0.0053190989419817924500f, -0.048095174133777618408f, -0.035487946122884750366f, 0.066684767603874206543f, 0.089003622531890869141f, 0.079810976982116699219f, 0.26548066735267639160f, 0.24608345329761505127f, 0.34116646647453308105f, 0.0095728756859898567200f, -0.093220353126525878906f, 0.11914850026369094849f, 0.10852588713169097900f, 0.011280171573162078857f, 0.025180185213685035706f, -0.16146294772624969482f, 0.33987835049629211426f, 0.22623680531978607178f, 0.064807020127773284912f, 0.0064820493571460247040f, 0.0019999248906970024109f, 0.13953283429145812988f, 0.0096460534259676933289f, -0.030564099550247192383f, 0.13656187057495117188f, 0.056428860872983932495f, 0.035948567092418670654f, 0.0043635587207973003387f, 0.089895308017730712891f, -0.081611536443233489990f, -0.14625762403011322021f, -0.054196704179048538208f, -0.083170406520366668701f, -0.082541331648826599121f, -0.0020528470631688833237f, -0.11708669364452362061f, -0.12152954190969467163f, 0.068780407309532165527f, 0.012960261665284633636f, -0.064160667359828948975f, -0.047012101858854293823f, -0.024104582145810127258f, 0.089906863868236541748f, -0.12223310023546218872f, -0.037936229258775711060f, 0.094883568584918975830f, 0.090547256171703338623f, -0.014024873264133930206f, -0.015124937519431114197f, -0.030213600024580955505f, -0.023882627487182617188f},
  {-0.041966173797845840454f, -0.050248477607965469360f, -0.016779147088527679443f, 0.020407356321811676025f, -0.038410857319831848145f, -0.094645336270332336426f, -0.039198625832796096802f, 0.076588690280914306641f, -0.023031653836369514465f, 0.11863659322261810303f, 0.066782958805561065674f, 0.064057148993015289307f, 0.077798739075660705566f, -0.093282096087932586670f, 0.079079613089561462402f, -0.055552594363689422607f, 0.025528768077492713928f, 0.051998104900121688843f, 0.15408968925476074219f, 0.26165720820426940918f, 0.26628941297531127930f, 0.098630338907241821289f, 0.018003312870860099792f, -0.037125155329704284668f, 0.0072133843787014484406f, 0.14334592223167419434f, 0.30779415369033813477f, 0.31419733166694641113f, 0.16895623505115509033f, 0.12229173630475997925f, 0.075960248708724975586f, 0.0049994783475995063782f, -0.091408409178256988525f, 0.051979895681142807007f, 0.037957459688186645508f, 0.044314462691545486450f, 0.21932420134544372559f, 0.10323891043663024902f, -0.027428712695837020874f, -0.057415563613176345825f, 0.11171187460422515869f, -0.13180099427700042725f, -0.32436093688011169434f, -0.34582760930061340332f, -0.13020280003547668457f, -0.090620756149291992188f, -0.24771288037300109863f, -0.041171468794345855713f, -0.010934899561107158661f, -0.088319174945354461670f, 0.062064230442047119141f, 0.061766769737005233765f, 0.15941581130027770996f, 0.047640103846788406372f, -0.14827720820903778076f, -0.12815426290035247803f, -0.047265298664569854736f, -0.038971200585365295410f, 0.15222294628620147705f, 0.049703270196914672852f, 0.048721421509981155396f, 0.14425405859947204590f, 0.017693739384412765503f, -0.024089850485324859619f},
  {0.062733814120292663574f, 0.022283306345343589783f, -0.0077728256583213806152f, 0.093930557370185852051f, -0.027277385815978050232f, 0.086265705525875091553f, -0.098559886217117309570f, 0.023942125961184501648f, 0.10534071177244186401f, 0.054661590605974197388f, -0.041819222271442413330f, 0.015716336667537689209f, 0.088381782174110412598f, 0.070567853748798370361f, 0.081014648079872131348f, 0.035734195262193679810f, -0.066446490585803985596f, 0.053689990192651748657f, -0.086471542716026306152f, 0.14316105842590332031f, 0.17635868489742279053f, 0.15314488112926483154f, 0.14848496019840240479f, 0.072050467133522033691f, -0.085615485906600952148f, -0.022943692281842231750f, 0.11574832350015640259f, 0.35869351029396057129f, 0.012732530012726783752f, -0.27004683017730712891f, 0.045299533754587173462f, 0.0081004863604903221130f, -0.047632660716772079468f, -0.041541751474142074585f, 0.058850519359111785889f, -0.098119214177131652832f, -0.25208088755607604980f, -0.040872503072023391724f, 0.093485303223133087158f, 0.094374909996986389160f, -0.038373988121747970581f, -0.011669551022350788116f, 0.0043946863152086734772f, -0.15916313230991363525f, -0.019036535173654556274f, 0.0041953995823860168457f, -0.031470540910959243774f, 0.0038497380446642637253f, -0.00084713147953152656555f, 0.0069490526802837848663f, 0.13694946467876434326f, 0.15405465662479400635f, 0.071098521351814270020f, 0.00032523166737519204617f, -0.075579755008220672607f, -0.081745423376560211182f, 0.076055236160755157471f, -0.057057473808526992798f, 0.052951402962207794189f, -0.052677251398563385010f, -0.015098306350409984589f, -0.11090605705976486206f, -0.11346997320652008057f, 0.12425795942544937134f},
  {0.0093131139874458312988f, -0.026627555489540100098f, -0.12013480067253112793f, -0.0097633367404341697693f, 0.063207320868968963623f, 0.10471399128437042236f, -0.062320325523614883423f, -0.037492841482162475586f, 0.053382311016321182251f, -0.060502137988805770874f, 0.00084979069652035832405f, 0.017103979364037513733f, -0.027893301099538803101f, 0.086061254143714904785f, -0.058517027646303176880f, -0.023008011281490325928f, 0.053238868713378906250f, -0.13726434111595153809f, -0.090008124709129333496f, 0.091103918850421905518f, -0.046605043113231658936f, -0.13019928336143493652f, -0.16823631525039672852f, 0.063952088356018066406f, 0.10138738900423049927f, 0.080636024475097656250f, 0.19804754853248596191f, -0.082499414682388305664f, 0.044285077601671218872f, 0.041005443781614303589f, -0.053909756243228912354f, -0.063137285411357879639f, 0.086355559527873992920f, -0.038029126822948455811f, 0.031702220439910888672f, 0.15368495881557464600f, 0.098477318882942199707f, 0.16413681209087371826f, -0.060272965580224990845f, -0.0065421359613537788391f, 0.099317133426666259766f, 0.080916710197925567627f, -0.11343892663717269897f, 0.080194137990474700928f, 0.0091807981953024864197f, -0.030040865764021873474f, 0.047653999179601669312f, -0.020870972424745559692f, 0.012231033295392990112f, 0.045728046447038650513f, -0.063696883618831634521f, -0.059292562305927276611f, -0.0042534046806395053864f, -0.028701484203338623047f, -0.11965736001729965210f, -0.018677588552236557007f, -0.093564033508300781250f, 0.095628276467323303223f, -0.071179941296577453613f, -0.0019794011022895574570f, 0.098582848906517028809f, -0.015712466090917587280f, 0.088989228010177612305f, 0.013132003135979175568f},
  {0.068826496601104736328f, -0.094042971730232238770f, 0.11388777941465377808f, 0.035124871879816055298f, 0.11281017214059829712f, -0.044003862887620925903f, -0.038709398359060287476f, -0.0074533107690513134003f, -0.096219137310981750488f, 0.040213122963905334473f, 0.062977626919746398926f, 0.095484301447868347168f, 0.096501745283603668213f, -0.040833305567502975464f, 0.0010953817982226610184f, -0.077950209379196166992f, -0.10371864587068557739f, 0.039226781576871871948f, -0.057903420180082321167f, -0.068512327969074249268f, -0.095100924372673034668f, 0.022502487525343894958f, -0.11410994827747344971f, 0.073775596916675567627f, -0.094178773462772369385f, -0.10382068157196044922f, 0.056754473596811294556f, -0.12091124057769775391f, -0.12204286456108093262f, -0.11516246199607849121f, -0.017976675182580947876f, -0.016689047217369079590f, 0.033238533884286880493f, 0.11068324744701385498f, -0.020829185843467712402f, -0.070684544742107391357f, -0.087888404726982116699f, 0.10896456241607666016f, 0.087068989872932434082f, 0.079036682844161987305f, -0.094686515629291534424f, 0.0091428430750966072083f, 0.044614456593990325928f, -0.013630611822009086609f, -0.10747320204973220825f, -0.10489909350872039795f, 0.11028244346380233765f, -0.057911161333322525024f, -0.070432662963867187500f, -0.043526045978069305420f, -0.093552753329277038574f, 0.041947476565837860107f, -0.037186723202466964722f, -0.076324746012687683105f, -0.067414440214633941650f, -0.096726059913635253906f, 0.0046828091144561767578f, 0.060221202671527862549f, -0.010787994600832462311f, -0.078322745859622955322f, -0.025318559259176254272f, 0.028668371960520744324f, -0.065406136214733123779f, -0.042986068874597549438f},
  {0.065393976867198944092f, 0.10891257971525192261f, -0.052972972393035888672f, 0.014180030673742294312f, 0.10427095741033554077f, 0.15491327643394470215f, -0.040546793490648269653f, 0.064872384071350097656f, 0.11004428565502166748f, -0.018608704209327697754f, -0.074592649936676025391f, -0.10653667896986007690f, 0.18128444254398345947f, 0.18382711708545684814f, 0.029470771551132202148f, -0.075496003031730651855f, -0.052043810486793518066f, -0.025760574266314506531f, -0.10427854955196380615f, 0.036656506359577178955f, 0.032150819897651672363f, -0.12111363559961318970f, 0.15478180348873138428f, 0.090721465647220611572f, -0.090944916009902954102f, 0.0071658203378319740295f, 0.27996250987052917480f, 0.59369391202926635742f, -0.43743130564689636230f, -0.27145758271217346191f, 0.21602240204811096191f, 0.053008746355772018433f, 0.036129787564277648926f, 0.0019063752843067049980f, 0.39811760187149047852f, -0.076392687857151031494f, -0.36380472779273986816f, 0.052049595862627029419f, 0.089862398803234100342f, 0.038267169147729873657f, -0.11971685290336608887f, 0.0059601939283311367035f, 0.30253750085830688477f, 0.064687609672546386719f, 0.096396677196025848389f, 0.37461528182029724121f, -0.053962655365467071533f, 0.075320988893508911133f, 0.016072839498519897461f, -0.11934468895196914673f, 0.16140845417976379395f, 0.23982043564319610596f, 0.087038315832614898682f, 0.0053646704182028770447f, -0.11128813028335571289f, 0.091142095625400543213f, 0.090946733951568603516f, -0.12562042474746704102f, 0.013883150182664394379f, 0.0084599331021308898926f, 0.018008092418313026428f, 0.042907431721687316895f, 0.064208582043647766113f, -0.071451447904109954834f},
  {0.089878022670745849609f, 0.0071838218718767166138f, -0.071874707937240600586f, -0.022502511739730834961f, 0.030626945197582244873f, -0.074446052312850952148f, -0.054336387664079666138f, -0.061150353401899337769f, -0.065506741404533386230f, 0.049087770283222198486f, -0.14629039168357849121f, -0.12979768216609954834f, 0.080822736024856567383f, -0.029732922092080116272f, 0.072027102112770080566f, 0.098610714077949523926f, 0.052168235182762145996f, -0.067313328385353088379f, -0.066070348024368286133f, -0.094221778213977813721f, 0.0050131273455917835236f, -0.14806266129016876221f, -0.065996386110782623291f, -0.017649373039603233337f, -0.0068424874916672706604f, -0.039117272943258285522f, 0.032421614974737167358f, 0.14005830883979797363f, 0.043990891426801681519f, -0.17214938998222351074f, -0.14246517419815063477f, 0.014528006315231323242f, 0.071866497397422790527f, 0.075883828103542327881f, -0.020404288545250892639f, 0.053710900247097015381f, 0.051384445279836654663f, -0.066345706582069396973f, -0.10896491259336471558f, -0.089352205395698547363f, -0.025077899917960166931f, -0.053473863750696182251f, 0.044837504625320434570f, 0.037419285625219345093f, 0.11271861195564270020f, 0.029760174453258514404f, -0.055117193609476089478f, 0.089290395379066467285f, -0.019889522343873977661f, -0.051434107124805450439f, -0.048155654221773147583f, 0.10310558974742889404f, 0.0047888150438666343689f, 0.12214554101228713989f, 0.095930226147174835205f, -0.061297751963138580322f, -0.10636356472969055176f, -0.052423730492591857910f, 0.037081938236951828003f, -0.0052633616141974925995f, 0.024761317297816276550f, 0.0081958910450339317322f, -0.12172608077526092529f, 0.099742189049720764160f},
  {-0.028634209185838699341f, -0.087595768272876739502f, 0.033707085996866226196f, 0.039581004530191421509f, 0.036275204271078109741f, -0.064557544887065887451f, 0.032855458557605743408f, 0.10631807148456573486f, -0.10484051704406738281f, -0.098517619073390960693f, -0.11645336449146270752f, 0.044052630662918090820f, -0.042505711317062377930f, -0.11440880596637725830f, -0.060182977467775344849f, 0.10388097912073135376f, 0.061338353902101516724f, 0.00027225274243392050266f, 0.0056875613518059253693f, -0.016809891909360885620f, 0.092681959271430969238f, -0.031492751091718673706f, -0.082221150398254394531f, 0.0088848536834120750427f, -0.067276120185852050781f, -0.062329847365617752075f, 0.011138777248561382294f, 0.072516202926635742188f, 0.10169219225645065308f, 0.025327527895569801331f, 0.059463024139404296875f, -0.074302479624748229980f, 0.10184632986783981323f, 0.035622853785753250122f, -0.021909223869442939758f, -0.052743546664714813232f, 0.10368734598159790039f, 0.034502606838941574097f, 0.044654816389083862305f, -0.087603732943534851074f, -0.019254326820373535156f, 0.056781012564897537231f, -0.025000657886266708374f, -0.039354436099529266357f, -0.073045693337917327881f, -0.013633664697408676147f, 0.0023513631895184516907f, -0.096169956028461456299f, -0.037866204977035522461f, 0.11827588826417922974f, 0.0098799495026469230652f, -0.049740515649318695068f, -0.12833426892757415771f, -0.11428681015968322754f, 0.10960287600755691528f, -0.023146582767367362976f, -0.069293342530727386475f, -0.026112336665391921997f, 0.011779516935348510742f, 0.051519814878702163696f, 0.088495485484600067139f, 0.038334548473358154297f, -0.094715662300586700439f, -0.040302719920873641968f},
  {0.10542363673448562622f, 0.11837469041347503662f, 0.10576596111059188843f, 0.0088353371247649192810f, 0.015274531207978725433f, -0.0082898708060383796692f, 0.010742098093032836914f, -0.10438580065965652466f, -0.087075427174568176270f, 0.010608786717057228088f, 0.17635844647884368896f, 0.15931032598018646240f, 0.065594449639320373535f, 0.10729101300239562988f, -0.086531259119510650635f, 0.084130786359310150146f, 0.039807740598917007446f, 0.077317252755165100098f, 0.25533697009086608887f, 0.23896618187427520752f, 0.056271601468324661255f, 0.26050591468811035156f, 0.088265947997570037842f, 0.10470856726169586182f, -0.073084503412246704102f, 0.056634716689586639404f, -0.093559771776199340820f, -0.25195616483688354492f, 0.13033059239387512207f, 0.25110676884651184082f, -0.010238485410809516907f, 0.072763487696647644043f, 0.059557419270277023315f, 0.023762188851833343506f, -0.18893618881702423096f, 0.12697578966617584229f, 0.23185527324676513672f, -0.10901754349470138550f, 0.055942110717296600342f, 0.0019322929438203573227f, -0.041259527206420898438f, -0.035578366369009017944f, 0.13425086438655853271f, 0.29064190387725830078f, 0.14728040993213653564f, 0.063158467411994934082f, 0.10640081018209457397f, 0.11386501789093017578f, 0.12201734632253646851f, 0.030206447467207908630f, 0.038667954504489898682f, 0.10084595531225204468f, -0.070740461349487304688f, 0.13709677755832672119f, 0.025359679013490676880f, -0.036886159330606460571f, 0.042611528187990188599f, 0.033705625683069229126f, -0.074469782412052154541f, 0.10875192284584045410f, -0.0032334392890334129333f, 0.082517892122268676758f, 0.11684832721948623657f, -0.029939146712422370911f},
  {0.086802326142787933350f, 0.12467997521162033081f, -0.10742656886577606201f, 0.093944624066352844238f, 0.045875936746597290039f, -0.094464123249053955078f, -0.092317223548889160156f, -0.096159301698207855225f, -0.013051862828433513641f, -0.092770129442214965820f, -0.12582649290561676025f, -0.088426969945430755615f, -0.016913153231143951416f, 0.13724841177463531494f, -0.087013028562068939209f, -0.010510774329304695129f, -0.11609717458486557007f, 0.11882963776588439941f, -0.10648077726364135742f, -0.053937837481498718262f, 0.065183043479919433594f, -0.072136640548706054688f, -0.049017846584320068359f, 0.062504127621650695801f, 0.12502619624137878418f, 0.011833898723125457764f, 0.066132411360740661621f, -0.066908665001392364502f, 0.33486971259117126465f, -0.064815349876880645752f, -0.16215117275714874268f, 0.028181176632642745972f, -0.087468586862087249756f, -0.043462600558996200562f, -0.055721621960401535034f, 0.11565344035625457764f, 0.29505145549774169922f, -0.14219363033771514893f, 0.060505833476781845093f, -0.10855751484632492065f, -0.048715688288211822510f, -0.10876437276601791382f, -0.048857122659683227539f, 0.10425715893507003784f, 0.097825437784194946289f, -0.081302680075168609619f, -0.091023527085781097412f, -0.11615707725286483765f, -0.079773962497711181641f, -0.058404739946126937866f, -0.067435033619403839111f, -0.00058711058227345347404f, -0.012818179093301296234f, 0.10420393198728561401f, -0.025623666122555732727f, 0.021716307848691940308f, 0.11667024344205856323f, 0.070849940180778503418f, -0.12836618721485137939f, 0.016486722975969314575f, -0.10693537443876266479f, 0.11243521422147750854f, 0.12608420848846435547f, 0.097950577735900878906f},
  {-0.058564171195030212402f, 0.090090416371822357178f, -0.011782943271100521088f, 0.053269829601049423218f, 0.096039757132530212402f, 0.010729062370955944061f, 0.015346768312156200409f, 0.043086197227239608765f, -0.058173127472400665283f, -0.079579658806324005127f, -0.028950285166501998901f, -0.094528712332248687744f, 0.034866172820329666138f, -0.0092598320916295051575f, 0.011136075481772422791f, 0.037001565098762512207f, -0.073361918330192565918f, 0.0039324220269918441772f, -0.11158796399831771851f, -0.045316949486732482910f, -0.11603215336799621582f, 0.051218803972005844116f, -0.026382746174931526184f, -0.010343136265873908997f, 0.011278615333139896393f, 0.11401229351758956909f, 0.020301580429077148438f, 0.015312108211219310760f, -0.017496660351753234863f, -0.11414572596549987793f, 0.015182946808636188507f, 0.12234143912792205811f, -0.012105950154364109039f, -0.12182087451219558716f, 0.049535378813743591309f, -0.021695993840694427490f, 0.040284819900989532471f, -0.078243948519229888916f, -0.094151206314563751221f, -0.10169033706188201904f, 0.00045925844460725784302f, 0.071517311036586761475f, 0.044311117380857467651f, 0.085595086216926574707f, -0.10651244968175888062f, 0.037006225436925888062f, -0.031847245991230010986f, 0.053464833647012710571f, -0.080828495323657989502f, -0.096808508038520812988f, -0.014009861275553703308f, 0.065004356205463409424f, 0.033125426620244979858f, 0.079093158245086669922f, -0.10187570750713348389f, -0.046809785068035125732f, 0.046273738145828247070f, -0.013026652857661247253f, -0.079160004854202270508f, -0.10110002756118774414f, 0.10391521453857421875f, -0.058058045804500579834f, -0.044699475169181823730f, -0.057852748781442642212f},
  {-0.084198847413063049316f, 0.084524616599082946777f, 0.024500805884599685669f, -0.0020250333473086357117f, 0.0056656529195606708527f, 0.079778634011745452881f, -0.026804596185684204102f, 0.025092549622058868408f, -0.099130146205425262451f, -0.048981819301843643188f, -0.011436160653829574585f, -0.045648787170648574829f, -0.076758705079555511475f, -0.091074906289577484131f, 0.14300164580345153809f, 0.053514339029788970947f, -0.11442966014146804810f, -0.075938500463962554932f, -0.038084991276264190674f, -0.088686957955360412598f, 0.10170452296733856201f, -0.088089510798454284668f, -0.023435192182660102844f, -0.10452667623758316040f, 0.022294409573078155518f, 0.045488446950912475586f, -0.0016101819928735494614f, 0.16838125884532928467f, 0.075624778866767883301f, -0.047080095857381820679f, -0.13829913735389709473f, -0.0021296904888004064560f, 0.023352069780230522156f, 0.036873631179332733154f, 0.037477400153875350952f, 0.12896293401718139648f, 0.035057581961154937744f, -0.017121339216828346252f, 0.0080094812437891960144f, -0.087398461997509002686f, 0.074155390262603759766f, -0.066093392670154571533f, -0.18769364058971405029f, 0.032190114259719848633f, -0.028479412198066711426f, 0.053464867174625396729f, -0.010153499431908130646f, 0.069992654025554656982f, -0.0079382313415408134460f, 0.050215791910886764526f, -0.10725345462560653687f, 0.070889249444007873535f, -0.077520824968814849854f, 0.097486853599548339844f, 0.022119466215372085571f, 0.10987969487905502319f, 0.11697536706924438477f, 0.076529659330844879150f, -0.060472276061773300171f, -0.10650312155485153198f, -0.089634068310260772705f, 0.10388471186161041260f, -0.052022036164999008179f, 0.021811837330460548401f},
  {0.046573758125305175781f, 0.074806831777095794678f, -0.12326962500810623169f, 0.042030189186334609985f, -0.071935355663299560547f, -0.15623457729816436768f, 0.023626882582902908325f, -0.092217154800891876221f, -0.050537120550870895386f, 0.11814082413911819458f, 0.10383217036724090576f, 0.030468104407191276550f, 0.026362810283899307251f, 0.017948210239410400391f, 0.10894652456045150757f, 0.13642473518848419189f, -0.047697402536869049072f, 0.18677632510662078857f, 0.098867520689964294434f, 0.25098404288291931152f, 0.55541944503784179688f, 0.30566969513893127441f, 0.15487846732139587402f, -0.0079580042511224746704f, 0.025492668151855468750f, 0.014774414710700511932f, -0.15922008454799652100f, -0.022904312238097190857f, 0.035068277269601821899f, 0.13596689701080322266f, -0.047736451029777526855f, 0.024720760062336921692f, -0.059767443686723709106f, 0.032231379300355911255f, -0.14156925678253173828f, -0.36651518940925598145f, -0.070643842220306396484f, 0.22903154790401458740f, 0.098723530769348144531f, 0.029976904392242431641f, -0.057643387466669082642f, 0.16546802222728729248f, 0.028340319171547889709f, -0.37408745288848876953f, -0.069688238203525543213f, 0.19251692295074462891f, 0.095508649945259094238f, -0.050335373729467391968f, -0.018523558974266052246f, 0.090306147933006286621f, 0.34237083792686462402f, 0.30856928229331970215f, 0.074967049062252044678f, -0.054743953049182891846f, -0.068405352532863616943f, 0.10752155631780624390f, -0.093805551528930664062f, -0.039711229503154754639f, 0.11290366947650909424f, 0.25856116414070129395f, 0.19922812283039093018f, -0.082432925701141357422f, 0.11208844184875488281f, -0.065705746412277221680f},
  {-0.0037908107042312622070f, 0.0029340386390686035156f, 0.11517944931983947754f, 0.054998606443405151367f, 0.032567068934440612793f, -0.096344321966171264648f, -0.073790132999420166016f, 0.067093700170516967773f, 0.087626978754997253418f, -0.045247644186019897461f, 0.026993572711944580078f, 0.026912868022918701172f, -0.049640998244285583496f, -0.079855039715766906738f, 0.052984341979026794434f, 0.10049040615558624268f, 0.015203282237052917480f, 0.036376684904098510742f, 0.028240516781806945801f, -0.093646466732025146484f, -0.018721863627433776855f, 0.041293904185295104980f, 0.11009064316749572754f, -0.065402984619140625000f, 0.00072047114372253417969f, -0.091388523578643798828f, -0.051540732383728027344f, -0.073544293642044067383f, -0.090767189860343933105f, -0.013408169150352478027f, -0.043150961399078369141f, 0.092214226722717285156f, -0.098828539252281188965f, -0.043558031320571899414f, 0.0047636479139328002930f, 0.049659177660942077637f, -0.063738554716110229492f, -0.052409976720809936523f, -0.072499290108680725098f, -0.034012779593467712402f, 0.082396000623703002930f, 0.074167490005493164062f, -0.051572337746620178223f, -0.022186428308486938477f, -0.069425746798515319824f, 0.082801938056945800781f, -0.021756321191787719727f, 0.031446278095245361328f, -0.066061988472938537598f, 0.053601905703544616699f, 0.029719501733779907227f, 0.0022692531347274780273f, 0.11633996665477752686f, -0.044601887464523315430f, -0.078595310449600219727f, -0.032422587275505065918f, 0.079913288354873657227f, -0.064795672893524169922f, -0.10810424387454986572f, 0.027268290519714355469f, 0.12380793690681457520f, 0.040099889039993286133f, -0.066302359104156494141f, -0.091790437698364257812f},
  {0.033856160938739776611f, 0.092010699212551116943f, 0.11538790166378021240f, 0.055578477680683135986f, 0.016902316361665725708f, 0.026348365470767021179f, -0.055624190717935562134f, 0.018914330750703811646f, -0.065702743828296661377f, 0.030939523130655288696f, 0.025404134765267372131f, 0.12694951891899108887f, -0.094949737191200256348f, 0.13756518065929412842f, 0.088967025279998779297f, 0.047908101230859756470f, -0.10492861270904541016f, 0.10839544236660003662f, 0.069172300398349761963f, 0.064673446118831634521f, -0.098859831690788269043f, -0.0055612353608012199402f, 0.13140316307544708252f, 0.011394939385354518890f, -0.014596389606595039368f, -0.088661901652812957764f, -0.039876405149698257446f, 0.20741528272628784180f, -0.039183750748634338379f, -0.076712988317012786865f, -0.088390454649925231934f, -0.070978827774524688721f, -0.021734135225415229797f, 0.016162982210516929626f, 0.14135570824146270752f, -0.086883150041103363037f, 0.021680215373635292053f, 0.038112159818410873413f, 0.051725432276725769043f, -0.085095554590225219727f, 0.050733249634504318237f, 0.013573392294347286224f, 0.045097362250089645386f, 0.016166308894753456116f, -0.090466797351837158203f, 0.022527188062667846680f, -0.069831624627113342285f, 0.063633136451244354248f, -0.0022530765272676944733f, 0.11617594957351684570f, -0.083677709102630615234f, 0.080362513661384582520f, 0.15481141209602355957f, 0.064582474529743194580f, 0.078941501677036285400f, 0.011400550603866577148f, 0.020127825438976287842f, 0.025727963075041770935f, -0.12112879008054733276f, 0.085464775562286376953f, 0.10185821354389190674f, 0.036437448114156723022f, 0.040839217603206634521f, 0.071323752403259277344f},
  {-0.043927192687988281250f, 0.045789822936058044434f, -0.10714612901210784912f, -0.031261213123798370361f, -0.0096171693876385688782f, -0.10141606628894805908f, -0.017358472570776939392f, 0.043752096593379974365f, -0.063134253025054931641f, 0.019524801522493362427f, -0.077356107532978057861f, 0.0014116573147475719452f, 0.088886968791484832764f, -0.11021140962839126587f, 0.040334280580282211304f, -0.095259167253971099854f, 0.063534021377563476562f, 0.054456159472465515137f, 0.057596657425165176392f, 0.099399656057357788086f, -0.057658091187477111816f, -0.21806856989860534668f, -0.031541485339403152466f, 0.035519752651453018188f, 0.0087161362171173095703f, -0.11596601456403732300f, 0.021478543058037757874f, 0.075898021459579467773f, -0.14506272971630096436f, -0.038063291460275650024f, 0.078066505491733551025f, 0.056704625487327575684f, 0.078877910971641540527f, 0.10731253027915954590f, 0.047689173370599746704f, -0.15027838945388793945f, 0.032694250345230102539f, 0.059882305562496185303f, 0.036068864166736602783f, -0.098607428371906280518f, -0.051663104444742202759f, 0.082919150590896606445f, -0.0018427782924845814705f, 0.025900730863213539124f, 0.077386982738971710205f, 0.018488852307200431824f, -0.017731582745909690857f, 0.084286905825138092041f, -0.00074008415685966610909f, 0.048190221190452575684f, -0.062835246324539184570f, 0.031933564692735671997f, 0.051900260150432586670f, -0.11643248051404953003f, 0.055063791573047637939f, 0.053910091519355773926f, -0.058945082128047943115f, 0.094221167266368865967f, -0.023129822686314582825f, 0.072007738053798675537f, 0.025136847048997879028f, -0.11495345830917358398f, -0.12110601365566253662f, -0.061172746121883392334f},
  {-0.051697880029678344727f, -0.12156853079795837402f, 0.015655279159545898438f, -0.052171885967254638672f, 0.10839369893074035645f, 0.068122118711471557617f, 0.012899458408355712891f, -0.097132891416549682617f, 0.11547112464904785156f, -0.063848614692687988281f, 0.11034102737903594971f, 0.11825798451900482178f, 0.062855198979377746582f, -0.026414781808853149414f, -0.064134895801544189453f, 0.10259561240673065186f, -0.036053970456123352051f, 0.071166291832923889160f, -0.0077810287475585937500f, -0.048960521817207336426f, -0.016178116202354431152f, -0.028285533189773559570f, -0.082679167389869689941f, -0.037133872509002685547f, -0.032457694411277770996f, -0.10375471413135528564f, 0.083908006548881530762f, -0.075844228267669677734f, -0.016248360276222229004f, 0.072353899478912353516f, 0.098595246672630310059f, 0.013449177145957946777f, 0.074390232563018798828f, -0.0069878548383712768555f, -0.054609417915344238281f, -0.051934123039245605469f, -0.0057980716228485107422f, -0.11325104534626007080f, -0.071011751890182495117f, -0.017807498574256896973f, -0.11419084668159484863f, -0.11817488074302673340f, -0.11213548481464385986f, -0.042945444583892822266f, 0.030898511409759521484f, 0.029937729239463806152f, -0.098380148410797119141f, -0.12461270391941070557f, -0.022064581513404846191f, 0.063411995768547058105f, -0.045611917972564697266f, -0.10828505456447601318f, -0.096963971853256225586f, -0.0031379163265228271484f, 0.041894614696502685547f, -0.019740968942642211914f, 0.048710301518440246582f, 0.10586570203304290771f, 0.079740315675735473633f, 0.12108246982097625732f, 0.11067162454128265381f, -0.10741932690143585205f, 0.023579850792884826660f, -0.015097305178642272949f},
  {0.065436497330665588379f, 0.019717451184988021851f, -0.079039230942726135254f, -0.10170994699001312256f, -0.16047950088977813721f, 0.043000232428312301636f, 0.096572563052177429199f, 0.068150736391544342041f, -0.016183784231543540955f, -0.047953784465789794922f, -0.22354492545127868652f, -0.23885057866573333740f, -0.31006371974945068359f, -0.039379563182592391968f, 0.14817777276039123535f, -0.085455425083637237549f, -0.014989984221756458282f, 0.12133204936981201172f, 0.11177134513854980469f, 0.13384705781936645508f, 0.23766282200813293457f, 0.051769237965345382690f, -0.087235368788242340088f, -0.13170407712459564209f, 0.049862839281558990479f, 0.14007413387298583984f, 0.17023673653602600098f, -0.030646396800875663757f, 0.29824131727218627930f, 0.27737525105476379395f, -0.091691583395004272461f, 0.031772933900356292725f, -0.11402400583028793335f, 0.14762237668037414551f, 0.13078984618186950684f, -0.11513608694076538086f, 0.33761131763458251953f, 0.23375757038593292236f, -0.10529574006795883179f, -0.12280491739511489868f, 0.043246529996395111084f, -0.17471300065517425537f, -0.38838261365890502930f, -0.068864986300468444824f, -0.0049172462895512580872f, -0.28677642345428466797f, -0.24468591809272766113f, -0.13054193556308746338f, -0.041573256254196166992f, -0.066078633069992065430f, -0.24972778558731079102f, -0.00030843738932162523270f, -0.089302197098731994629f, -0.14393006265163421631f, -0.12664048373699188232f, 0.024990821257233619690f, 0.053990401327610015869f, 0.024583684280514717102f, 0.0013738882262259721756f, 0.19415004551410675049f, 0.11255227029323577881f, -0.031332828104496002197f, 0.035717654973268508911f, 0.019405404105782508850f},
  {0.053558506071567535400f, 0.074632108211517333984f, 0.10410989075899124146f, 0.080821745097637176514f, 0.020591283217072486877f, 0.040398556739091873169f, 0.010342739522457122803f, -0.021508065983653068542f, 0.12071701884269714355f, 0.075125016272068023682f, -0.012758159078657627106f, -0.011657295748591423035f, 0.062927059829235076904f, 0.022888280451297760010f, -0.041567087173461914062f, -0.067254334688186645508f, 0.059978298842906951904f, 0.091221429407596588135f, -0.090849801898002624512f, 0.045285969972610473633f, 0.051663726568222045898f, 0.10687011480331420898f, -0.034879229962825775146f, -0.024379074573516845703f, -0.10964604467153549194f, 0.013029147870838642120f, 0.094642013311386108398f, 0.015802768990397453308f, -0.091730430722236633301f, 0.013424922712147235870f, 0.097119070589542388916f, -0.10974314063787460327f, -0.083505019545555114746f, -0.033131714910268783569f, 0.11661431938409805298f, -0.12646324932575225830f, -0.097068600356578826904f, 0.026590639725327491760f, 0.054022993892431259155f, -0.11506339907646179199f, -0.083955630660057067871f, 0.051930788904428482056f, -0.089238092303276062012f, -0.064807124435901641846f, 0.056589294224977493286f, -0.018757797777652740479f, 0.081431500613689422607f, -0.051847886294126510620f, 0.11108259111642837524f, -0.12325461953878402710f, 0.061465896666049957275f, -0.0070777172222733497620f, 0.037527155131101608276f, -0.020887717604637145996f, 0.10865747183561325073f, -0.11781814694404602051f, -0.093062721192836761475f, 0.11017227172851562500f, -0.10406201332807540894f, 0.077522017061710357666f, -0.12018883973360061646f, 0.12266971915960311890f, 0.077163569629192352295f, -0.11591812223196029663f},
  {0.050300601869821548462f, 0.10694627463817596436f, -0.10938230901956558228f, -0.00040901324246078729630f, -0.018733303993940353394f, -0.018141666427254676819f, -0.033146139234304428101f, -0.095537260174751281738f, 0.022735077887773513794f, -0.065763860940933227539f, 0.054828394204378128052f, -0.042711801826953887939f, 0.026320822536945343018f, 0.061885885894298553467f, -0.10252451151609420776f, 0.11526175588369369507f, 0.11492329835891723633f, 0.099521063268184661865f, 0.052590239793062210083f, 0.031388968229293823242f, -0.16994112730026245117f, 0.076756559312343597412f, -0.069246158003807067871f, 0.0050109769217669963837f, 0.076876804232597351074f, 0.089850030839443206787f, -0.089927129447460174561f, 0.035411681979894638062f, -0.060274794697761535645f, 0.021091924980282783508f, 0.096257984638214111328f, -0.099443264305591583252f, 0.075452797114849090576f, -0.042294263839721679688f, -0.063056610524654388428f, -0.049967043101787567139f, 0.046384837478399276733f, -0.10913076996803283691f, -0.090108148753643035889f, 0.054922729730606079102f, 0.11027897149324417114f, 0.12747821211814880371f, 0.13070392608642578125f, -0.11870484799146652222f, 0.075602173805236816406f, -0.093297168612480163574f, 0.056037940084934234619f, 0.0095522580668330192566f, -0.092523910105228424072f, 0.041948329657316207886f, 0.053105704486370086670f, -0.12626530230045318604f, -0.066172778606414794922f, 0.064711138606071472168f, 0.062744125723838806152f, -0.095114484429359436035f, 0.085511587560176849365f, 0.10272611677646636963f, 0.076563157141208648682f, 0.072275653481483459473f, 0.025234799832105636597f, -0.044054340571165084839f, 0.0063178190030157566071f, 0.077786706387996673584f},
  {-0.11695455759763717651f, -0.0092504750937223434448f, 0.077822037041187286377f, 0.052280649542808532715f, -0.0099979750812053680420f, 0.086173497140407562256f, 0.055360633879899978638f, 0.063020758330821990967f, 0.0070834490470588207245f, 1.0732461532825254835e-06f, 0.10005458444356918335f, 0.22395224869251251221f, 0.083907514810562133789f, 0.10340896248817443848f, 0.022999064996838569641f, 0.035392884165048599243f, 0.0081798294559121131897f, -0.041914962232112884521f, 0.20773532986640930176f, 0.069249935448169708252f, 0.32818952202796936035f, 0.26644957065582275391f, 0.14059126377105712891f, 0.033281516283750534058f, -0.11916781961917877197f, 0.088841751217842102051f, 0.032328799366950988770f, 0.038154896348714828491f, -0.23619806766510009766f, 0.11352815479040145874f, 0.085773684084415435791f, -0.0019936293829232454300f, 0.070656806230545043945f, 0.14603433012962341309f, 0.071076072752475738525f, -0.081951968371868133545f, -0.37112280726432800293f, 0.15305887162685394287f, 0.0056621739640831947327f, -0.010657721199095249176f, 0.0079838428646326065063f, 0.22758714854717254639f, 0.36822858452796936035f, -0.0068437051959335803986f, 0.046138256788253784180f, 0.23646093904972076416f, 0.019594941288232803345f, -0.057624217122793197632f, 0.093100093305110931396f, 0.072524890303611755371f, 0.24495571851730346680f, 0.33336684107780456543f, 0.17696067690849304199f, 0.10785865783691406250f, -0.091109991073608398438f, 0.089987710118293762207f, -0.061911754310131072998f, -0.11747079342603683472f, -0.077224411070346832275f, 0.13024367392063140869f, -0.029680131003260612488f, -0.086962699890136718750f, -0.057181835174560546875f, 0.017366796731948852539f},
  {-0.091677643358707427979f, 0.040311098098754882812f, -0.069223389029502868652f, -0.081902496516704559326f, 0.060350574553012847900f, -0.050186697393655776978f, 0.052866119891405105591f, -0.10046678781509399414f, -0.085339747369289398193f, 0.089233554899692535400f, 0.033132735639810562134f, 0.21805144846439361572f, 0.24963861703872680664f, -0.016514614224433898926f, -0.14536906778812408447f, 0.043294351547956466675f, 0.00092395633691921830177f, 0.20682269334793090820f, 0.22911961376667022705f, 0.097358889877796173096f, 0.24113835394382476807f, 0.19593362510204315186f, -0.026237061247229576111f, 0.010435513220727443695f, 0.11737199127674102783f, -0.0079039251431822776794f, -0.31551849842071533203f, -0.17759051918983459473f, 0.57154440879821777344f, 0.31282559037208557129f, -0.040247533470392227173f, -0.048757046461105346680f, 0.016764737665653228760f, -0.12500832974910736084f, -0.36996957659721374512f, 0.12270276248455047607f, 0.40909644961357116699f, 0.029912337660789489746f, -0.20681647956371307373f, -0.060135543346405029297f, 0.026891998946666717529f, -0.041369684040546417236f, 0.057688362896442413330f, 0.10824160277843475342f, 0.13392543792724609375f, 0.0024801918771117925644f, 0.15582099556922912598f, 0.081486791372299194336f, -0.023958012461662292480f, 0.025813775137066841125f, 0.22826240956783294678f, 0.069999575614929199219f, 0.15208785235881805420f, 0.087918058037757873535f, 0.10274083912372589111f, 0.012363467365503311157f, 0.068680688738822937012f, 0.014583748765289783478f, 0.026421412825584411621f, 0.031449541449546813965f, 0.020925730466842651367f, 0.15790416300296783447f, 0.10189573466777801514f, 0.035770978778600692749f},
  {0.050532717257738113403f, -0.061284549534320831299f, 0.084722511470317840576f, -0.020574381574988365173f, -0.13849374651908874512f, 0.025385547429323196411f, -0.064878828823566436768f, 0.12375635653734207153f, -0.077363908290863037109f, -0.10698663443326950073f, -0.16212880611419677734f, -0.37025374174118041992f, -0.28529748320579528809f, -0.095923468470573425293f, -0.025594225153326988220f, -0.099512882530689239502f, -0.0030845298897475004196f, 0.021696452051401138306f, 0.34166246652603149414f, 0.49335169792175292969f, 0.38940426707267761230f, 0.50816929340362548828f, 0.22276663780212402344f, 0.10652101039886474609f, 0.012362599372863769531f, 0.28338360786437988281f, 0.52414053678512573242f, 0.096288979053497314453f, -0.15437869727611541748f, 0.60593086481094360352f, 0.083980023860931396484f, 0.038774561136960983276f, 0.086800597608089447021f, 0.034879058599472045898f, 0.35681927204132080078f, -0.21322426199913024902f, 0.17451825737953186035f, 0.36578166484832763672f, -0.15400606393814086914f, -0.074481345713138580322f, 0.071668624877929687500f, -0.091681979596614837646f, -0.048502933233976364136f, -0.38873946666717529297f, 0.081629671156406402588f, -0.25629165768623352051f, -0.29060462117195129395f, -0.046128049492835998535f, -0.020636172965168952942f, -0.11156522482633590698f, -0.053797725588083267212f, 0.26972192525863647461f, -0.039130095392465591431f, -0.078013166785240173340f, -0.10195410996675491333f, 0.062611743807792663574f, -0.083408117294311523438f, 0.12446418404579162598f, 0.14168815314769744873f, 0.28459361195564270020f, 0.30050954222679138184f, 0.044845283031463623047f, -0.049015078693628311157f, 0.023237878456711769104f},
  {-0.013011846691370010376f, 0.091812931001186370850f, -0.065504476428031921387f, 0.081859774887561798096f, -0.046817000955343246460f, 0.10386037826538085938f, 0.048689458519220352173f, 0.082022048532962799072f, 0.0094309076666831970215f, -0.036414701491594314575f, 0.015680493786931037903f, 0.070731468498706817627f, 0.23302878439426422119f, 0.083526223897933959961f, 0.063557311892509460449f, -0.062485024333000183105f, -0.059834878891706466675f, -0.11591221392154693604f, -0.14091621339321136475f, -0.11917383968830108643f, -0.094186775386333465576f, -0.22500014305114746094f, -0.076485335826873779297f, -0.043749533593654632568f, 0.0039346176199615001678f, -0.014546648599207401276f, -0.066239416599273681641f, 0.27854865789413452148f, 0.026709688827395439148f, -0.24970215559005737305f, 0.0029901715461164712906f, -0.088778041303157806396f, -0.065111383795738220215f, 0.041020110249519348145f, 0.19861595332622528076f, 0.15794803202152252197f, -0.00044303029426373541355f, 0.10312601923942565918f, 0.20494154095649719238f, 0.0026181752327829599380f, -0.11136168986558914185f, 0.13087318837642669678f, 0.27124875783920288086f, 0.30948665738105773926f, 0.083910346031188964844f, 0.10654502362012863159f, -0.0027104075998067855835f, 0.11055603623390197754f, 0.032749041914939880371f, 0.11550490558147430420f, 0.084910191595554351807f, 0.098576821386814117432f, 0.14260047674179077148f, -0.014332049526274204254f, -0.033068895339965820312f, 0.040495827794075012207f, 0.025654608383774757385f, -0.13448297977447509766f, -0.18266555666923522949f, -0.10172846913337707520f, -0.060347754508256912231f, -0.11399614810943603516f, -0.0024603949859738349915f, 0.079724758863449096680f},
  {-0.055079303681850433350f, 0.0093998331576585769653f, 0.098736099898815155029f, -0.043425753712654113770f, 0.0014216862618923187256f, 0.069000922143459320068f, 0.087841972708702087402f, -0.083897992968559265137f, 0.10235663503408432007f, -0.11613735556602478027f, -0.0080058528110384941101f, 0.013867637142539024353f, 0.21291515231132507324f, 0.031420901417732238770f, -0.055361133068799972534f, 0.043011657893657684326f, -0.11647597700357437134f, -0.085423655807971954346f, 0.0057764113880693912506f, -0.038089584559202194214f, 0.073206394910812377930f, -0.21460187435150146484f, -0.072261534631252288818f, 0.10739570856094360352f, -0.10335264354944229126f, -0.071118861436843872070f, -0.15235348045825958252f, 0.069052182137966156006f, -0.12084223330020904541f, -0.14604486525058746338f, -0.024033727124333381653f, 0.0076352744363248348236f, 0.023135008290410041809f, -0.036940220743417739868f, 0.066859409213066101074f, 0.039593141525983810425f, -0.017068348824977874756f, -0.17635403573513031006f, 0.052440814673900604248f, -0.10658150911331176758f, 0.092875517904758453369f, -0.024658633396029472351f, 0.24021495878696441650f, 0.14602006971836090088f, 0.11918839067220687866f, -0.074813514947891235352f, 0.031173238530755043030f, 0.056115057319402694702f, 0.080808967351913452148f, 0.068556010723114013672f, 0.014902319759130477905f, -0.039243225008249282837f, -0.084422126412391662598f, -0.083888635039329528809f, 0.079252265393733978271f, 0.020617868751287460327f, -0.041329484432935714722f, -0.049662869423627853394f, 0.00084246229380369186401f, -0.19204431772232055664f, 0.041728626936674118042f, -0.024901622906327247620f, 0.047145880758762359619f, -0.092426858842372894287f},
  {0.022211501374840736389f, 0.081404559314250946045f, 0.012691385112702846527f, -0.016899619251489639282f, 0.072219952940940856934f, 0.12360914796590805054f, -0.0077316709794104099274f, -0.095767490565776824951f, 0.080007165670394897461f, -0.070318855345249176025f, -0.087518468499183654785f, -0.24508996307849884033f, 0.055156376212835311890f, 0.054227877408266067505f, -0.0043506631627678871155f, -0.022726012393832206726f, -0.11465390026569366455f, -0.18577244877815246582f, 0.11365743726491928101f, 0.049020960927009582520f, -0.38730356097221374512f, -0.070746049284934997559f, 0.030593639239668846130f, 0.040158960968255996704f, -0.0087688807398080825806f, 0.12341302633285522461f, 0.30188170075416564941f, 0.22929982841014862061f, 0.025940537452697753906f, 0.0069539803080260753632f, 0.073626413941383361816f, 0.021767655387520790100f, -0.052842587232589721680f, 0.13099560141563415527f, 0.26464962959289550781f, 0.44593766331672668457f, 0.35256335139274597168f, -0.0080128042027354240417f, 0.12513938546180725098f, -0.041384920477867126465f, 0.0041205417364835739136f, -0.26740932464599609375f, 0.085400633513927459717f, 0.25737020373344421387f, 0.021683888509869575500f, -0.16697685420513153076f, -0.063995093107223510742f, 0.044922206550836563110f, -0.13741818070411682129f, -0.14350816607475280762f, -0.16786827147006988525f, -0.070102274417877197266f, -0.043977431952953338623f, 0.018454145640134811401f, -0.063959255814552307129f, 0.044726431369781494141f, 0.11924019455909729004f, -0.053122624754905700684f, 0.0086998138576745986938f, -0.040551472455263137817f, -0.11491567641496658325f, 0.040113665163516998291f, 0.12589342892169952393f, 0.10827644914388656616f},
  {0.097166225314140319824f, -0.077427893877029418945f, -0.10402267426252365112f, -0.10787425190210342407f, -0.048957597464323043823f, -0.035679403692483901978f, 0.088947892189025878906f, 0.11577920615673065186f, -0.024839658290147781372f, -0.069364845752716064453f, -0.035740241408348083496f, -0.019962685182690620422f, 0.15512619912624359131f, 0.13322314620018005371f, -0.065173767507076263428f, 0.12718293070793151855f, 0.11739663779735565186f, 0.13820673525333404541f, 0.064030207693576812744f, 0.28013673424720764160f, 0.056396819651126861572f, 0.13339738547801971436f, 0.023863496258854866028f, 0.096485368907451629639f, 0.053517412394285202026f, 0.016950357705354690552f, 0.20127955079078674316f, 0.10982042551040649414f, -0.21366015076637268066f, 0.26592198014259338379f, 0.13967606425285339355f, -0.048432003706693649292f, 0.077511459589004516602f, -0.0019481581402942538261f, -0.035844892263412475586f, -0.099768444895744323730f, 0.030963849276304244995f, 0.16535292565822601318f, 0.048428118228912353516f, -0.039813019335269927979f, 0.10070996731519699097f, 0.047089062631130218506f, 0.15256981551647186279f, -0.058367960155010223389f, 0.091571576893329620361f, 0.14788444340229034424f, 0.11449459940195083618f, -0.032441284507513046265f, -0.11997076869010925293f, -0.12458523362874984741f, -0.0073820124380290508270f, 0.099552951753139495850f, 0.047895692288875579834f, 0.042193457484245300293f, -0.029134361073374748230f, 0.11651112884283065796f, 0.013189656659960746765f, 0.082035809755325317383f, 0.090920582413673400879f, 0.20130263268947601318f, 0.063284263014793395996f, -0.10027901083230972290f, 0.0086517371237277984619f, -0.044227089732885360718f},
  {-0.017048537731170654297f, 0.034378334879875183105f, 0.050290331244468688965f, 0.11565354466438293457f, -0.026718303561210632324f, -0.024331003427505493164f, 0.022181436419486999512f, -0.10275289416313171387f, 0.10682375729084014893f, -0.064656838774681091309f, -0.12142118811607360840f, 0.044112935662269592285f, -0.11082474887371063232f, -0.11856737732887268066f, 0.019684299826622009277f, 0.11961628496646881104f, -0.038652718067169189453f, -0.098665356636047363281f, 0.057496041059494018555f, 0.052897229790687561035f, 0.012569114565849304199f, -0.097175583243370056152f, -0.093093305826187133789f, -0.070511117577552795410f, 0.094588533043861389160f, -0.085065558552742004395f, 0.058137789368629455566f, -0.047850757837295532227f, -0.10793234407901763916f, -0.027607947587966918945f, 0.045946568250656127930f, -0.093383669853210449219f, 0.084500804543495178223f, 0.017890363931655883789f, 0.029706180095672607422f, -0.028865024447441101074f, 0.050933554768562316895f, 0.035815656185150146484f, -0.016733095049858093262f, 0.0065590590238571166992f, -0.057840883731842041016f, 0.023226812481880187988f, -0.086939930915832519531f, -0.083975031971931457520f, -0.048575028777122497559f, -0.021777108311653137207f, -0.10261218249797821045f, 0.042010307312011718750f, 0.061329990625381469727f, 0.093403607606887817383f, 0.019867554306983947754f, 0.080012097954750061035f, 0.075777396559715270996f, -0.016495063900947570801f, -0.021780982613563537598f, -0.0059331208467483520508f, 0.0048684924840927124023f, -0.10473224520683288574f, 0.11676073074340820312f, -0.0057141929864883422852f, -0.059346601366996765137f, -0.067096337676048278809f, -0.050073862075805664062f, -0.071322187781333923340f},
  {-0.0038672757800668478012f, 0.046895582228899002075f, 0.11236970871686935425f, -0.020621715113520622253f, 0.12990719079971313477f, 0.11038019508123397827f, -0.090426675975322723389f, 0.0028755480889230966568f, 0.064086750149726867676f, -0.075935304164886474609f, 0.056299623101949691772f, -0.17190897464752197266f, 0.063013717532157897949f, -0.020193917676806449890f, 0.14294676482677459717f, 0.074865669012069702148f, -0.023253533989191055298f, -0.017019417136907577515f, -0.10985558480024337769f, 0.046500004827976226807f, -0.17802610993385314941f, -0.17114683985710144043f, 0.067077815532684326172f, 0.045302517712116241455f, -0.049401536583900451660f, 0.054389864206314086914f, 0.28590968251228332520f, 0.22220923006534576416f, -0.23613075911998748779f, 0.034831754863262176514f, -0.0099361026659607887268f, -0.096951842308044433594f, -0.12774795293807983398f, 0.0062257298268377780914f, 0.21187186241149902344f, 0.20124571025371551514f, -0.034795876592397689819f, 0.13005818426609039307f, 0.23039458692073822021f, 0.0014911834150552749634f, 0.066121935844421386719f, -0.049103502184152603149f, 0.24418117105960845947f, 0.10274170339107513428f, 0.22973725199699401855f, 0.11029293388128280640f, -0.097488448023796081543f, 0.065720096230506896973f, 0.11555563658475875854f, -0.16088981926441192627f, -0.17321439087390899658f, 0.050510570406913757324f, 0.018417099490761756897f, -0.044490974396467208862f, -0.13437879085540771484f, -0.040044419467449188232f, -0.10925845056772232056f, -0.097494527697563171387f, -0.071605540812015533447f, -0.17991104722023010254f, -0.13128794729709625244f, -0.097071051597595214844f, -0.10224738717079162598f, 0.10569881647825241089f},
  {-0.081442520022392272949f, 0.11501459777355194092f, -0.078576654195785522461f, 0.10782863944768905640f, 0.072782680392265319824f, 0.10157760232686996460f, 0.12063796073198318481f, 0.098684564232826232910f, -0.027656054124236106873f, 0.022485461086034774780f, 0.047236971557140350342f, 0.26060804724693298340f, 0.10275183618068695068f, 0.040283974260091781616f, 0.10092265903949737549f, -0.051673322916030883789f, 0.12738004326820373535f, 0.11781301349401473999f, 0.12447024136781692505f, 0.22592377662658691406f, 0.11592631042003631592f, 0.25201755762100219727f, 0.071172110736370086670f, 0.10534533858299255371f, -0.084824979305267333984f, -0.089654758572578430176f, 0.12382844090461730957f, 0.23227505385875701904f, 0.18114112317562103271f, -0.16987268626689910889f, 0.11661381274461746216f, -0.088629350066184997559f, -0.060384538024663925171f, 0.038261026144027709961f, 0.034873131662607192993f, -0.12402053922414779663f, -0.18917255103588104248f, 0.096824891865253448486f, 0.052948806434869766235f, -0.047331899404525756836f, -0.030203066766262054443f, 0.094173811376094818115f, -0.0031183580867946147919f, -0.32667258381843566895f, 0.0038743510376662015915f, 0.14873626828193664551f, 0.093241877853870391846f, -0.0052018822170794010162f, -0.10588244348764419556f, 0.18216840922832489014f, 0.32364609837532043457f, 0.36867329478263854980f, 0.30741870403289794922f, 0.030141051858663558960f, -0.037736233323812484741f, -0.11946710944175720215f, -0.10528645664453506470f, 0.030090430751442909241f, -0.014770769514143466949f, 0.073195517063140869141f, 0.063842639327049255371f, 0.083733528852462768555f, -0.10878663510084152222f, -0.00059801153838634490967f},
  {-0.11981698870658874512f, 0.023430250585079193115f, 0.10978828370571136475f, 0.087517812848091125488f, 0.0072377813048660755157f, -0.11135231703519821167f, -0.11734433472156524658f, -0.12513953447341918945f, 0.11117176711559295654f, 0.067631050944328308105f, 0.15393555164337158203f, 0.35411924123764038086f, 0.27965673804283142090f, 0.0075297560542821884155f, -0.16052560508251190186f, -0.052016854286193847656f, -0.056109357625246047974f, 0.14191392064094543457f, -0.026146011427044868469f, -0.12182042747735977173f, 0.17480015754699707031f, -0.0034564291127026081085f, 0.012232397682964801788f, -0.096311293542385101318f, -0.074034847319126129150f, -0.10511171072721481323f, -0.18588368594646453857f, -0.25450563430786132812f, -0.077628083527088165283f, -0.023669194430112838745f, 0.10793636739253997803f, -0.069934271275997161865f, 0.072041742503643035889f, 0.094854697585105895996f, 0.0040966100059449672699f, 0.094634458422660827637f, 0.12742143869400024414f, -0.055898044258356094360f, 0.012752257287502288818f, -0.089315794408321380615f, 0.036375269293785095215f, 0.20842324197292327881f, 0.21027091145515441895f, 0.32713994383811950684f, 0.045884300023317337036f, 0.36583998799324035645f, 0.23444288969039916992f, 0.0010459666373208165169f, -0.082175269722938537598f, 0.15862675011157989502f, 0.12351629137992858887f, 0.080010049045085906982f, 0.13304840028285980225f, 0.081123195588588714600f, 0.12601229548454284668f, 0.11615777015686035156f, -0.056998841464519500732f, -0.059362020343542098999f, -0.16039974987506866455f, -0.12647174298763275146f, -0.051549658179283142090f, -0.080782838165760040283f, -0.070139639079570770264f, -0.0024420304689556360245f},
  {0.10139925777912139893f, -0.089867934584617614746f, 0.024325257167220115662f, -0.044821735471487045288f, 0.12743540108203887939f, 0.022757552564144134521f, -0.065727889537811279297f, -0.092006564140319824219f, -0.12211013585329055786f, -0.035320747643709182739f, -0.064737148582935333252f, 0.074225425720214843750f, 0.036206133663654327393f, -0.077474057674407958984f, 0.0099722566083073616028f, -0.10990186780691146851f, -0.018088897690176963806f, 0.10063248127698898315f, -0.12166120111942291260f, 0.034239020198583602905f, -0.027335898950695991516f, -0.16168239712715148926f, -0.20385083556175231934f, -0.089464455842971801758f, 0.071912989020347595215f, 0.027486279606819152832f, -0.068731464445590972900f, -0.020137121900916099548f, 0.016827814280986785889f, 0.074057601392269134521f, -0.041572328656911849976f, -0.094176471233367919922f, 0.081775546073913574219f, 0.026748221367597579956f, 0.096376657485961914062f, 0.21904370188713073730f, 0.24809636175632476807f, -0.10388133674860000610f, 0.097030900418758392334f, 0.041837830096483230591f, 0.011698650196194648743f, -0.049326244741678237915f, -0.012969656847417354584f, 0.22362072765827178955f, 0.15993402898311614990f, 0.091220334172248840332f, -0.026771022006869316101f, 0.11069618910551071167f, 0.045295313000679016113f, -0.13536767661571502686f, -0.14440043270587921143f, -0.23217709362506866455f, -0.13191752135753631592f, 0.12756603956222534180f, 0.12692096829414367676f, 0.043862108141183853149f, -0.023342173546552658081f, -0.099761597812175750732f, -0.060966860502958297729f, 0.0064230314455926418304f, -0.089491665363311767578f, -0.061347469687461853027f, 0.062583312392234802246f, -0.049450580030679702759f},
  {-0.024545259773731231689f, 0.095142729580402374268f, -0.098081842064857482910f, 0.087234482169151306152f, 0.026955761015415191650f, -0.097108542919158935547f, -0.094493396580219268799f, -0.013303170911967754364f, -0.0055078808218240737915f, 0.10053886473178863525f, -0.0029245493933558464050f, -0.066622719168663024902f, -0.072841748595237731934f, 0.085979878902435302734f, -0.10452823340892791748f, -0.078359104692935943604f, -0.0091945314779877662659f, 0.068099975585937500000f, 0.010022062808275222778f, 0.28544819355010986328f, -0.089792832732200622559f, 0.19583924114704132080f, 0.010105295106768608093f, -0.068698070943355560303f, 0.054403327405452728271f, 0.10529432445764541626f, 0.40555208921432495117f, -0.041658934205770492554f, -0.16834875941276550293f, 0.37253180146217346191f, 0.083701208233833312988f, -0.0095776114612817764282f, 0.069468982517719268799f, 0.063248895108699798584f, 0.44850286841392517090f, 0.11434853821992874146f, 0.15395514667034149170f, 0.26984643936157226562f, 0.068014502525329589844f, 0.072393000125885009766f, 0.086417548358440399170f, 0.062738627195358276367f, -0.0099727800115942955017f, 0.0063198748975992202759f, 0.23495735228061676025f, 0.15151472389698028564f, 0.042598038911819458008f, -0.096364960074424743652f, -0.081181429326534271240f, -0.029327385127544403076f, -0.16906486451625823975f, -0.060173090547323226929f, 0.073836475610733032227f, 0.041115596890449523926f, 0.077442444860935211182f, 0.12298166751861572266f, 0.091034643352031707764f, -0.012842369265854358673f, -0.091564863920211791992f, -0.088612072169780731201f, 0.098447419703006744385f, -0.071226261556148529053f, 0.11189976334571838379f, -0.053431019186973571777f},
  {-0.045638583600521087646f, 0.042692814022302627563f, 0.079986974596977233887f, -0.064296580851078033447f, -0.063853591680526733398f, 0.033612359315156936646f, -0.043293319642543792725f, 0.058035045862197875977f, -0.0052586407400667667389f, -0.0057294024154543876648f, 0.15358899533748626709f, 0.31932944059371948242f, 0.24576556682586669922f, 0.11688511073589324951f, 0.037275765091180801392f, 0.086589358747005462646f, 0.062820062041282653809f, 0.11104295402765274048f, -0.043812021613121032715f, -0.14569361507892608643f, 0.14186032116413116455f, -0.024952730163931846619f, 0.059419687837362289429f, -0.11899929493665695190f, -0.037061441689729690552f, -0.074998833239078521729f, -0.46869125962257385254f, -0.17389994859695434570f, 0.55153954029083251953f, -0.058421794325113296509f, -0.15845885872840881348f, -0.033160846680402755737f, 0.10926447808742523193f, -0.10820193588733673096f, -0.33029967546463012695f, 0.39702212810516357422f, 0.31386944651603698730f, -0.30495011806488037109f, -0.043027549982070922852f, 0.094184629619121551514f, 0.11437592655420303345f, 0.26074790954589843750f, 0.030493520200252532959f, 0.15640838444232940674f, -0.0067460648715496063232f, 0.077179051935672760010f, 0.23372054100036621094f, 0.10787174105644226074f, 0.00049107783706858754158f, 0.10254085808992385864f, 0.35977387428283691406f, 0.058888364583253860474f, 0.14983437955379486084f, 0.22248351573944091797f, 0.17931459844112396240f, 0.080056019127368927002f, -0.022284915670752525330f, -0.083000078797340393066f, -0.13548548519611358643f, 0.069634713232517242432f, 0.055159363895654678345f, -0.11857868731021881104f, -0.11952371150255203247f, -0.0021136815194040536880f},
  {-0.021611886098980903625f, -0.048856675624847412109f, -0.086077809333801269531f, 0.11089848726987838745f, -0.069506220519542694092f, 0.075533837080001831055f, -0.067641943693161010742f, -0.021351881325244903564f, 0.020558843389153480530f, -0.045341812074184417725f, 0.045298933982849121094f, 0.031321167945861816406f, 0.16864527761936187744f, 0.041250340640544891357f, 0.12090776115655899048f, -0.048156473785638809204f, -0.022013626992702484131f, 0.018699144944548606873f, 0.088864341378211975098f, -0.10088250041007995605f, -0.096995949745178222656f, -0.039393175393342971802f, 0.0032078747171908617020f, -0.065254606306552886963f, -0.030950132757425308228f, -0.0050506349653005599976f, -0.011071215383708477020f, 0.11746128648519515991f, -0.16614495217800140381f, -0.032594423741102218628f, -0.0035762132611125707626f, 0.049528364092111587524f, -0.031866732984781265259f, 0.15026475489139556885f, 0.32834130525588989258f, 0.40018209815025329590f, -0.026915667578577995300f, 0.037085510790348052979f, -0.0079244524240493774414f, 0.061399709433317184448f, -0.0013893155846744775772f, 0.12852609157562255859f, 0.39703026413917541504f, 0.21512167155742645264f, 0.19439487159252166748f, 0.29171887040138244629f, 0.19989882409572601318f, 0.071748450398445129395f, 0.011551920324563980103f, -0.078885935246944427490f, 0.14734759926795959473f, 0.087009213864803314209f, 0.15121671557426452637f, 0.13481110334396362305f, -0.039429984986782073975f, -0.10182442516088485718f, 0.088410586118698120117f, 0.026204967871308326721f, -0.19339334964752197266f, -0.053592648357152938843f, -0.029975695535540580750f, 0.060490425676107406616f, 0.072154171764850616455f, 0.11918812245130538940f},
  {-0.081309497356414794922f, 0.028680676594376564026f, 0.087283603847026824951f, 0.087364710867404937744f, 0.010324748232960700989f, -0.0054940111003816127777f, -0.039321538060903549194f, -0.0069680502638220787048f, -0.063097283244132995605f, -0.023355485871434211731f, -0.13815852999687194824f, -0.098127104341983795166f, 0.033982463181018829346f, -0.092956528067588806152f, 0.039213079959154129028f, -0.045768082141876220703f, -0.0012129485839977860451f, 0.028877543285489082336f, 0.064989641308784484863f, -0.097137168049812316895f, -0.0085609229281544685364f, 0.011950631625950336456f, -0.0019515828462317585945f, 0.068290375173091888428f, -0.069810628890991210938f, -0.084872618317604064941f, 0.049819633364677429199f, 0.017777904868125915527f, 0.24094726145267486572f, 0.034789998084306716919f, 0.066346906125545501709f, -0.11414083093404769897f, -0.020985960960388183594f, 0.040626090019941329956f, -0.18568176031112670898f, -0.071298241615295410156f, -0.032414954155683517456f, -0.023701285943388938904f, -0.092112600803375244141f, -0.098415456712245941162f, 0.063213251531124114990f, -0.051096275448799133301f, -0.014356251806020736694f, 0.033995993435382843018f, -0.022822182625532150269f, -0.17215219140052795410f, 0.079543367028236389160f, -0.073213927447795867920f, 0.034970760345458984375f, 0.11405321955680847168f, -0.048514887690544128418f, 0.091965802013874053955f, -0.042354691773653030396f, -0.072129145264625549316f, -0.11035289615392684937f, -0.065430752933025360107f, -0.027373224496841430664f, -0.10571577399969100952f, 0.053677078336477279663f, 0.0059645767323672771454f, 0.12775804102420806885f, -0.10029549151659011841f, -0.060509096831083297729f, 0.10224689543247222900f},
  {-0.076732963323593139648f, -0.053036961704492568970f, 0.11656216531991958618f, 0.029549380764365196228f, 0.026868883520364761353f, 0.14498363435268402100f, 0.010378318838775157928f, -0.080367743968963623047f, -0.092540316283702850342f, -0.078637234866619110107f, -0.15027323365211486816f, -0.16949962079524993896f, -0.016169173642992973328f, 0.14917805790901184082f, 0.022103032097220420837f, -0.035206642001867294312f, -0.11244090646505355835f, -0.070625737309455871582f, 0.069579705595970153809f, 0.051151044666767120361f, -0.32306876778602600098f, -0.036807350814342498779f, -0.016157876700162887573f, -0.13891495764255523682f, 0.090836994349956512451f, -0.082585737109184265137f, 0.23742994666099548340f, 0.22908248007297515869f, 0.12863025069236755371f, 0.11846948415040969849f, -0.076721653342247009277f, -0.12739236652851104736f, -0.079903110861778259277f, -0.072744868695735931396f, 0.21646320819854736328f, 0.53082180023193359375f, 0.44897010922431945801f, 0.029118906706571578979f, -0.0083811422809958457947f, 0.065479487180709838867f, -0.051913350820541381836f, -0.27084660530090332031f, 0.026001157239079475403f, 0.26882171630859375000f, 0.0078001171350479125977f, 0.059615589678287506104f, -0.13296395540237426758f, -0.076029419898986816406f, -0.0099893556907773017883f, -0.20427678525447845459f, -0.041962001472711563110f, -0.079968787729740142822f, 0.14665135741233825684f, 0.010580444708466529846f, 0.072196364402770996094f, -0.083822570741176605225f, -0.10423051565885543823f, -0.016929330304265022278f, 0.0025249661412090063095f, -0.15352723002433776855f, -0.092214614152908325195f, -0.048964183777570724487f, 0.0027974676340818405151f, 0.038758285343647003174f},
  {0.067719817161560058594f, 0.066564664244651794434f, 0.026878209784626960754f, 0.0097716525197029113770f, -0.063067480921745300293f, -0.027238881215453147888f, 0.10473871231079101562f, -0.0078597264364361763000f, -0.071896970272064208984f, 0.012905867770314216614f, 0.088794201612472534180f, -0.065084494650363922119f, -0.12034449726343154907f, -0.023377476260066032410f, -0.025439646095037460327f, -0.11656584590673446655f, -0.064898356795310974121f, -0.096875116229057312012f, 0.12311422824859619141f, 0.017822194844484329224f, -0.11484285444021224976f, 0.066424161195755004883f, 0.0045858947560191154480f, 0.10277361422777175903f, -0.11678396910429000854f, 0.086852207779884338379f, 0.10550688207149505615f, -0.085649058222770690918f, -0.067357689142227172852f, 0.021735463291406631470f, 0.090649671852588653564f, 0.11507389694452285767f, -0.024404957890510559082f, 0.10782665759325027466f, -0.065911494195461273193f, 0.065766133368015289307f, -0.0096013722941279411316f, -0.078744977712631225586f, 0.0032525917049497365952f, 0.040522858500480651855f, -0.0068942708894610404968f, 0.092959187924861907959f, -0.014365847222506999969f, 0.067192807793617248535f, 0.044324148446321487427f, 0.11115456372499465942f, -0.11056430637836456299f, 0.040025379508733749390f, -0.027655657380819320679f, -0.10013722628355026245f, 0.0079397521913051605225f, -0.022239927202463150024f, -0.099851049482822418213f, -0.038700018078088760376f, 0.073815450072288513184f, 0.046446364372968673706f, 0.0060640457086265087128f, 0.045402329415082931519f, -0.064875870943069458008f, -0.076501645147800445557f, -0.052064709365367889404f, -0.068711131811141967773f, -0.098254233598709106445f, 0.044199574738740921021f},
  {0.10782761871814727783f, -0.053926389664411544800f, -0.10081060975790023804f, -0.13047787547111511230f, 0.040226630866527557373f, -0.064021624624729156494f, 0.039977326989173889160f, 0.10481422394514083862f, 0.030726471915841102600f, 0.0011250030947849154472f, 0.088672466576099395752f, -0.13793396949768066406f, -0.14728899300098419189f, -0.11534991115331649780f, 0.015762161463499069214f, 0.075680539011955261230f, -0.0089692063629627227783f, -0.10477820783853530884f, -0.053428761661052703857f, 0.076566115021705627441f, 0.069384731352329254150f, 0.21673598885536193848f, 0.083287850022315979004f, 0.11356528848409652710f, -0.098605103790760040283f, -0.032607339322566986084f, -0.024702399969100952148f, 0.10016746073961257935f, -0.038503415882587432861f, -0.0016591100720688700676f, -0.082640454173088073730f, -0.042345065623521804810f, -0.026266479864716529846f, -0.069035820662975311279f, -0.0087003083899617195129f, -0.070023700594902038574f, 0.10320860892534255981f, -0.0017054697964340448380f, 0.048516776412725448608f, -0.031965937465429306030f, 0.080370165407657623291f, -0.095181509852409362793f, -0.068404182791709899902f, -0.024284398183226585388f, 0.10683036595582962036f, -0.12879407405853271484f, -0.0086704920977354049683f, -0.0091750537976622581482f, 0.083371721208095550537f, -0.043628204613924026489f, 0.047305032610893249512f, -0.050878833979368209839f, -0.15089660882949829102f, -0.067648947238922119141f, -0.070872955024242401123f, -0.073302112519741058350f, -0.048393696546554565430f, -0.063043624162673950195f, -0.051806017756462097168f, 0.030059082433581352234f, -0.090826168656349182129f, 0.046461101621389389038f, 0.042255792766809463501f, -0.11811096966266632080f},
  {-0.10602573305368423462f, -0.092608727514743804932f, -0.078519165515899658203f, -0.10441735386848449707f, 0.042490698397159576416f, 0.13285574316978454590f, -0.030776133760809898376f, 0.049651402980089187622f, -0.025198023766279220581f, -0.076897501945495605469f, -0.12597189843654632568f, -0.060014672577381134033f, -0.18243928253650665283f, 0.10127203166484832764f, 0.056698706001043319702f, -0.013505551032721996307f, -0.045706190168857574463f, -0.097731046378612518311f, 0.042940478771924972534f, -0.053153224289417266846f, -0.18240554630756378174f, -0.21398203074932098389f, -0.045591183006763458252f, -0.085884809494018554688f, -0.10931657999753952026f, 0.040138054639101028442f, 0.28956389427185058594f, 0.22281143069267272949f, -0.018894251435995101929f, 0.0051781511865556240082f, -0.13585409522056579590f, -0.096641965210437774658f, 0.046786967664957046509f, 0.029448399320244789124f, 0.067156150937080383301f, 0.088842801749706268311f, 0.17179270088672637939f, 0.22427411377429962158f, -0.0029450322035700082779f, 0.035781409591436386108f, -0.051719430834054946899f, -0.16882042586803436279f, -0.089451387524604797363f, -0.027272131294012069702f, 0.078478842973709106445f, 0.055035591125488281250f, -0.089131608605384826660f, -0.12269017100334167480f, 0.029974412173032760620f, -0.062274638563394546509f, -0.17132426798343658447f, 0.087363183498382568359f, 0.11457094550132751465f, 0.011288410983979701996f, 0.057087559252977371216f, -0.10572829097509384155f, -0.11617071926593780518f, -0.013445867225527763367f, -0.020105633884668350220f, -0.12741179764270782471f, 0.035280372947454452515f, 0.079516172409057617188f, -0.10040916502475738525f, 0.086943157017230987549f}
};
static const float tensor_Gemm_0_bias[50] = 
{-0.12818972766399383545f, 0.22276282310485839844f, 0.049869503825902938843f, 0.28269547224044799805f, -0.018233522772789001465f, 0.45913958549499511719f, 0.22124414145946502686f, 0.0017617383273318409920f, 0.027304373681545257568f, 0.025601511821150779724f, -0.0078177303075790405273f, 0.26240238547325134277f, 0.13702079653739929199f, 0.0011406282428652048111f, -0.011699328199028968811f, 0.21808034181594848633f, 0.14821121096611022949f, -0.13802878558635711670f, 0.049572326242923736572f, 0.32069471478462219238f, -0.026747262105345726013f, 0.33310469985008239746f, 0.082345470786094665527f, -0.082647204399108886719f, -0.026188524439930915833f, 0.15724644064903259277f, -0.11236785352230072021f, 0.49627205729484558105f, -0.071111723780632019043f, 0.029497802257537841797f, -0.045643128454685211182f, 0.35555708408355712891f, 0.23678241670131683350f, 0.22661802172660827637f, 0.21965767443180084229f, 0.10624555498361587524f, -0.0093814376741647720337f, -0.12403194606304168701f, 0.12035439908504486084f, -0.035309836268424987793f, 0.060985058546066284180f, 0.14300175011157989502f, 0.17650879919528961182f, 0.27241790294647216797f, 0.11359771341085433960f, 0.15116061270236968994f, 0.0013422842603176832199f, -0.078282907605171203613f, 0.063862890005111694336f, 0.089631602168083190918f};
static const float tensor_Gemm_1_weight[50][50] = 
{
  {0.061304401606321334839f, -0.086677588522434234619f, 0.019316850230097770691f, 0.10599476099014282227f, -0.015131736174225807190f, 0.091319248080253601074f, 0.10864033550024032593f, -0.16105826199054718018f, 0.059895738959312438965f, 0.14024449884891510010f, -0.17831009626388549805f, -0.12169639766216278076f, -0.055538110435009002686f, -0.0043627601116895675659f, 0.0027784456033259630203f, -0.14343602955341339111f, 0.10912052541971206665f, -0.068696901202201843262f, 0.11601940542459487915f, -0.037809062749147415161f, -0.10581016540527343750f, 0.017007261514663696289f, 0.13099202513694763184f, -0.070662193000316619873f, -0.081252612173557281494f, -0.065427809953689575195f, -0.041911553591489791870f, -0.13660912215709686279f, -0.090197131037712097168f, 0.011957914568483829498f, -0.046897973865270614624f, 0.27951496839523315430f, -0.10607267171144485474f, 0.024099376052618026733f, 0.20604950189590454102f, -0.043594453483819961548f, -0.15411405265331268311f, -0.11400997638702392578f, -0.19208888709545135498f, -0.14176483452320098877f, 0.14633689820766448975f, -0.071797505021095275879f, -0.081309564411640167236f, 0.31866869330406188965f, -0.025473240762948989868f, -0.0039763278327882289886f, 0.068655893206596374512f, 0.042378585785627365112f, -0.12943966686725616455f, -0.047943290323019027710f},
  {-0.013234782032668590546f, 0.12507155537605285645f, -0.13325093686580657959f, 0.072819814085960388184f, -0.088911227881908416748f, -0.011667865328490734100f, 0.049281731247901916504f, -0.11715981364250183105f, 0.016602363437414169312f, -0.097398214042186737061f, 0.012620586901903152466f, -0.043090764433145523071f, -0.060573354363441467285f, 0.033871904015541076660f, 0.082965686917304992676f, 0.031436361372470855713f, -0.10000608861446380615f, 0.034367866814136505127f, -0.12192266434431076050f, 0.13324227929115295410f, -0.089944414794445037842f, -0.0062136412598192691803f, -0.030655335634946823120f, -0.12954564392566680908f, 0.063501939177513122559f, -0.018028061836957931519f, 0.11918247491121292114f, -0.030981920659542083740f, -0.042440716177225112915f, -0.13130944967269897461f, 0.030000103637576103210f, 0.087677687406539916992f, 0.0011989633785560727119f, 0.0082353306934237480164f, -0.093793556094169616699f, -0.11210659891366958618f, 0.055710844695568084717f, 0.099685966968536376953f, -0.10498163849115371704f, -0.025305593386292457581f, -0.059542976319789886475f, -0.10328361392021179199f, -0.058783806860446929932f, 0.062494419515132904053f, 0.053100503981113433838f, -0.040618248283863067627f, -0.066237300634384155273f, 0.064062945544719696045f, 0.10501930117607116699f, 0.11599576473236083984f},
  {-0.053277261555194854736f, 0.033287536352872848511f, -0.12003440409898757935f, 0.15205736458301544189f, 0.10638266056776046753f, -0.14133732020854949951f, -0.014241622760891914368f, 0.12922744452953338623f, 0.0058298269286751747131f, 0.053827278316020965576f, 0.033615078777074813843f, -0.024032365530729293823f, -0.16999977827072143555f, 0.034304868429899215698f, 0.016948375850915908813f, -0.075088948011398315430f, 0.040069546550512313843f, 0.0024960448499768972397f, 0.039644353091716766357f, 0.064837329089641571045f, 0.047733411192893981934f, -0.032433278858661651611f, 0.15267369151115417480f, -0.057281076908111572266f, 0.094527505338191986084f, -0.065852053463459014893f, 0.042822364717721939087f, 0.20203860104084014893f, -0.13006737828254699707f, -0.10645847022533416748f, -0.041802830994129180908f, 0.011080604977905750275f, 0.10976981371641159058f, -0.10289527475833892822f, -0.065031111240386962891f, -0.0097496174275875091553f, -0.080640576779842376709f, -0.054302118718624114990f, 0.0068355267867445945740f, -0.12064033746719360352f, 0.048100400716066360474f, 0.15645784139633178711f, 0.098036482930183410645f, -0.054845549166202545166f, 0.026102455332875251770f, 0.010244838893413543701f, -0.041691131889820098877f, 0.033498577773571014404f, -0.048104606568813323975f, 0.13337780535221099854f},
  {-0.070089884102344512939f, 0.12761527299880981445f, 0.055293194949626922607f, -0.22317358851432800293f, 0.11737157404422760010f, 0.23667423427104949951f, -0.091523468494415283203f, -0.059790235012769699097f, -0.021804893389344215393f, -0.11776358634233474731f, -0.095014646649360656738f, 0.16178753972053527832f, -0.050285138189792633057f, -0.062519751489162445068f, 0.084926314651966094971f, -0.11792654544115066528f, 0.076828300952911376953f, -0.12437690049409866333f, 0.11844924837350845337f, 0.0078820707276463508606f, -0.12510061264038085938f, 0.050234470516443252563f, 0.17114157974720001221f, 0.0051982239820063114166f, -0.050740636885166168213f, -0.11425688862800598145f, -0.018892999738454818726f, 0.14211915433406829834f, -0.14401523768901824951f, 0.023313637822866439819f, -0.0061389659531414508820f, 0.25654152035713195801f, 0.12706506252288818359f, 0.048634275794029235840f, -0.092411600053310394287f, -0.14961333572864532471f, 0.10638658702373504639f, -0.040821313858032226562f, -0.14678494632244110107f, 0.20325487852096557617f, -0.030342867597937583923f, -0.0052500488236546516418f, 0.014810273423790931702f, -0.053963586688041687012f, -0.017583511769771575928f, 0.10723539441823959351f, -0.11010576784610748291f, -0.084764942526817321777f, 0.082413457334041595459f, 0.12662063539028167725f},
  {0.33411940932273864746f, 0.33281329274177551270f, 0.092682786285877227783f, -0.48576015233993530273f, -0.12731389701366424561f, 0.24851401150226593018f, -0.25223663449287414551f, -0.018357776105403900146f, -0.019517477601766586304f, -0.14646464586257934570f, 0.10072527825832366943f, 0.34607738256454467773f, 0.079232111573219299316f, -0.15061807632446289062f, 0.077144242823123931885f, -0.095967866480350494385f, -0.19636337459087371826f, -0.12149893492460250854f, 0.25646182894706726074f, -0.14770799875259399414f, -0.0088524492457509040833f, -0.097491607069969177246f, 0.68974632024765014648f, -0.065386913716793060303f, 0.13441033661365509033f, -0.019012138247489929199f, -0.10988397151231765747f, -0.0088407993316650390625f, -0.082310184836387634277f, -0.039232242852449417114f, 0.25784823298454284668f, 0.45547178387641906738f, 0.45001280307769775391f, -0.15276652574539184570f, -0.11945103108882904053f, -0.42610102891921997070f, 0.19274556636810302734f, -0.11657162755727767944f, -0.30141383409500122070f, 0.41607162356376647949f, 0.072900503873825073242f, -0.30285754799842834473f, -0.0071825529448688030243f, 0.31654152274131774902f, -0.056157965213060379028f, 0.14676634967327117920f, -0.25805479288101196289f, -0.12623861432075500488f, 0.083632640540599822998f, -0.22216388583183288574f},
  {0.016681613400578498840f, -0.13185535371303558350f, -0.0035290315281599760056f, 0.047895859926939010620f, 0.11551138013601303101f, -0.058550726622343063354f, 0.091077573597431182861f, 0.10607556998729705811f, 0.087710283696651458740f, 0.13754634559154510498f, 0.12076765298843383789f, -0.052399929612874984741f, -0.12821817398071289062f, -0.010906926356256008148f, -0.12719550728797912598f, 0.059963330626487731934f, -0.026500441133975982666f, 0.0092782108113169670105f, -0.047671228647232055664f, 0.095976985991001129150f, -0.026324244216084480286f, 0.011846578679978847504f, -0.040670827031135559082f, -0.10760753601789474487f, 0.0076486933976411819458f, -0.018459469079971313477f, 0.13206189870834350586f, -0.096751019358634948730f, -0.085388824343681335449f, 0.015292719937860965729f, -0.020079338923096656799f, -0.12504887580871582031f, -0.036885239183902740479f, 0.095280379056930541992f, -0.094158373773097991943f, -0.065422564744949340820f, -0.13175809383392333984f, 0.11857619881629943848f, 0.10495682805776596069f, -0.075063534080982208252f, 0.091245010495185852051f, -0.096778571605682373047f, 0.012895217165350914001f, -0.064252890646457672119f, 0.016513220965862274170f, -0.046827420592308044434f, -0.012715085409581661224f, 0.11210325360298156738f, -0.021375238895416259766f, 0.062481585890054702759f},
  {-0.086222372949123382568f, 0.14698801934719085693f, 0.072786673903465270996f, 0.63621962070465087891f, -0.097245372831821441650f, -0.17595890164375305176f, 0.22666411101818084717f, 0.29519259929656982422f, 0.44658386707305908203f, 0.22145748138427734375f, -0.083187967538833618164f, 0.0051222192123532295227f, -0.0039677591994404792786f, 0.075117871165275573730f, 0.039828330278396606445f, 0.52602022886276245117f, 0.18876680731773376465f, 0.13465842604637145996f, -0.069449886679649353027f, -0.031514327973127365112f, -0.035066816955804824829f, 0.0038934813346713781357f, -0.16234475374221801758f, 0.086404383182525634766f, -0.0054613635875284671783f, 0.017115855589509010315f, -0.075285889208316802979f, -0.10256551206111907959f, -0.085196070373058319092f, -0.019063476473093032837f, -0.031824056059122085571f, -0.42340555787086486816f, 0.32828041911125183105f, 0.30728128552436828613f, 0.043646760284900665283f, 0.54238528013229370117f, 0.096371710300445556641f, 0.13209362328052520752f, 0.45545917749404907227f, 0.0028144740499556064606f, -0.15937428176403045654f, 0.065285429358482360840f, 0.28951013088226318359f, -0.42108249664306640625f, 0.35305067896842956543f, -0.010228830389678478241f, 0.51908797025680541992f, 0.12756127119064331055f, -0.082698523998260498047f, 0.36585119366645812988f},
  {-0.051514107733964920044f, -0.037369150668382644653f, 0.070551216602325439453f, -0.13336916267871856689f, -0.13832183182239532471f, -0.0025218483060598373413f, 0.12421243637800216675f, 0.027827812358736991882f, 0.071997202932834625244f, -0.027017092332243919373f, -0.049642045050859451294f, -0.050965506583452224731f, 0.095617584884166717529f, -0.11571674048900604248f, 0.093959778547286987305f, -0.051356576383113861084f, 0.015365898609161376953f, 0.045128434896469116211f, -0.063390731811523437500f, -0.092044673860073089600f, -0.069246418774127960205f, -0.13416624069213867188f, 0.018831752240657806396f, 0.11592405289411544800f, -0.079404972493648529053f, -0.033611707389354705811f, 0.10688783228397369385f, -0.059720519930124282837f, 0.10027160495519638062f, 0.11205568164587020874f, -0.066899545490741729736f, -0.067949660122394561768f, 0.0092246979475021362305f, 0.0050160819664597511292f, 0.10551804304122924805f, -0.10301661491394042969f, -0.058346126228570938110f, 0.036745224148035049438f, -0.062507271766662597656f, -0.098827905952930450439f, -0.075903676450252532959f, -0.11000727862119674683f, -0.10833688080310821533f, 0.0026135430671274662018f, -0.083682365715503692627f, 0.044158838689327239990f, 0.11986050009727478027f, -0.13148780167102813721f, 0.031765121966600418091f, 0.11659833788871765137f},
  {0.27600023150444030762f, -0.19907724857330322266f, -0.059670463204383850098f, 0.21098127961158752441f, -0.072570413351058959961f, -0.42069038748741149902f, 0.096504919230937957764f, 0.094153143465518951416f, 0.15392087399959564209f, 0.22630669176578521729f, 0.12745380401611328125f, -0.24788463115692138672f, -0.32695096731185913086f, -0.096651740372180938721f, -0.070050649344921112061f, -0.16077920794486999512f, -0.18324959278106689453f, 0.071226187050342559814f, 0.37739744782447814941f, -0.068093411624431610107f, -0.089428402483463287354f, -0.068187378346920013428f, -0.054807301610708236694f, 0.12802837789058685303f, -0.038862254470586776733f, 0.096714325249195098877f, -0.11786243319511413574f, 0.080251626670360565186f, -0.049380738288164138794f, -0.083271175622940063477f, 0.16247169673442840576f, 0.22578723728656768799f, 0.14510905742645263672f, -0.11089277267456054688f, 0.028822558000683784485f, 0.048067521303892135620f, 0.19802981615066528320f, -0.13320164382457733154f, -0.013428062200546264648f, -0.23722545802593231201f, 0.32383230328559875488f, 0.096083432435989379883f, 0.28296837210655212402f, -0.047717150300741195679f, 0.12119445949792861938f, 0.072309032082557678223f, 0.23323231935501098633f, -0.097556546330451965332f, -0.12994922697544097900f, -0.15719257295131683350f},
  {0.43521329760551452637f, 0.22597029805183410645f, -0.11916171759366989136f, 0.26304677128791809082f, -0.041370227932929992676f, -0.040693495422601699829f, 0.41716089844703674316f, -0.029501447454094886780f, 0.16336569190025329590f, -0.032147470861673355103f, -0.20823265612125396729f, -0.14193393290042877197f, 0.12945289909839630127f, -0.091373041272163391113f, -0.053272712975740432739f, -0.039067260921001434326f, -0.026442585512995719910f, 0.093746960163116455078f, 0.20323650538921356201f, 0.13147798180580139160f, -0.091304138302803039551f, 0.13218237459659576416f, -0.19000098109245300293f, -0.0045693758875131607056f, -0.095865875482559204102f, -0.13027024269104003906f, 0.013830017298460006714f, -0.34563767910003662109f, -0.011779469437897205353f, 0.13599184155464172363f, 0.029883567243814468384f, 0.45488387346267700195f, -0.49773529171943664551f, 0.36214593052864074707f, 0.26307138800621032715f, 0.11785113811492919922f, 0.060021732002496719360f, -0.057772204279899597168f, 0.099489368498325347900f, 0.11791449785232543945f, 0.35731059312820434570f, -0.0060159531421959400177f, -0.19541393220424652100f, 0.61511886119842529297f, 0.35299855470657348633f, -0.0094968741759657859802f, 0.22672332823276519775f, -0.015916684642434120178f, -0.17654120922088623047f, -0.071459032595157623291f},
