
#ifndef ORIGINAL_H
#define ORIGINAL_H
// This file is computer-generated by onnx2c 
// (TODO: add creating command line here)
// (TODO: print creation date here )

// ONNX model:
// produced by pytorch, version 1.11.0
// ONNX IR version: 9
// Model documentation: 
/*

*/

#include <float.h>
#include <math.h>
#include <stdbool.h>
#include <stdint.h>
#include <string.h>
#define MAX(X,Y) ( X > Y ? X : Y)
#define MIN(X,Y) ( X < Y ? X : Y)
#define CLIP(X,L) ( MAX(MIN(X,L), -L) )

static const float tensor_Gemm_0_weight[25][64] = 
{
  {0.061341803520917892456f, 0.062091156840324401855f, -0.026531429961323738098f, 0.18465472757816314697f, 0.15519998967647552490f, -0.0062639308162033557892f, -0.10635332763195037842f, -0.12481352686882019043f, 0.083408966660499572754f, 0.090499587357044219971f, 0.45469087362289428711f, 0.97035074234008789062f, 0.66345936059951782227f, 0.11439972370862960815f, -0.11195407807826995850f, -0.12136011570692062378f, -0.076580435037612915039f, 0.25934305787086486816f, 0.42459845542907714844f, 0.069592952728271484375f, 0.42137044668197631836f, 0.42850142717361450195f, 0.035187110304832458496f, 0.075813077390193939209f, -0.027903497219085693359f, -0.080462560057640075684f, -0.97481769323348999023f, -0.78511780500411987305f, 0.10886956751346588135f, 0.43358197808265686035f, 0.061500072479248046875f, -0.015015039592981338501f, -0.078604519367218017578f, -0.14023937284946441650f, -0.50930231809616088867f, -0.32325524091720581055f, -0.080880291759967803955f, 0.25065869092941284180f, 0.18855699896812438965f, 0.0094418041408061981201f, 0.070348277688026428223f, 0.59850722551345825195f, 0.67747884988784790039f, 0.45460757613182067871f, 0.23313176631927490234f, 0.74958652257919311523f, 0.45339733362197875977f, 0.21825927495956420898f, 0.049185842275619506836f, 0.22470603883266448975f, 0.69942998886108398438f, 0.17935989797115325928f, 0.15117621421813964844f, 0.17299406230449676514f, 0.15841081738471984863f, -0.074478030204772949219f, -0.015194075182080268860f, 0.10576561838388442993f, -0.035782072693109512329f, -0.0089260190725326538086f, -0.045088276267051696777f, -0.11554360389709472656f, 0.015087465755641460419f, -0.078000888228416442871f},
  {-0.010561400093138217926f, -0.070150412619113922119f, -0.058594997972249984741f, -0.045824162662029266357f, -0.028103418648242950439f, -0.11666981875896453857f, -0.010569451376795768738f, 0.027384189888834953308f, -0.0089702708646655082703f, 0.018415454775094985962f, 0.065584547817707061768f, -0.0077332020737230777740f, 0.11657869070768356323f, -0.075538955628871917725f, -0.10655361413955688477f, 0.014216799288988113403f, -0.017794651910662651062f, 0.0084538115188479423523f, -0.11397533863782882690f, 0.10855742543935775757f, -0.066962480545043945312f, 0.18117363750934600830f, 0.13912853598594665527f, -0.11043163388967514038f, -0.030178287997841835022f, 0.12243718653917312622f, -0.10127530246973037720f, -0.040641933679580688477f, -0.20584981143474578857f, 0.030699433758854866028f, 0.14140032231807708740f, -0.10746479779481887817f, -0.0060442509129643440247f, 0.11500265449285507202f, 0.10038166493177413940f, -0.094937749207019805908f, -0.12523753941059112549f, 0.073384605348110198975f, 0.069475896656513214111f, 0.11557004600763320923f, 0.084190174937248229980f, 0.070207625627517700195f, 0.044127497822046279907f, 0.11183350533246994019f, -0.034998264163732528687f, 0.063640043139457702637f, 0.051113426685333251953f, -0.073646374046802520752f, -0.053437881171703338623f, -0.048248007893562316895f, -0.071326486766338348389f, 0.029270492494106292725f, 0.090804845094680786133f, -0.050727523863315582275f, 0.030786281451582908630f, -0.092046938836574554443f, -0.085227116942405700684f, 0.042901813983917236328f, 0.055068116635084152222f, 0.071629524230957031250f, 0.036238145083189010620f, 0.097952708601951599121f, -0.11013560742139816284f, 0.088632524013519287109f},
  {0.12052449584007263184f, 0.025699481368064880371f, -0.082607835531234741211f, -0.090842008590698242188f, 0.030729256570339202881f, 0.016480989754199981689f, 0.059930715709924697876f, 0.12285201251506805420f, 0.12353062629699707031f, -0.089233018457889556885f, -0.044391945004463195801f, -0.11336226761341094971f, 0.063703253865242004395f, 0.058474801480770111084f, 0.031287420541048049927f, 0.033050004392862319946f, -0.011196210049092769623f, -0.053428079932928085327f, -0.020888160914182662964f, 0.090732142329216003418f, -0.10890545696020126343f, 0.028109932318329811096f, 0.10408011078834533691f, -0.11906360089778900146f, 0.036731824278831481934f, 0.064495615661144256592f, -0.12470027059316635132f, 0.087436027824878692627f, -0.058121725916862487793f, -0.019768802449107170105f, -0.017236303538084030151f, 0.085077323019504547119f, 0.078793942928314208984f, -0.084512725472450256348f, -0.091554410755634307861f, 0.083037294447422027588f, -0.11907421797513961792f, -0.017328796908259391785f, 0.10506591945886611938f, 0.079042583703994750977f, 0.068094931542873382568f, -0.10163603723049163818f, -0.047317296266555786133f, -0.034207932651042938232f, -0.078582048416137695312f, 0.058604948222637176514f, -0.062859565019607543945f, 0.035463407635688781738f, -0.0046603018417954444885f, 0.11055565625429153442f, 0.026677545160055160522f, -0.12398352473974227905f, 0.029411619529128074646f, 0.11676220595836639404f, -0.024012848734855651855f, -0.022077530622482299805f, 0.081819318234920501709f, -0.016605349257588386536f, 0.054081529378890991211f, 0.094098009169101715088f, 0.059849787503480911255f, -0.022920653223991394043f, -0.067255213856697082520f, -0.084822937846183776855f},
  {0.0098282592371106147766f, 0.032460369169712066650f, 0.075855985283851623535f, 0.076636001467704772949f, 0.088740177452564239502f, -0.035566430538892745972f, -0.078387439250946044922f, -0.076674364507198333740f, -0.11516957730054855347f, 0.10314822942018508911f, 0.049037173390388488770f, -0.0011844281107187271118f, 0.056598816066980361938f, -0.0080435574054718017578f, 0.099046334624290466309f, 0.0027651609852910041809f, -0.039306718856096267700f, -0.052326366305351257324f, -0.12552922964096069336f, -0.10083658993244171143f, -0.078248903155326843262f, -0.12490233778953552246f, 0.065941840410232543945f, -0.026875117793679237366f, -0.10571947693824768066f, -0.069921053946018218994f, 0.11039832979440689087f, 0.012788251042366027832f, -0.060958210378885269165f, -0.091860547661781311035f, 0.069690257310867309570f, -0.10927484184503555298f, 0.055019170045852661133f, 0.10789010673761367798f, 0.088824018836021423340f, -0.041421327739953994751f, 0.088691338896751403809f, -0.12227959185838699341f, 0.095636062324047088623f, 0.087202683091163635254f, 0.021448122337460517883f, -0.022326666861772537231f, 0.097501009702682495117f, -0.026714980602264404297f, -0.014767461456358432770f, -0.12510232627391815186f, 0.070863477885723114014f, 0.0079033225774765014648f, -0.041133977472782135010f, -0.10185349732637405396f, -0.0064586582593619823456f, -0.065110251307487487793f, 0.023133404552936553955f, -0.10525982081890106201f, -0.055195342749357223511f, -0.032364781945943832397f, -0.045499473810195922852f, 0.026700852438807487488f, 0.029563944786787033081f, 0.067662291228771209717f, 0.012662506662309169769f, -0.062417495995759963989f, -0.086203657090663909912f, -0.11629708111286163330f},
  {-0.11528591811656951904f, -0.099096171557903289795f, -0.0093135051429271697998f, -0.10567717999219894409f, 0.037192761898040771484f, -0.015269997529685497284f, -0.090515285730361938477f, 0.10846999287605285645f, -0.12274545431137084961f, 0.00049442786257714033127f, 0.074013285338878631592f, 0.030481850728392601013f, 0.0040691029280424118042f, -0.047014545649290084839f, -0.092149488627910614014f, -0.052180096507072448730f, -0.10373678058385848999f, 0.11185629665851593018f, -0.083931967616081237793f, -0.065646752715110778809f, 0.11870754510164260864f, -0.00083184457616880536079f, -0.031547620892524719238f, -0.083488114178180694580f, -0.0022896139416843652725f, 0.094186797738075256348f, 0.080916024744510650635f, -0.10562129318714141846f, -0.10770493745803833008f, 0.0021122167818248271942f, -0.031901136040687561035f, -0.045910265296697616577f, 0.017387205734848976135f, -0.050590220838785171509f, 0.060839705169200897217f, -0.10578817874193191528f, -0.028994705528020858765f, -0.11357458680868148804f, 0.014491641893982887268f, -0.038472291082143783569f, 0.074563242495059967041f, 0.049636185169219970703f, -0.0019714687950909137726f, -0.077738665044307708740f, 0.0013831807300448417664f, 0.077247165143489837646f, 0.10323200374841690063f, -0.089889250695705413818f, 0.030110003426671028137f, -0.098078332841396331787f, 0.0025905594229698181152f, -0.11094605922698974609f, -0.060070175677537918091f, -0.085476934909820556641f, 0.066586881875991821289f, 0.047762516885995864868f, -0.073679983615875244141f, -0.059807442128658294678f, 0.081331089138984680176f, 0.12487940490245819092f, -0.040630105882883071899f, -0.092683359980583190918f, 0.055931758135557174683f, -0.11674802005290985107f},
  {0.033742651343345642090f, -0.11905511468648910522f, -0.0062929773703217506409f, -0.012698245234787464142f, -0.038596313446760177612f, 0.017960429191589355469f, -0.062831319868564605713f, -0.11419922858476638794f, 0.031682867556810379028f, -0.068446204066276550293f, 0.054537482559680938721f, -0.12509188055992126465f, -0.11951646953821182251f, 0.062535494565963745117f, 0.059349458664655685425f, 0.044079203158617019653f, -0.10576313734054565430f, 0.038241799920797348022f, -0.071443326771259307861f, -0.065395824611186981201f, 0.10976298898458480835f, 0.090718768537044525146f, -0.039063479751348495483f, 0.10824649035930633545f, -0.10749743878841400146f, -0.0087298043072223663330f, 0.076235540211200714111f, -0.055627509951591491699f, 0.072385668754577636719f, -0.026024749502539634705f, 0.067092470824718475342f, -0.048059083521366119385f, -0.031635217368602752686f, -0.024267546832561492920f, -0.11128447949886322021f, 0.054270986467599868774f, -0.12421228736639022827f, -0.11531718075275421143f, 0.089361444115638732910f, -0.11345306783914566040f, 0.054802797734737396240f, -0.11498918384313583374f, -0.095195114612579345703f, -0.088934376835823059082f, -0.11872117966413497925f, 0.11062064766883850098f, -0.044923126697540283203f, -0.10026720911264419556f, 0.11170841008424758911f, 0.030240496620535850525f, 0.075786665081977844238f, 0.060872018337249755859f, 0.082995839416980743408f, 0.065507799386978149414f, -0.0054227504879236221313f, 0.080386176705360412598f, 0.086285717785358428955f, 0.026225045323371887207f, -0.12321307510137557983f, -0.061210766434669494629f, 0.048830863088369369507f, 0.060983922332525253296f, 0.010395141318440437317f, -0.078215196728706359863f},
  {-0.085825674235820770264f, -0.099740415811538696289f, -0.077392436563968658447f, 0.020857432857155799866f, -0.074864163994789123535f, -0.062874309718608856201f, 0.0076830964535474777222f, -0.0052115018479526042938f, -0.039634190499782562256f, 0.056544732302427291870f, 0.12402942031621932983f, 0.13693974912166595459f, 0.11487851291894912720f, -0.064809814095497131348f, 0.0074614975601434707642f, 0.028927410021424293518f, -0.058899018913507461548f, -0.038579810410737991333f, -0.0051498818211257457733f, -0.092445529997348785400f, -0.016819745302200317383f, 0.24177499115467071533f, 0.12570448219776153564f, -0.029686911031603813171f, 0.0062655382789671421051f, 0.0062276879325509071350f, 0.056349042803049087524f, -0.37668284773826599121f, -0.10924696922302246094f, -0.069764606654644012451f, -0.058195915073156356812f, -0.027936289086937904358f, -0.094429120421409606934f, 0.11949400603771209717f, 0.052003119140863418579f, 0.074358291923999786377f, 0.14240878820419311523f, -0.098489150404930114746f, -0.059053525328636169434f, 0.063016623258590698242f, -0.0075343046337366104126f, 0.18249656260013580322f, 0.37750354409217834473f, 0.17504170536994934082f, 0.13943134248256683350f, 0.026753639802336692810f, 0.085669063031673431396f, 0.15313562750816345215f, -0.076977126300334930420f, 0.097007967531681060791f, 0.030325673520565032959f, -0.16340522468090057373f, -0.13136668503284454346f, 0.17914658784866333008f, 0.089922182261943817139f, 0.051094803959131240845f, -0.0064813266508281230927f, -0.12413991242647171021f, -0.066358543932437896729f, -0.010354540310800075531f, -0.10378613322973251343f, 0.087812386453151702881f, 0.10107995569705963135f, -0.054691325873136520386f},
  {-0.021765748038887977600f, 0.039794694632291793823f, 0.073919631540775299072f, 0.065269969403743743896f, -0.14472071826457977295f, -0.16370810568332672119f, -0.045104317367076873779f, 0.10352681577205657959f, 0.012305830605328083038f, 0.083369992673397064209f, -0.14395235478878021240f, -0.059118617326021194458f, 0.066442877054214477539f, 0.10528566688299179077f, -0.044425118714570999146f, -0.022369114682078361511f, 0.082599356770515441895f, -0.092679791152477264404f, -0.041187610477209091187f, 0.12083564698696136475f, 0.60838091373443603516f, 0.19830682873725891113f, 0.15009394288063049316f, 0.11906397342681884766f, -0.12387377023696899414f, -0.081898741424083709717f, 0.16233548521995544434f, 0.19953911006450653076f, 0.17754171788692474365f, -0.25484725832939147949f, 0.17905285954475402832f, -0.072044998407363891602f, -0.025551399216055870056f, -0.055660214275121688843f, -0.081050947308540344238f, -0.36620253324508666992f, -0.34934055805206298828f, -0.22156186401844024658f, 0.068222455680370330811f, -0.067876189947128295898f, 0.081341907382011413574f, 0.028298091143369674683f, -0.13297884166240692139f, -0.10528566688299179077f, -0.032670080661773681641f, -0.22560207545757293701f, -0.12615217268466949463f, 0.080560810863971710205f, -0.038430660963058471680f, -0.023396659642457962036f, 0.27386358380317687988f, 0.17889253795146942139f, 0.19779883325099945068f, 0.058533214032649993896f, -0.076191306114196777344f, 0.032693147659301757812f, -0.045449022203683853149f, -0.11899905651807785034f, 0.017504537478089332581f, 0.14461140334606170654f, 0.038662590086460113525f, 0.090123362839221954346f, 0.0020631197839975357056f, -0.023122392594814300537f},
  {-0.030541226267814636230f, 0.018321754410862922668f, -0.021417073905467987061f, -0.016520431265234947205f, 0.11192467808723449707f, 0.13148707151412963867f, -0.060910310596227645874f, 0.065052859485149383545f, 0.027916310355067253113f, -0.12148920446634292603f, -0.094898104667663574219f, -0.017309030517935752869f, -0.074008256196975708008f, -0.077076673507690429688f, 0.071462452411651611328f, 0.0030625364743173122406f, 0.026262316852807998657f, 0.032587103545665740967f, 0.087480425834655761719f, 0.062037281692028045654f, -0.18469029664993286133f, -0.054661899805068969727f, 0.038553144782781600952f, 0.0014138182159513235092f, 0.00093661836581304669380f, -0.11131414771080017090f, -0.0083253663033246994019f, 0.13188037276268005371f, -0.088049903512001037598f, 0.12739667296409606934f, 0.013385187834501266479f, 0.031806815415620803833f, -0.031005093827843666077f, -0.046691667288541793823f, -0.049792025238275527954f, 0.14628738164901733398f, -0.093396671116352081299f, 0.11437223106622695923f, 0.014824785292148590088f, -0.12098967283964157104f, 0.075077190995216369629f, 0.0017134505324065685272f, 0.072324201464653015137f, 0.060598462820053100586f, 0.069589555263519287109f, -0.10300007462501525879f, 0.033311385661363601685f, 0.077870845794677734375f, -0.0093788253143429756165f, -0.067602708935737609863f, -0.031286302953958511353f, -0.033877100795507431030f, 0.13318289816379547119f, 0.014502701349556446075f, 0.029090462252497673035f, -0.045951567590236663818f, -0.017898986116051673889f, -0.088068298995494842529f, -0.050124991685152053833f, -0.046367753297090530396f, -0.10594760626554489136f, -0.017312182113528251648f, 0.088524274528026580811f, 0.057483866810798645020f},
  {-0.11028327792882919312f, 0.12220058590173721313f, -0.11611110717058181763f, -0.032232463359832763672f, 0.14385619759559631348f, 0.11477041989564895630f, 0.042468272149562835693f, -0.061874214559793472290f, -0.11063580214977264404f, -0.12150160968303680420f, -0.027629636228084564209f, -0.26048547029495239258f, -0.19234932959079742432f, 0.065969891846179962158f, 0.12359105795621871948f, 0.076046787202358245850f, -0.070895791053771972656f, -0.016191808506846427917f, -0.16729192435741424561f, -0.30636808276176452637f, -0.26418566703796386719f, -0.18760643899440765381f, -0.21621701121330261230f, 0.015649450942873954773f, -0.019014740362763404846f, -0.030892621725797653198f, 0.12309966981410980225f, -0.20002232491970062256f, 0.059923812747001647949f, -0.032436091452836990356f, -0.15631245076656341553f, -0.013272101059556007385f, -0.11172583699226379395f, 0.11053072661161422729f, 0.34529852867126464844f, 0.12350895255804061890f, 0.38294142484664916992f, 0.25062179565429687500f, 0.13216030597686767578f, -0.016613829880952835083f, 0.10516080260276794434f, -0.15971679985523223877f, -0.068580105900764465332f, 0.29024919867515563965f, 0.27564603090286254883f, -0.064583979547023773193f, 0.12116868048906326294f, 0.12107684463262557983f, -0.11866223812103271484f, -0.10596248507499694824f, -0.22480839490890502930f, -0.41450309753417968750f, -0.078083001077175140381f, 0.025028388947248458862f, -0.069177448749542236328f, 0.0066344877704977989197f, 0.095480509102344512939f, -0.044990632683038711548f, -0.16169092059135437012f, -0.082745753228664398193f, -0.029889194294810295105f, 0.031916312873363494873f, -0.11189997941255569458f, 0.068276032805442810059f},
  {0.037569895386695861816f, 0.091294288635253906250f, 0.10397261381149291992f, -0.074407003819942474365f, 0.066968202590942382812f, 0.013209934346377849579f, -0.0047806808724999427795f, -0.12159240245819091797f, -0.082575753331184387207f, 0.014119808562099933624f, 0.073824234306812286377f, -0.0077392091043293476105f, -0.057769827544689178467f, -0.0091955540701746940613f, -0.065780639648437500000f, -0.053226370364427566528f, 0.055165130645036697388f, 0.034156482666730880737f, 0.022801244631409645081f, 0.036227881908416748047f, -0.28226941823959350586f, -0.075762920081615447998f, -0.28169873356819152832f, -0.16943553090095520020f, 0.10928226262331008911f, 0.10460986196994781494f, 0.17476733028888702393f, -0.13605402410030364990f, -0.13428752124309539795f, 0.49594193696975708008f, 0.10715006291866302490f, 0.039300903677940368652f, 0.0042255637235939502716f, 0.060785129666328430176f, 0.62863153219223022461f, 0.65421169996261596680f, 0.65116107463836669922f, 0.36254349350929260254f, 0.11220947653055191040f, 0.051611304283142089844f, -0.0041138571687042713165f, -0.039314944297075271606f, -0.072396069765090942383f, 0.36579170823097229004f, 0.34277057647705078125f, -0.031084304675459861755f, -0.00014161258877720683813f, 0.024685133248567581177f, -0.12112165242433547974f, -0.23460279405117034912f, -0.37444594502449035645f, -0.48308610916137695312f, -0.24942083656787872314f, -0.013988631777465343475f, 0.037211582064628601074f, 0.099665686488151550293f, -0.12289854139089584351f, -0.058522030711174011230f, -0.024527737870812416077f, -0.10908003151416778564f, -0.12695318460464477539f, -0.020987760275602340698f, -0.024545703083276748657f, -0.023534685373306274414f},
  {-0.041983347386121749878f, -0.052194274961948394775f, -0.033854953944683074951f, -0.039457056671380996704f, -0.11573886126279830933f, -0.12890644371509552002f, -0.045099761337041854858f, 0.076686918735504150391f, -0.025738144293427467346f, 0.061392307281494140625f, -0.12752501666545867920f, -0.23462383449077606201f, -0.0011247621150687336922f, 0.083680480718612670898f, 0.18837016820907592773f, -0.029186574742197990417f, 0.016614878550171852112f, 0.013214137405157089233f, 0.47398650646209716797f, 0.85621929168701171875f, 0.28703421354293823242f, 0.79893034696578979492f, 0.56146752834320068359f, 0.051197044551372528076f, 0.0018062513554468750954f, 0.26924666762351989746f, 1.1108620166778564453f, 0.64238333702087402344f, -0.78907126188278198242f, 0.50399303436279296875f, 0.60459876060485839844f, 0.071807473897933959961f, -0.094186663627624511719f, 0.30377978086471557617f, 0.67586213350296020508f, -0.16628943383693695068f, -0.23598594963550567627f, 0.22144360840320587158f, 0.20092521607875823975f, -0.021845769137144088745f, 0.090724088251590728760f, 0.043641317635774612427f, 0.22216837108135223389f, -0.38844773173332214355f, -0.021172612905502319336f, -0.036971040070056915283f, -0.27014285326004028320f, -0.037775333970785140991f, -0.028284190222620964050f, -0.15489582717418670654f, 0.23998197913169860840f, 0.53956228494644165039f, 0.31508740782737731934f, 0.043108910322189331055f, -0.15778656303882598877f, -0.12787096202373504639f, -0.048581413924694061279f, -0.062543980777263641357f, 0.13505117595195770264f, 0.15957078337669372559f, 0.087013028562068939209f, 0.13517358899116516113f, 0.014641907997429370880f, -0.024053050205111503601f},
  {0.062760256230831146240f, 0.023323701694607734680f, 0.0048958417028188705444f, 0.13979303836822509766f, 0.070226222276687622070f, 0.17185100913047790527f, -0.080772250890731811523f, 0.024965019896626472473f, 0.10570265352725982666f, 0.059664089232683181763f, 0.014143008738756179810f, 0.12167590111494064331f, 0.20236375927925109863f, 0.14118872582912445068f, 0.10844757407903671265f, 0.048920176923274993896f, -0.061553500592708587646f, 0.098699010908603668213f, 0.14944721758365631104f, 0.55881679058074951172f, 0.10835777968168258667f, 0.023348869755864143372f, 0.17929604649543762207f, 0.096934489905834197998f, -0.082428112626075744629f, 0.024282246828079223633f, 0.46519249677658081055f, 0.77169829607009887695f, -0.38170409202575683594f, -0.19375452399253845215f, 0.24091802537441253662f, 0.032418865710496902466f, -0.048896878957748413086f, -0.010463875718414783478f, 0.30972763895988464355f, -0.39074486494064331055f, -0.62699764966964721680f, 0.53429162502288818359f, 0.44276118278503417969f, 0.11594963818788528442f, -0.042265754193067550659f, 0.027380088344216346741f, 0.29737475514411926270f, -0.088865585625171661377f, 0.19320225715637207031f, 0.60468399524688720703f, 0.081823453307151794434f, -0.0082654533907771110535f, -0.0024792030453681945801f, 0.0070583713240921497345f, 0.25653198361396789551f, 0.43218383193016052246f, 0.23647914826869964600f, 0.038842979818582534790f, -0.11373610049486160278f, -0.088497243821620941162f, 0.076183095574378967285f, -0.053869340568780899048f, 0.080300375819206237793f, -0.0064800260588526725769f, -0.028345450758934020996f, -0.13726004958152770996f, -0.12005316466093063354f, 0.12395923584699630737f},
  {0.0093294801190495491028f, -0.025772342458367347717f, -0.11013592779636383057f, 0.025080259889364242554f, 0.11971233040094375610f, 0.13828733563423156738f, -0.058314532041549682617f, -0.037402026355266571045f, 0.053823530673980712891f, -0.048101074993610382080f, 0.070699162781238555908f, 0.14164604246616363525f, 0.096161492168903350830f, 0.093833170831203460693f, -0.074923276901245117188f, -0.023270396515727043152f, 0.057114634662866592407f, -0.10443630069494247437f, -0.052071984857320785522f, 0.096032813191413879395f, -0.11332165449857711792f, -0.24082326889038085938f, -0.14672888815402984619f, 0.078706488013267517090f, 0.10449366271495819092f, 0.054917175322771072388f, 0.079797178506851196289f, -0.0022691537160426378250f, -0.0058922772295773029327f, -0.034490674734115600586f, -0.0045223017223179340363f, -0.050447400659322738647f, 0.085630476474761962891f, -0.10265348106622695923f, -0.069399997591972351074f, 0.15699394047260284424f, -0.036766543984413146973f, 0.19646474719047546387f, 0.026257427409291267395f, 0.0052964803762733936310f, 0.10365393012762069702f, 0.095046229660511016846f, 0.040579672902822494507f, 0.24897298216819763184f, 0.036444049328565597534f, 0.13335934281349182129f, 0.11283997446298599243f, -0.016181729733943939209f, 0.015582470223307609558f, 0.075987346470355987549f, 0.026500904932618141174f, 0.054873533546924591064f, 0.032804921269416809082f, -0.042649190872907638550f, -0.12729436159133911133f, -0.019232470542192459106f, -0.093316890299320220947f, 0.098601900041103363037f, -0.066728807985782623291f, -0.0030835897196084260941f, 0.076258286833763122559f, -0.046986237168312072754f, 0.081605538725852966309f, 0.012905557639896869659f},
  {0.068826459348201751709f, -0.094064660370349884033f, 0.11366784572601318359f, 0.034357078373432159424f, 0.11187034845352172852f, -0.044221330434083938599f, -0.038715492933988571167f, -0.0074532674625515937805f, -0.096220001578330993652f, 0.040131244808435440063f, 0.061692353338003158569f, 0.091177634894847869873f, 0.092009626328945159912f, -0.042909767478704452515f, 0.00083940732292830944061f, -0.077952481806278228760f, -0.10371940582990646362f, 0.039002224802970886230f, -0.061244659125804901123f, -0.072600394487380981445f, -0.097486704587936401367f, 0.018614627420902252197f, -0.11592618376016616821f, 0.073694758117198944092f, -0.094180449843406677246f, -0.10508018732070922852f, 0.052373599261045455933f, -0.12182511389255523682f, -0.12240864336490631104f, -0.11817219853401184082f, -0.021585462614893913269f, -0.017115511000156402588f, 0.033202342689037322998f, 0.10814464837312698364f, -0.025817617774009704590f, -0.072504810988903045654f, -0.090239711105823516846f, 0.10491646081209182739f, 0.082405433058738708496f, 0.078295662999153137207f, -0.094734288752079010010f, 0.0068719750270247459412f, 0.038689032196998596191f, -0.018211891874670982361f, -0.11206737905740737915f, -0.11028573662042617798f, 0.10740865767002105713f, -0.058171078562736511230f, -0.070439711213111877441f, -0.044017381966114044189f, -0.096278071403503417969f, 0.037982903420925140381f, -0.040636043995618820190f, -0.077989347279071807861f, -0.067513450980186462402f, -0.096721902489662170410f, 0.0046827746555209159851f, 0.060217548161745071411f, -0.010869034565985202789f, -0.078582599759101867676f, -0.025505727156996726990f, 0.028661036863923072815f, -0.065386839210987091064f, -0.042984265834093093872f},
  {0.065378561615943908691f, 0.10859970003366470337f, -0.059934943914413452148f, -0.0098497187718749046326f, 0.045720826834440231323f, 0.095626279711723327637f, -0.053274419158697128296f, 0.063970819115638732910f, 0.11137947440147399902f, 0.0021055366378277540207f, -0.036226812750101089478f, -0.064055554568767547607f, 0.067954033613204956055f, 0.062788560986518859863f, -0.011844421736896038055f, -0.094364710152149200439f, -0.040084853768348693848f, 0.064391575753688812256f, -0.034929327666759490967f, -0.069020166993141174316f, 0.062609523534774780273f, -0.10678250342607498169f, 0.082781225442886352539f, 0.044731475412845611572f, -0.078911036252975463867f, 0.029612623155117034912f, -0.047894764691591262817f, 0.11379430443048477173f, -0.096755325794219970703f, -0.12244137376546859741f, 0.069572359323501586914f, 0.020401662215590476990f, 0.043069615960121154785f, -0.042892821133136749268f, 0.035857375711202621460f, -0.056471135467290878296f, 0.0047165215946733951569f, -0.092828638851642608643f, -0.11845839768648147583f, 0.016030328348278999329f, -0.10775059461593627930f, -0.019637513905763626099f, 0.048874288797378540039f, -0.014539936557412147522f, -0.052297286689281463623f, 0.10492387413978576660f, -0.083794429898262023926f, 0.082781426608562469482f, 0.020722657442092895508f, -0.093734987080097198486f, 0.080348014831542968750f, -0.085946276783943176270f, -0.019638290628790855408f, 0.038065154105424880981f, -0.083452679216861724854f, 0.094700187444686889648f, 0.091145306825637817383f, -0.11112871766090393066f, 0.060820862650871276855f, 0.043712679296731948853f, 0.10323064029216766357f, 0.086676873266696929932f, 0.071991018950939178467f, -0.071201995015144348145f},
  {0.089881248772144317627f, 0.0071060834452509880066f, -0.070800207555294036865f, -0.013037651777267456055f, 0.061419222503900527954f, -0.044668439775705337524f, -0.046840619295835494995f, -0.060749217867851257324f, -0.066651590168476104736f, 0.025872131809592247009f, -0.24362181127071380615f, -0.26543629169464111328f, 0.040040500462055206299f, -0.024226319044828414917f, 0.084502108395099639893f, 0.10121379047632217407f, 0.042237453162670135498f, -0.15863291919231414795f, -0.22219251096248626709f, -0.12289264053106307983f, -0.038953702896833419800f, -0.32908818125724792480f, -0.15172506868839263916f, -0.025729058310389518738f, -0.014730518683791160583f, -0.035812087357044219971f, 0.27056446671485900879f, 0.17524115741252899170f, -0.071088477969169616699f, -0.20505575835704803467f, -0.098665133118629455566f, 0.017763331532478332520f, 0.070216774940490722656f, 0.16719864308834075928f, 0.38800826668739318848f, 0.19759172201156616211f, 0.10811906307935714722f, 0.059220943599939346313f, 0.0036129967775195837021f, -0.080649852752685546875f, -0.032624565064907073975f, -0.072883419692516326904f, 0.10121294856071472168f, 0.23116740584373474121f, 0.23936496675014495850f, 0.028060344979166984558f, -0.070262111723423004150f, 0.083985477685928344727f, -0.024450574070215225220f, -0.11209657788276672363f, -0.22964867949485778809f, -0.062829650938510894775f, -0.12858256697654724121f, 0.051663320511579513550f, 0.078417003154754638672f, -0.062770575284957885742f, -0.10666954517364501953f, -0.062914751470088958740f, -0.026962567120790481567f, -0.12357770651578903198f, -0.043814729899168014526f, 0.013686724007129669189f, -0.11699008196592330933f, 0.099941395223140716553f},
  {-0.028653759509325027466f, -0.089124932885169982910f, 0.016171235591173171997f, -0.014683093875646591187f, -0.028338469564914703369f, -0.090393662452697753906f, 0.030177829787135124207f, 0.10609691590070724487f, -0.10437048226594924927f, -0.10408234596252441406f, -0.19263902306556701660f, -0.25009861588478088379f, -0.49936190247535705566f, -0.31006020307540893555f, -0.096230320632457733154f, 0.089614100754261016846f, 0.070743888616561889648f, 0.091023176908493041992f, 0.36288323998451232910f, 0.18825383484363555908f, -0.019327519461512565613f, 0.21627978980541229248f, -0.11934638768434524536f, -0.040849320590496063232f, -0.055412031710147857666f, 0.099333979189395904541f, 0.50975203514099121094f, 0.14740863442420959473f, 0.61672210693359375000f, 0.78716015815734863281f, -0.039657790213823318481f, -0.10532531887292861938f, 0.10292440652847290039f, 0.032156325876712799072f, 0.12294635921716690063f, 0.37345862388610839844f, 1.1402169466018676758f, 0.32167467474937438965f, -0.17089515924453735352f, -0.12733435630798339844f, -0.035134289413690567017f, -0.30925938487052917480f, -0.69877940416336059570f, -0.17033106088638305664f, 0.11979358643293380737f, -0.37987020611763000488f, -0.26946192979812622070f, -0.13922445476055145264f, -0.045159734785556793213f, -0.052836004644632339478f, -0.42587038874626159668f, -0.17788678407669067383f, -0.027383739128708839417f, -0.10972262173891067505f, 0.050160422921180725098f, -0.033830028027296066284f, -0.069247923791408538818f, -0.011377864517271518707f, 0.13586315512657165527f, 0.30734455585479736328f, 0.30270907282829284668f, 0.13178244233131408691f, -0.082550399005413055420f, -0.040344614535570144653f},
  {0.10543271899223327637f, 0.11825459450483322144f, 0.10188608616590499878f, -0.00024220246996264904737f, -0.0025569458957761526108f, -0.022789010778069496155f, 0.012173710390925407410f, -0.10394764691591262817f, -0.086095996201038360596f, 0.019245680421590805054f, 0.17423914372920989990f, 0.19543838500976562500f, 0.13222852349281311035f, 0.15226873755455017090f, 0.0045133517123758792877f, 0.10993485897779464722f, 0.047504331916570663452f, 0.11276736855506896973f, 0.15267410874366760254f, 0.16765895485877990723f, 0.53015536069869995117f, 0.055442448705434799194f, 0.030882224440574645996f, 0.14783237874507904053f, -0.066397249698638916016f, 0.010982841253280639648f, -0.50290942192077636719f, 0.033372845500707626343f, 1.0662788152694702148f, -0.29631724953651428223f, -0.35782006382942199707f, 0.047319009900093078613f, 0.057607766240835189819f, -0.23538941144943237305f, -1.0706773996353149414f, 0.18634453415870666504f, 0.41932681202888488770f, -0.54899400472640991211f, -0.21226134896278381348f, -0.041395757347345352173f, -0.039639513939619064331f, -0.18934774398803710938f, -0.33105623722076416016f, 0.29062429070472717285f, -0.011926336213946342468f, -0.13393428921699523926f, 0.0068389503285288810730f, 0.085825175046920776367f, 0.12656959891319274902f, 0.090081110596656799316f, 0.25880813598632812500f, 0.36390084028244018555f, 0.15794643759727478027f, 0.15280798077583312988f, -0.0052678389474749565125f, -0.044434688985347747803f, 0.043206304311752319336f, 0.051182728260755538940f, 0.0056328661739826202393f, 0.20503595471382141113f, 0.064738146960735321045f, 0.090495392680168151855f, 0.11541367322206497192f, -0.030154211446642875671f},
  {0.086829684674739837646f, 0.12654343247413635254f, -0.081840157508850097656f, 0.18809843063354492188f, 0.21699780225753784180f, 0.023128615692257881165f, -0.073707759380340576172f, -0.095846794545650482178f, -0.015087826177477836609f, -0.12480487674474716187f, -0.18938456475734710693f, 0.024510759860277175903f, 0.36957949399948120117f, 0.22940513491630554199f, -0.17467439174652099609f, -0.032781757414340972900f, -0.12588721513748168945f, 0.029517130926251411438f, -0.24316908419132232666f, -0.041029132902622222900f, -0.13634760677814483643f, -0.60005754232406616211f, -0.22901557385921478271f, 0.031296316534280776978f, 0.11752714216709136963f, -0.050611749291419982910f, -0.059926930814981460571f, -0.11237156391143798828f, 0.15931089222431182861f, -0.20219554007053375244f, -0.018135357648134231567f, 0.047625135630369186401f, -0.094924651086330413818f, -0.12334304302930831909f, 0.070303186774253845215f, 0.70920407772064208984f, 0.37850794196128845215f, -0.34560823440551757812f, 0.24615815281867980957f, -0.068078309297561645508f, -0.065806485712528228760f, -0.21902950108051300049f, 0.52418440580368041992f, 1.2939912080764770508f, 0.39473682641983032227f, -0.0037458552978932857513f, 0.048467222601175308228f, -0.085805267095565795898f, -0.090202748775482177734f, -0.17266957461833953857f, -0.22907006740570068359f, -0.067637234926223754883f, -0.13597314059734344482f, 0.032009106129407882690f, 0.0048540839925408363342f, 0.029280139133334159851f, 0.11559973657131195068f, 0.045010428875684738159f, -0.25726258754730224609f, -0.17736651003360748291f, -0.21691726148128509521f, 0.078371934592723846436f, 0.12322845309972763062f, 0.098082654178142547607f},
  {-0.058542147278785705566f, 0.091818451881408691406f, 0.0078219026327133178711f, 0.11971720308065414429f, 0.21104316413402557373f, 0.094060815870761871338f, 0.031852785497903823853f, 0.043749976903200149536f, -0.058207161724567413330f, -0.060885526239871978760f, 0.10584098100662231445f, 0.18442597985267639160f, 0.35645297169685363770f, 0.17976933717727661133f, 0.052892547100782394409f, 0.037261784076690673828f, -0.082933567464351654053f, -0.031329039484262466431f, -0.15693123638629913330f, -0.20144301652908325195f, -0.50538510084152221680f, -0.27404907345771789551f, -0.11088220030069351196f, -0.022693483158946037292f, -0.0016177481738850474358f, 0.047107607126235961914f, 0.045703224837779998779f, 0.30097463726997375488f, 0.0077322064898908138275f, -0.21150767803192138672f, 0.031153155490756034851f, 0.12761726975440979004f, -0.014431405812501907349f, -0.096625827252864837646f, 0.42192238569259643555f, 0.54357910156250000000f, 0.23704895377159118652f, 0.19685757160186767578f, 0.12010888010263442993f, -0.078241139650344848633f, 0.0033357725478708744049f, 0.10350190848112106323f, 0.39689585566520690918f, 0.53429186344146728516f, 0.16539852321147918701f, 0.47970032691955566406f, 0.14297001063823699951f, 0.068236276507377624512f, -0.077435515820980072021f, -0.081465460360050201416f, -0.0030291993170976638794f, 0.10148330032825469971f, 0.16455006599426269531f, 0.19856050610542297363f, -0.064001545310020446777f, -0.043823581188917160034f, 0.046203706413507461548f, -0.028967376798391342163f, -0.18963183462619781494f, -0.28536224365234375000f, -0.054674901068210601807f, -0.12315917015075683594f, -0.052201200276613235474f, -0.057984452694654464722f},
  {-0.084198310971260070801f, 0.084643781185150146484f, 0.026370480656623840332f, 0.0013000220060348510742f, 0.0066614449024200439453f, 0.078355699777603149414f, -0.028955370187759399414f, 0.024923011660575866699f, -0.099135830998420715332f, -0.046494245529174804688f, 0.0098849385976791381836f, -0.022107332944869995117f, -0.069433867931365966797f, -0.11297065019607543945f, 0.11602485179901123047f, 0.050154775381088256836f, -0.11472637951374053955f, -0.072850927710533142090f, -0.019066676497459411621f, -0.10291391611099243164f, 0.015805572271347045898f, -0.054692864418029785156f, 0.010630726814270019531f, -0.099322989583015441895f, 0.021095216274261474609f, 0.027848884463310241699f, -0.029381826519966125488f, 0.12280978262424468994f, -0.091692388057708740234f, -0.0063908994197845458984f, -0.094822406768798828125f, 0.0047661811113357543945f, 0.022790715098381042480f, 0.028391852974891662598f, 0.059956982731819152832f, 0.10615980625152587891f, -0.077501341700553894043f, -0.022924780845642089844f, 0.014242798089981079102f, -0.081322491168975830078f, 0.075391218066215515137f, -0.046328380703926086426f, -0.11075775325298309326f, 0.0091856867074966430664f, -0.083116725087165832520f, 0.071206390857696533203f, 0.0047532320022583007812f, 0.076298877596855163574f, -0.0072417855262756347656f, 0.054758563637733459473f, -0.098544955253601074219f, 0.074435427784919738770f, -0.10837084054946899414f, 0.093581274151802062988f, 0.029276117682456970215f, 0.11153657734394073486f, 0.11698603630065917969f, 0.075016200542449951172f, -0.065383031964302062988f, -0.10137519240379333496f, -0.091427937150001525879f, 0.095786556601524353027f, -0.053899809718132019043f, 0.021817788481712341309f},
  {0.046571034938097000122f, 0.074436716735363006592f, -0.13036531209945678711f, 0.021731432527303695679f, -0.087606050074100494385f, -0.15556703507900238037f, 0.022691285237669944763f, -0.093039870262145996094f, -0.049333658069372177124f, 0.12437610328197479248f, 0.017134824767708778381f, -0.26022142171859741211f, -0.29750710725784301758f, -0.30329969525337219238f, -0.15469641983509063721f, 0.071732886135578155518f, -0.032245222479104995728f, 0.28631690144538879395f, 0.14475709199905395508f, 0.31735864281654357910f, 1.1204240322113037109f, 0.42193609476089477539f, -0.29053762555122375488f, -0.15598671138286590576f, 0.042401995509862899780f, 0.16199941933155059814f, -0.13257965445518493652f, -0.50315570831298828125f, 0.44852113723754882812f, 0.67517149448394775391f, -0.048495668917894363403f, -0.0071484902873635292053f, -0.055903714150190353394f, 0.093875281512737274170f, -0.23007003962993621826f, -0.92140275239944458008f, 0.12293916195631027222f, 0.46978116035461425781f, 0.089414231479167938232f, 0.015783024951815605164f, -0.062172684818506240845f, -0.023468902334570884705f, -0.60398179292678833008f, -0.55537784099578857422f, 0.11120261251926422119f, -0.072849176824092864990f, -0.058733619749546051025f, -0.070938780903816223145f, -0.018009575083851814270f, 0.0056332675740122795105f, -0.056789781898260116577f, 0.082703039050102233887f, -0.10612695664167404175f, -0.22892507910728454590f, -0.11870837211608886719f, 0.10387755185365676880f, -0.093393035233020782471f, -0.019208407029509544373f, 0.22962142527103424072f, 0.44395452737808227539f, 0.32540166378021240234f, -0.0076916278339922428131f, 0.12546952068805694580f, -0.065512269735336303711f},
  {-0.0037845831830054521561f, 0.0033035501837730407715f, 0.11731500178575515747f, 0.058997303247451782227f, 0.032622359693050384521f, -0.098111651837825775146f, -0.074859596788883209229f, 0.067016564309597015381f, 0.088339708745479583740f, -0.021068330854177474976f, 0.13641177117824554443f, 0.19247898459434509277f, 0.064662396907806396484f, -0.070375092327594757080f, 0.026187160983681678772f, 0.095340467989444732666f, 0.0084804808720946311951f, 0.0063171144574880599976f, -0.041418429464101791382f, -0.17655956745147705078f, 0.034822791814804077148f, 0.044255357235670089722f, 0.022921072319149971008f, -0.081173174083232879639f, -0.0067789098247885704041f, -0.12194890528917312622f, -0.010016761720180511475f, 0.081937387585639953613f, 0.13451848924160003662f, 0.017126828432083129883f, -0.11588838696479797363f, 0.083319962024688720703f, -0.096746370196342468262f, -0.014470306225121021271f, 0.17204545438289642334f, 0.16364686191082000732f, 0.039350509643554687500f, 0.19578899443149566650f, -0.052148580551147460938f, -0.039977032691240310669f, 0.095885582268238067627f, 0.12992149591445922852f, -0.16296266019344329834f, -0.33468025922775268555f, -0.091555185616016387939f, 0.33207798004150390625f, 0.014159544371068477631f, 0.025874590501189231873f, -0.055755529552698135376f, 0.12717686593532562256f, 0.088973656296730041504f, -0.0020955894142389297485f, 0.20634715259075164795f, 0.072221152484416961670f, -0.070613749325275421143f, -0.033993262797594070435f, 0.080629080533981323242f, -0.057307608425617218018f, -0.10214912891387939453f, -0.0018973567057400941849f, 0.098466224968433380127f, 0.053844001144170761108f, -0.062649816274642944336f, -0.091701224446296691895f},
  {0.033859264105558395386f, 0.092073261737823486328f, 0.11292611807584762573f, 0.040518976747989654541f, -0.022931035608053207397f, -0.010750961489975452423f, -0.065837182104587554932f, 0.018262388184666633606f, -0.065192811191082000732f, 0.051360510289669036865f, 0.15050144493579864502f, 0.48487886786460876465f, 0.36881610751152038574f, 0.36739349365234375000f, 0.10876458138227462769f, 0.047649353742599487305f, -0.11783915758132934570f, 0.037788935005664825439f, -0.073587432503700256348f, -0.023413132876157760620f, 0.044282104820013046265f, 0.17550334334373474121f, 0.27616769075393676758f, 0.043432097882032394409f, -0.029694542288780212402f, -0.19772796332836151123f, -0.23243412375450134277f, 0.64911681413650512695f, 0.36980131268501281738f, -0.28563520312309265137f, -0.045479301363229751587f, -0.051824193447828292847f, -0.021774603053927421570f, -0.030413812026381492615f, 0.017201496288180351257f, 0.26052811741828918457f, -0.13266333937644958496f, -0.13738663494586944580f, 0.052890181541442871094f, -0.089973129332065582275f, 0.068314522504806518555f, 0.15680353343486785889f, 0.22656543552875518799f, -0.29214811325073242188f, -0.42912867665290832520f, 0.26683571934700012207f, -0.020848223939538002014f, 0.051506686955690383911f, 0.011140717193484306335f, 0.29190388321876525879f, 0.41780048608779907227f, 0.48326069116592407227f, 0.54510319232940673828f, 0.28831279277801513672f, 0.084392771124839782715f, 0.0063821021467447280884f, 0.020916050300002098083f, 0.027050629258155822754f, -0.14866572618484497070f, 0.035176265984773635864f, 0.064271137118339538574f, 0.021988019347190856934f, 0.037663601338863372803f, 0.071214072406291961670f}
};
static const float tensor_Gemm_0_bias[25] = 
{-0.036920197308063507080f, 0.033352278172969818115f, -0.11129784584045410156f, -0.075841285288333892822f, -0.041318971663713455200f, -0.12185625731945037842f, 0.085234671831130981445f, 0.48820054531097412109f, 0.0012605328811332583427f, 0.50026178359985351562f, 0.13713020086288452148f, 0.082102999091148376465f, 0.19729040563106536865f, -0.099221102893352508545f, 0.019253393635153770447f, -0.095369987189769744873f, 0.40641477704048156738f, 0.40266877412796020508f, 0.70555704832077026367f, 0.38734251260757446289f, 0.15734191238880157471f, -0.11373572051525115967f, 0.63476085662841796875f, 0.098289340734481811523f, -0.041813243180513381958f};
static const float tensor_Gemm_1_weight[10][25] = 
{
  {0.10699149966239929199f, 0.22702614963054656982f, 0.035809308290481567383f, -0.17178995907306671143f, 0.064303316175937652588f, 0.11764074116945266724f, 0.093158312141895294189f, 0.47502827644348144531f, 0.15969300270080566406f, -0.37120059132575988770f, -0.55005407333374023438f, 1.2772809267044067383f, 0.84594357013702392578f, -0.10218585282564163208f, -0.15877671539783477783f, -0.079118147492408752441f, 0.013903224840760231018f, -1.2640454769134521484f, -1.1252084970474243164f, -0.40750387310981750488f, -0.16739222407341003418f, -0.072198152542114257812f, 0.046627845615148544312f, -0.093063756823539733887f, 0.27324753999710083008f},
  {-0.34923976659774780273f, 0.019389528781175613403f, 0.087660267949104309082f, -0.16914631426334381104f, 0.096228390932083129883f, 0.087307065725326538086f, -0.060511693358421325684f, 0.43285751342773437500f, -0.033693000674247741699f, 0.35652482509613037109f, -0.29966682195663452148f, -1.7189068794250488281f, -1.1279153823852539062f, -0.19945739209651947021f, -0.084086470305919647217f, -0.19452433288097381592f, 0.21757337450981140137f, -0.14411738514900207520f, 1.3488736152648925781f, 0.91551458835601806641f, -0.10914664715528488159f, -0.15541262924671173096f, 0.12631808221340179443f, -0.20410433411598205566f, 0.021972367540001869202f},
  {1.7096585035324096680f, 0.11540062725543975830f, -0.042272198945283889771f, -0.10267549008131027222f, 0.16402857005596160889f, -0.057951573282480239868f, 0.62818819284439086914f, -0.48010069131851196289f, -0.11324465274810791016f, 0.18994295597076416016f, 0.32550707459449768066f, -0.68563503026962280273f, -0.38793286681175231934f, 0.031257309019565582275f, -0.16711407899856567383f, 0.13421876728534698486f, -0.18129593133926391602f, -0.67416900396347045898f, -0.047283422201871871948f, 0.58584064245223999023f, 0.33946034312248229980f, 0.11902437359094619751f, -0.37996634840965270996f, -0.067377954721450805664f, -0.15845097601413726807f},
  {0.93669980764389038086f, -0.22556449472904205322f, -0.11362089216709136963f, -0.029837438836693763733f, -0.18280798196792602539f, -0.18845450878143310547f, -0.31624475121498107910f, 0.012852275744080543518f, 0.0084839584305882453918f, -0.32443326711654663086f, -0.61484849452972412109f, -0.59987848997116088867f, 0.20321160554885864258f, 0.089548580348491668701f, -0.074722163379192352295f, -0.17328262329101562500f, -0.53244680166244506836f, -0.17249749600887298584f, 0.52889460325241088867f, -0.82525277137756347656f, -0.011636962182819843292f, 0.16938512027263641357f, 0.68258649110794067383f, 0.57404100894927978516f, 0.89595735073089599609f},
  {-1.3219169378280639648f, 0.024801708757877349854f, -0.024163754656910896301f, 0.10473593324422836304f, 0.034004114568233489990f, -0.098969362676143646240f, -0.058739997446537017822f, -0.56157505512237548828f, 0.14922039210796356201f, 0.78556853532791137695f, 0.85422521829605102539f, 0.23256222903728485107f, -0.41959822177886962891f, -0.25451377034187316895f, -0.032052896916866302490f, -0.15642945468425750732f, 0.34298732876777648926f, 1.0968791246414184570f, -0.76516950130462646484f, -0.081676945090293884277f, 0.34525385499000549316f, 0.090505123138427734375f, -0.29825672507286071777f, 0.17111901938915252686f, -0.33742409944534301758f},
  {-0.59447985887527465820f, -0.26104104518890380859f, 0.061161890625953674316f, 0.040538832545280456543f, -0.020526314154267311096f, -0.010154237039387226105f, -0.026960060000419616699f, 0.46149501204490661621f, -0.040378492325544357300f, -0.086763247847557067871f, -0.72787845134735107422f, 0.64347505569458007812f, 0.85170173645019531250f, -0.0075608249753713607788f, -0.021502222865819931030f, 0.14382620155811309814f, 0.11214255541563034058f, -0.44159561395645141602f, 0.38688647747039794922f, -0.35933145880699157715f, -0.036902856081724166870f, -0.051594208925962448120f, -0.40812897682189941406f, 0.050980903208255767822f, 0.49474257230758666992f},
  {-0.28438588976860046387f, -0.028477298095822334290f, 0.053302913904190063477f, -0.092946149408817291260f, 0.15265670418739318848f, -0.065276883542537689209f, -0.28889381885528564453f, -0.52836060523986816406f, 0.14970661699771881104f, 0.44193434715270996094f, 0.46519979834556579590f, -0.48099637031555175781f, 0.63672459125518798828f, 0.40002459287643432617f, -0.14102105796337127686f, 0.039767611771821975708f, 0.41931903362274169922f, -0.30838879942893981934f, -0.50363045930862426758f, 1.1640808582305908203f, 0.86464756727218627930f, 0.033451106399297714233f, -0.87539052963256835938f, -0.10429969429969787598f, -0.27815523743629455566f},
  {0.14525684714317321777f, 0.12043838948011398315f, -0.018098397180438041687f, -0.018195576965808868408f, 0.096639394760131835938f, 0.034165177494287490845f, -0.19676202535629272461f, 0.10855558514595031738f, 0.086106225848197937012f, -0.053175248205661773682f, -0.32347658276557922363f, 0.26050436496734619141f, -0.059308771044015884399f, 0.049859095364809036255f, -0.063928738236427307129f, -0.038295678794384002686f, -0.47650650143623352051f, 0.64175134897232055664f, 0.26200130581855773926f, -0.69988739490509033203f, -1.0343010425567626953f, 0.0049509764648973941803f, 1.6456742286682128906f, -0.37808531522750854492f, -0.92409324645996093750f},
  {0.12340491265058517456f, 0.10623481124639511108f, -0.19303998351097106934f, -0.13903623819351196289f, 0.036054484546184539795f, 0.077184736728668212891f, -0.16873180866241455078f, -0.15290321409702301025f, 0.094638064503669738770f, -0.53717249631881713867f, -0.20049180090427398682f, 0.51745390892028808594f, -0.20348045229911804199f, 0.083991490304470062256f, -0.084900781512260437012f, 0.17775383591651916504f, -0.45528325438499450684f, 0.29159995913505554199f, 0.60893326997756958008f, 0.35071837902069091797f, 0.098713651299476623535f, 0.17563903331756591797f, -0.81166946887969970703f, -0.20444001257419586182f, 0.66591894626617431641f},
  {-0.95077443122863769531f, 0.10792911797761917114f, -0.18876078724861145020f, 0.19722464680671691895f, 0.12416414171457290649f, -0.18572457134723663330f, -0.018163422122597694397f, 0.12401895225048065186f, -0.22557410597801208496f, 0.090245544910430908203f, 0.42747837305068969727f, 0.36968529224395751953f, -0.28064459562301635742f, -0.20400165021419525146f, 0.035116653889417648315f, -0.10494370758533477783f, 0.19091503322124481201f, 0.93087673187255859375f, -0.18147610127925872803f, -0.12298779934644699097f, -0.45700204372406005859f, 0.18524999916553497314f, 0.78549891710281372070f, 0.17766098678112030029f, -0.29700160026550292969f}
};
static const float tensor_Gemm_1_bias[10] = 
{-0.27066978812217712402f, 0.38066324591636657715f, -0.0079593686386942863464f, -0.028530735522508621216f, 0.23381154239177703857f, 0.36713531613349914551f, -0.066269449889659881592f, -0.10121376812458038330f, -0.17263570427894592285f, -0.039079610258340835571f};
float tensor_onnx__Gemm_5[1][64];
float tensor_onnx__Gemm_7[1][25];

float tensor_input[1][25];


static inline void node_Flatten_0( const float tensor_onnx__Flatten_0[1][64], float tensor_onnx__Gemm_5[1][64] )
{
	/* Flatten*/
	float *input = (float*)tensor_onnx__Flatten_0;
	float *output = (float*)tensor_onnx__Gemm_5;
	for( uint32_t i=0; i<64; i++ )
		output[i] = input[i];

}

static inline void node_Gemm_1( const float tensor_onnx__Gemm_5[1][64], const float tensor_Gemm_0_weight[25][64], const float tensor_Gemm_0_bias[25], float tensor_input[1][25] )
{
	/* Gemm */
	/* alpha   = 1.0000000000000000000
	   beta    = 1.0000000000000000000
	   transA  = 0
	   transB  = 1
	 */
	const int M = 1;
	const int K = 64;
	const int N = 25;
	float (*A)[64]  = (float(*)[64])tensor_onnx__Gemm_5;
	float (*Y)[25]  = (float(*)[25])tensor_input;
	float alpha = 1.0000000000000000000;
	float beta = 1.0000000000000000000;
	float (*C)[25]  = (float(*)[25])tensor_Gemm_0_bias;
	for( uint32_t r=0; r<M; r++ )
		for( uint32_t c=0; c<N; c++ ) {
			float ABrc = 0;
			for( uint32_t i=0; i<K; i++ ) {
				float B = tensor_Gemm_0_weight[c][i];
				ABrc += A[r][i] * B;
			}
			float tmp = ABrc * alpha;
			tmp += C[0][c] * beta;
			Y[r][c] = tmp;
	}
}

static inline void node_Relu_2( const float tensor_input[1][25], float tensor_onnx__Gemm_7[1][25] )
{
	/*Relu*/
	float *X = (float*)tensor_input;
	float *Y = (float*)tensor_onnx__Gemm_7;
	for( uint32_t i=0; i<25; i++ )
		Y[i] = X[i] > 0 ? X[i] : 0;

}

static inline void node_Gemm_3( const float tensor_onnx__Gemm_7[1][25], const float tensor_Gemm_1_weight[10][25], const float tensor_Gemm_1_bias[10], float tensor_8[1][10] )
{
	/* Gemm */
	/* alpha   = 1.0000000000000000000
	   beta    = 1.0000000000000000000
	   transA  = 0
	   transB  = 1
	 */
	const int M = 1;
	const int K = 25;
	const int N = 10;
	float (*A)[25]  = (float(*)[25])tensor_onnx__Gemm_7;
	float (*Y)[10]  = (float(*)[10])tensor_8;
	float alpha = 1.0000000000000000000;
	float beta = 1.0000000000000000000;
	float (*C)[10]  = (float(*)[10])tensor_Gemm_1_bias;
	for( uint32_t r=0; r<M; r++ )
		for( uint32_t c=0; c<N; c++ ) {
			float ABrc = 0;
			for( uint32_t i=0; i<K; i++ ) {
				float B = tensor_Gemm_1_weight[c][i];
				ABrc += A[r][i] * B;
			}
			float tmp = ABrc * alpha;
			tmp += C[0][c] * beta;
			Y[r][c] = tmp;
	}
}


void original(const float tensor_onnx__Flatten_0[1][64], float tensor_8[1][10]) {
	node_Flatten_0( tensor_onnx__Flatten_0, tensor_onnx__Gemm_5);
	node_Gemm_1( tensor_onnx__Gemm_5, tensor_Gemm_0_weight, tensor_Gemm_0_bias, tensor_input);
	node_Relu_2( tensor_input, tensor_onnx__Gemm_7);
	node_Gemm_3( tensor_onnx__Gemm_7, tensor_Gemm_1_weight, tensor_Gemm_1_bias, tensor_8);
}

#endif // ORIGINAL_H

